[{"i_weight": [[0.009269918216998808, 0.03741913332674657, 0.06566566923179018, 0.017886055024935944, 0.020603496674415762, 0.7204236608847993, 0.015247827302125613, -0.004924893635283511, 0.04590677383571848, -0.027967513901150157, 0.023124687896321293, 0.04944136664978398, 0.016330218114926475, 0.9733977187083634, 0.440293821108234, -0.04158831264865633, -0.0851599247267277, -0.024434447781941347, 0.07803943725875635, 0.08078682658040481, 0.03541436029789411, 0.5101888443553383, -0.016693636933129672, 0.008343104665943606, -0.03232086013551712, 0.05542707290378797, -0.05923850601878885, 0.6779276864817183, 0.03341248164417418, -0.07922112931910309, -0.04578675147792372, 0.030297863813648743, -0.4215099007928621, 0.011437094006204723, -0.1101195598006655, 0.45396429884116424, -0.024045293362895067, 0.007252056419169624, 0.7334462416784042, -0.04081524405668639, -0.008638967221348574, 0.07490214724991515, 0.010121803564945788, -0.03315090784355742, 0.04102480693776267, -0.008010968061605643, -0.03175482422194022, -0.0912291704293793, -0.04566473704589262, 0.050976323699314686, 0.060005528628289, 0.030574818663274817, 0.05091267930689228, -0.053506811993772656, -0.04363175718706681, -0.03697136023619368, 0.1024299187343596, 0.0291827863627311, -0.008606623668881997, -0.07784789236008177, -0.13463276160905646, -0.05421442775188022, -0.0008845936829546201, 0.0029784460483214376], [-0.05752927755197367, -0.04013681286316295, -0.000593169763318742, -0.04249947308404219, 0.016035911634475312, 0.5676685048441231, 0.0634081770730114, -0.07196240013585867, -0.0031063075871081373, -0.03590593218426187, -0.0018423298876168617, -0.016058230305219304, 0.009385927058216646, 0.7159737786612981, 0.4927570146984192, 0.004697380023947486, -0.0005011365029642284, -0.11304710443432686, -0.06567165343764109, 0.005336602604172824, -0.028548161877876475, 0.3298612252559673, -0.00499920791618895, -0.1316381012661268, 0.029081989740188555, -0.015287670154174128, 0.002768745320007362, 0.5844850765619117, -0.041050289087355606, -0.015446804232410873, -0.01868794938422922, -0.07707230395799831, -0.3876093864607069, -0.043109170183563986, 0.04002694095946815, 0.3130317902509327, -0.0033084378936069935, -0.025403997145195666, 0.6447628139549577, 0.015788680404370137, -0.007318048651344131, -0.06067886225308128, -0.019667730572635714, 0.05211853999385378, -0.01573162865296129, -0.02365194660091024, 0.032479694638625184, 0.02672443378259458, -0.007049301053379227, 0.045807584946412835, 0.08597348683395865, 0.013827618152596494, -0.01850171608162286, 0.023704169812613498, 0.049839061501500824, 0.013495828883735806, 0.0890464201645971, 0.03686341327784151, 0.0357973028444167, 0.030914036555962653, -0.03981891776766232, 0.02397761328169977, -0.03998460355820886, 0.026734135367795574], [-0.00785929400230909, -0.01435109016968141, -0.0014394908175748428, -0.005874150239887954, 0.0010405193821782074, 0.7478508890346618, 0.01791541881672911, -0.07028109759859387, 0.005679186146030592, 0.06702528078298274, -0.0011963997528810382, 0.03484513131315721, 0.0059407992515387404, 0.6559461783425923, 0.5371946329366192, 0.011081300554778295, -0.016606817421417987, -0.10055848516884297, -0.03841874593042873, 0.04814117678779106, -0.022388003239171284, 0.3964295755635457, -0.07320610885750056, -0.04511965610215503, 0.007594964539021927, -0.011903150361957776, -0.018840542592740882, 0.565633144531573, 0.019492145195368897, 0.002749293860246498, -0.029523135359336133, -0.007700949461880013, -0.3629794875473077, -0.01680156973349975, -0.0018443535550151993, 0.4586092763578351, 0.029199344380882442, -0.0346813776672934, 0.7479347613869519, -0.11427291080021308, 0.018193708828461785, 0.01892005689057471, -0.03787817269327727, -0.041705558450423216, -0.011520053690006426, 0.005330272310421064, 0.026248893485866266, -0.0022136510478901607, -0.007402357881943356, 0.11827038639999356, 0.06800774051939674, 0.006546272146619071, -0.010880383278823737, 0.013460655983569204, 0.04931999833653524, 0.021385279168933957, 0.10166648537981351, 0.04999089334285619, -0.019249715398132642, -0.014972397000360124, -9.921899196819693e-05, 0.006929643837023874, -0.023673558792741224, -0.0012871708565749516], [-0.07879553488248493, 0.09576877123810035, -0.2503784553284101, 0.019921988972031953, -0.03412469450591068, 0.6146563395411485, -0.06418998236123748, -0.11414578098285506, -0.09999677897907734, -0.15197931123880062, -0.026915717409928274, -0.030896775668133928, -0.11251508222503842, 0.7334991674490405, 0.5903492988221436, 0.03397649826636227, 0.06465000276444029, -0.0069842306235551425, 0.12049649116245462, -0.06957826880969113, -0.006988812442725867, 0.3615897103176091, -0.12553528710402798, 0.007129789995555914, -0.0012788488364774333, -0.20436897751713445, 0.04320771813131465, 0.5661475734406447, 0.06454811439048518, 0.033723700544110745, -0.04414471963722607, 0.10743972901845025, -0.4949197251984927, 0.0970912772917141, 0.058535036889552396, 0.3702380293566086, 0.061352518470857806, 0.0014241457959890185, 0.6927392709389472, -0.16371409476694174, 0.06388582392741796, 0.08753088714846953, -0.145556236566016, 0.05914173902981427, -0.03742479606101577, -0.022946389072376918, 0.021772355338996994, 0.027071655761852068, 0.08677691834704249, -0.010542360046562579, 0.04585980096180282, -0.04553263664031222, -0.002818997570246774, 0.024779565488396004, 0.04317985937518692, -0.05466791901759012, -0.021027155009180173, 0.08822089426128686, -0.02608330439765613, 0.12889246695207532, 0.013805642356434469, 0.10327861727163586, 0.060711217905887536, -0.01806763390915222], [-0.005600639943699386, 0.00071339107087734, -0.0013274783037313242, 1.5593892837096677e-06, -0.0007047602886903929, -0.10896488345005267, 0.0011446088977395746, 0.00807863297821461, 0.00029299687119401906, 0.0027356815080952428, 0.0004518602176028916, 0.0006214398830403079, 0.0028904883385886615, -0.0970099290368248, -0.06688486151748606, -0.0007007082385654, 0.0022376524086630805, 0.02056630820279448, -0.00034282518286969877, -0.0009996621298695638, 0.0014284432654759246, -0.012680743127166575, 0.0024340339635567083, -0.0007064395967337182, -0.00050086261593394, 0.002703961870793979, -0.0005233714587392252, -0.06177293218101616, 0.0018063466083916451, -0.0008376271984826159, -0.0008205563961782212, 0.0020527074674169033, 0.050703640768054545, -0.0024945632131568745, 0.0019328583834596327, -0.0075269583344803465, 0.0013447893698383564, -0.00040542933006908904, -0.09505477999813447, -0.0018684485849496844, 0.0061040051242879844, -0.00025669429522897025, -0.0034655840785879593, -0.0001721888375522079, 0.0033180101318638347, 0.0005458714407195153, 0.0015045747044797396, 0.004732408474425695, -0.0014192437494527903, -0.0007767266372863766, -0.001854466189087477, 0.0008179470212718681, 0.0006012077850932163, -0.0017170708267585247, -0.0032807174753100403, -0.002914479271589931, 0.0019006460859542942, -0.008101767190811099, -0.00031438855848114704, 0.002719390527802418, -0.00032792724240496155, 0.0019213084067488213, -0.0009681402113563654, -0.001665118629864558]], "h_weight": [[-0.02154326216083997, -0.12090811088164187, -0.049913013155103436, -0.034016419529859, -0.0434276744681762, 0.2356043550508272, 0.02031883878739153, 0.07711129555081063, -0.04122009546655106, -0.009910104448502929, 0.06901375490472865, 0.05952261756227327, -0.09964780346819527, -0.09178057349067162, 0.19353276303789135, 0.05458813508207782, 0.043308352096989404, -0.0628678066413844, 0.007360591122551067, -0.06972294790061995, 0.08956722660198525, -0.203855304279171, 0.02877147241782581, -0.08791737728051205, 0.069255276978872, -0.06321576301764492, 0.020783321748352446, 0.20853031368333774, -0.006256548601142402, 0.13225524330099064, 0.06756503026309295, -0.2002433395014694, -0.1105106537734291, 0.011200260360794571, -0.024473458696937345, 0.033974211586699825, -0.06056759269823845, -0.08321569702984015, 0.13062418212581065, 0.06490418564297364, -0.09996281485357264, 0.0498479611179919, 0.041691289067342485, 0.025779656695907188, 0.12227258619829895, 0.13945004142784007, 0.04037163044752073, -0.01846900733523005, 0.08064220353788672, 0.01989788970660988, 0.018052196008849008, -0.036885747194427665, 0.0650502245270197, 0.0029249652368450096, -0.08723326926826457, -0.06686944399570006, 0.042357194992422326, 0.08817489602630418, -0.03103640413368614, -0.0065940968109912965, 0.11492673049217665, -0.040672789051067575, 0.1069875208337081, 0.007853201547907626], [0.008441227979452503, 0.16429048994819695, 0.028804347718485925, -0.06219419469252139, 0.05208401529733795, -0.2954796560695937, -0.12333575311452541, -0.08340592460977181, -0.0322174213373986, 0.05926791762042442, -0.2529369305498543, 0.08848919904578723, -0.08448927482540877, 0.16149837241113932, -0.27177485955610353, -0.10116263774769932, -0.1298982535379168, 0.17464806017051315, -0.05768640519682522, 0.1620468776193929, -0.029287419156916197, 0.17155215259677106, -0.11583333015705774, -0.11917283534215015, -0.007074149946509897, -0.13296404944382342, -0.17504975541563939, -0.26670593227264056, -0.04767790622420971, -0.032797317119167266, -0.13259871125282804, 0.01677622938454278, 0.02772735356586811, -0.1671653612637968, -0.02943674969977653, 0.010777587183137647, 0.16474841872691368, 0.14512048342015782, -0.21281766575628425, -0.006436704530746301, 0.023258246354166644, 0.04472898921720531, 0.12640523913888058, -0.1781251464808885, 0.009258471267238057, -0.19150805449782107, -0.082820376717326, 0.06953304161290566, -0.010556403742265963, 0.10383839500158255, 0.07008552041526692, -0.062192261473427025, 0.048952455461238255, 0.007693570508086031, 0.10898756183168773, -0.006424901940640865, 0.030958524701917765, 0.14283984719421242, 0.15944304995881325, -0.11897622318416233, -0.12748304563591492, 0.02446862679578761, 0.04728887358153565, 0.08993619061272487], [-0.03448961597402738, 0.23626110642298565, -0.024587547620369646, 0.21516782119131952, 0.01841229976371835, -0.39306436094297226, 0.01725124360502672, -0.20591523091368313, 0.14815069111760154, -0.08056584309298159, -0.030567302302640157, 0.005047451078603343, -0.17133312997722086, 0.2757340131375638, -0.23690411313434762, -0.04258988466764024, -0.16528905258550888, 0.06057756266896853, 0.08378253476136563, 0.0788228631330907, -0.04215999825417806, 0.20935865396707481, -0.13749731142015229, 0.013508014905506526, -0.08106109222016218, 0.16168738534305813, -0.019043364182582036, -0.022112216769804793, 0.18728805587432285, 0.23098699809618134, -0.011930327202283783, 0.04365962120256792, 0.07262426581115963, -0.1680002785805561, 0.055929284615658305, -0.1308920853256555, 0.030994322270799592, 0.10105079002188884, -0.1114475116876368, 0.25352017519784664, 0.03070925739500063, -0.027637593328373025, 0.052110491471206624, -0.09894183153687934, -0.03745161160579418, -0.13744091407044948, -0.08259651842634211, 0.02674379074683251, 0.10877942811330732, 0.10872570325917354, 0.07794485751544429, -0.1070016026728435, 0.05991357177513805, 0.09137959518651233, 0.13704178682723372, 0.1576869735321578, 0.0875116573778561, 0.2403263047733155, 0.20954045244594474, -0.20400283079945453, -0.19043468049761136, 0.11204918880951166, -0.20401789769538556, -0.15263688762309746], [-0.06499551407279557, 0.15329323792540359, 0.007435558231378333, 0.11529726776871049, -0.017497066336991413, -0.35162593324156854, -0.01413285096777151, -0.01989327837391636, 0.07972199905810214, -0.09521556343137305, -0.22871092016829725, -0.01569828714977287, -0.21381212715071135, 0.23810843850378682, -0.19307860318214687, 0.039537120260578734, -0.212623119593487, 0.09131068345811152, -0.041020084142370475, 0.05864940046538328, -0.10145653041825238, 0.18975466707694424, -0.1891962173164806, -0.1706395209904474, -0.06199359754277603, 0.06902191941371204, -0.05919580649634967, -0.12289856981607526, -0.012107363379246129, 0.11674466424424869, -0.08420988967439141, 0.0955175111803981, 0.2824572262706265, -0.2092046691405325, 0.16692530405307027, 0.014428197598917851, 0.09857662837791394, 0.012312921363481201, -0.14329400140952037, 0.027331850817784564, -0.06514045610749848, 0.0340037707286931, 0.09289375594203084, -0.2046040329475896, -0.17725651509102944, -0.154632206102536, -0.0301572225422523, 0.15373543515253918, 0.1252953214180817, 0.01608040000650583, 0.2357671433874011, 0.00794675446971064, 0.07690003524856184, 0.2068766759493405, 0.1142875642506575, 0.1612474364265873, 0.1909570541899402, 0.22663036936556108, 0.2004403075452827, -0.16283896234033782, -0.18675770664082816, 0.07244416538985352, 0.03792068945677376, -0.127345283556446], [-0.2033655790769953, 0.20176433383632264, -0.030435224361002763, 0.1681395049592006, -0.024466014296185966, -0.25569220570524054, -0.0780944066305104, -0.2158288473447526, 0.1223810249925925, -0.09482791765352216, -0.22032874377298642, -0.17974683265229235, -0.2011850244343101, 0.3628532439730463, -0.12865504861065663, 0.029475771034242818, -0.052403329882499794, 0.11866598793936714, 0.028790509607830132, 0.22198828733344997, -0.14978745590706408, 0.2336864882362833, -0.14341544353391814, 0.04292344673135981, -0.16470869906822103, -0.017879125720621176, -0.054757162130673206, -0.32298952014210625, 0.13310283306738163, 0.07723215701370865, -0.15862094672645766, -0.0011868577311402208, 0.16116692596045434, -0.12086106238814699, 0.100931880388309, -0.10080482920759859, 0.2127994246298202, -0.033372261676728715, -0.3259604936372999, 0.08164171862923197, -0.03123274110177314, 0.0598485413716261, 0.020791496490221193, 0.02084810851392459, -0.1426645931385641, -0.06558470000044993, -0.030776137888446232, 0.14051902593907278, 0.21284688192422563, 0.20228570614889568, 0.17596036484842642, -0.03682932402371372, 0.03766452695829461, 0.009449017894336328, -0.008556670487938598, -0.00694627238298184, 0.08893642913873441, 0.11058334689637457, 0.16164545324945565, 0.06453877763424098, -0.19805020708989415, 0.000830083736769079, -0.054873943391761285, -0.019611539463616653], [0.11228918380040805, 0.0850901443687216, 0.052274122225795104, -0.0006750391055735998, -0.034388282094088944, -0.3700963008246955, 0.06482021861512553, 0.05793381445823651, 0.10604811542446542, -0.1301599655626953, -0.05697000678431181, 0.03332711488900083, -0.06257371025640349, -0.3577222326984328, -0.001649489821614398, -0.11640144162405723, -0.00043940904396685954, -0.10876584707603588, -0.050680426753519685, 0.10573627631590782, -0.0212883795410477, -0.1441875747038496, -0.07417247741579974, -0.04242395563387634, -0.031019905374547067, -0.08986083390724024, 0.058642806512342945, -0.1216689462539771, 0.03352877383453142, 0.049764621446986915, -0.0005965089405935196, -0.09012584138326228, 0.0654361870036194, -0.10868023395880877, 0.05346810945487145, 0.0053344078441797055, 0.06691237254527635, 0.032782373107981745, -0.21500212693454324, -0.028794862994420994, -0.03496514724731295, 0.0373262965307578, -0.07569259402327874, 0.07637514075528004, -0.07860764681765667, -0.002517545904698105, 0.07864214072188565, 0.052910194282522485, 0.09391135261352532, -0.11264206646003269, 0.0687881934383373, -0.11332975591741072, 0.003026965721020143, -0.04609740789384458, -0.008994782727585906, -0.06626810999082913, -0.09208635570196752, -0.13671842358197178, -0.01647327763929987, 0.10937457204393301, -0.019858125852502177, -0.09689661363365507, -0.10064233224367655, -0.11242675617005811], [0.05771446808137847, -0.21099865599822074, -0.026052206704791813, -0.17493157315092203, -0.16927782650602163, 0.3978393303221253, -0.02177471370794915, 0.13058664784146026, -0.004271974218189484, 0.04589936086455338, 0.027381231002365527, -0.0034538411356531107, 0.07642893481361036, -0.27287617519739027, 0.16191361055463266, 0.14223321831009267, 0.17651000552502036, -0.010452971005063576, -0.19840523726570217, -0.0023976934022381558, 0.11106454824158686, -0.15902701444352502, 0.1673760356974267, 0.20144354442870624, 0.1500279801801079, -0.052638844975388774, 0.10500484463112213, 0.1971559056921793, -0.14629530884603406, -0.14076389147932167, 0.11046859962331824, -0.03385546013571017, -0.22437417347624114, 0.0986317508798495, -0.21505099636597513, -0.01833392693016975, -0.2110388671129037, 0.060938335482952764, 0.10024272122587786, -0.21162795573087903, 0.08006635025511125, -0.14408578058609878, 0.04655563827891607, 0.16154011896332213, 0.22890795522048704, 0.13519974211823574, 0.01596286736933519, -0.04971892531100667, 0.00938979363763306, -0.10558090214677224, -0.17566278025117593, 0.1807556843002138, -0.11238854575557283, -0.22902265780129796, -0.16939216492224482, -0.10483976331175952, -0.02177729599045703, -0.12164263788747418, -0.11275819004420026, 0.009252910305130795, 0.2035173449100045, 0.007102652133177737, 0.2027316437206002, 0.05189047862156777], [0.15581674552830874, 0.0378993782489347, 0.09090438179090286, -0.06170575072922131, -0.06818242911153802, 0.16103227796473613, 0.09415242193839388, -0.016285428605364832, -0.01323693947355722, 0.010860863281918752, 0.21226156306110983, 0.08458990791234564, -0.06785617315807678, -0.16385306427477356, 0.20699494481986463, 0.07586751978167458, -0.006860525474381512, -0.12449101692028644, -0.07037951542615462, -0.12823404578314138, 0.0954528645778191, -0.23583418726620098, 0.06220000504800388, -0.02938695640067269, 0.030237196775810455, -0.0692759321556821, 0.14367666402361196, 0.35220797876074844, -0.05782789014780219, -0.06390270968681826, -0.027551088607507813, -0.07798573417007262, -0.20930712238844626, 0.05282470842177475, -0.06115814408679205, -0.036699667542495526, 0.061936308567076714, 0.05027296349989617, 0.3044956511996105, -0.0870054118070432, 0.08983741829675815, 0.031411882630147804, -0.016085148300576318, 0.07566543156341385, -0.01974327786432766, 0.2366316417201892, -0.10012509554435056, -0.07950450398287538, -0.10791671862773362, -0.05823893661092203, 0.025309946077999385, 0.024100988548290226, -0.012935050808233962, -0.16034207689419672, -0.04787924671625865, -0.10035430713500854, -0.1117622829103806, 0.07628499214514053, -0.0988393042419729, 0.07145067789209447, 0.1080292478982722, -0.12169183888940022, 0.030668040942600186, -0.09484489691590177], [-0.07915825736293736, 0.15345561962552326, 0.06800776065010859, 0.06906830237997967, 0.17015731554574437, -0.43573881256255204, -0.12467902330836748, -0.0715353715462477, 0.05951513650066667, -0.12645334797977878, -0.19960766469334795, -0.0003191701681042449, -0.1068328333495397, 0.38277467076273786, -0.15353088570200335, -0.10345780443991759, -0.1409394474624683, 0.12629439609853785, 0.18546266821523066, 0.16839233095225517, -0.2580955944267063, 0.30484660420697407, -0.01885674401504404, -0.031081683054238845, -0.1751698827201671, 0.027397486013477346, -0.20208125006783173, -0.28154197246568013, 0.23359774774813843, 0.19874529548744996, -0.17531764659433366, 0.028148327428487042, 0.20317881223837161, 0.01654577369682933, 0.04113862413596615, -0.13303935571059902, 0.19935770828850166, 0.060715520785379666, -0.1315444546119705, 0.06148470695169124, -0.055142909749835184, -0.024378414991200713, 0.006510218554992385, -0.1209125030889285, -0.1389688991282065, -0.16194515913887803, 0.03056422342828636, 0.12486808027584403, 0.1636680960651349, 0.06558674713605259, 0.14584801355721488, -0.024698157835650155, 0.16157425217731702, 0.07138506526447982, 0.18320765077110066, 0.1267588052310082, 0.02564940321866388, 0.21123388729247836, 0.09215317287485307, -0.06402161327040257, -0.12674107317288524, 0.1276198009203144, -0.05957582614617079, -0.09160694702581598], [0.0003311140486780149, 0.1132523249550696, -0.08996177385830775, 0.02997571725663924, 0.13343924776715835, -0.14030850975035294, -0.1183021070252139, -0.19406927392157697, 0.15204076614750206, 0.22048109738310753, -0.20518923110389273, -0.10358033000079327, -0.1481116215025043, 0.11660191013065031, 0.0038501798902297003, -0.16607471945677418, 0.2016712239394979, -0.012781893364739623, 0.15992132010405807, 0.09436296288536807, 0.06009194034907839, 0.15940287250100676, -0.022810710404240216, -0.11482217083154861, -0.026774518331634044, -0.01832623052866562, -0.08182527554607075, 0.1469653485539308, 0.09354083123325477, 0.13975813395723446, -0.02263859845716935, 0.0388291014160916, 0.16797915714545847, -0.13963022758747407, 0.1866864116625247, -0.2339939889242299, 0.028624743364079993, -0.06414878857606286, 0.07384684013280528, 0.17813848483302278, -0.07288704158126594, -0.12477999225094076, 0.07941078356393562, -0.010845777363430583, -0.1707202096094118, -0.178956604399589, -0.15667938142921267, 0.10357993418706155, 0.04465726516935134, 0.03415261383017307, 0.13830754982653426, -0.10726512589205878, 0.12157589059403089, 0.15586421800193231, 0.006970660480383773, 0.1748797423212807, -0.003572203440223806, 0.027237570560404354, -0.008609131847121658, -0.08908317059559906, -0.08351815623046449, 0.08614673602295853, 0.029222148916443688, 0.0313210526805546], [-0.24224175808289128, 0.19116076174732524, -0.15509383442009184, 0.11107319729977583, 0.06789258532958191, -0.3041747224276055, -0.11386489837395083, -0.10263196580406254, 0.025427026993650823, -0.27191658243382044, 0.032884907011920914, -0.20519559784041472, -0.027987524389133937, 0.263437917337207, -0.09746765990987437, -0.21247211271168626, -0.25173242115404765, 0.10593361220605434, 0.0669583884315482, 0.17866037250435274, -0.19124873008464974, 0.31844141816610483, -0.10289563605792934, -0.09728164118702232, -0.04023433472599438, 0.02864973991344493, -0.05986712193338058, -0.17057661070555089, 0.08577452355304892, 0.20810002177712417, -0.27819804261217107, 0.1829500541140147, 0.12599679170586428, -0.13961434695449573, 0.223709896115613, -0.3158495528329733, 0.1508735031495976, 0.2082806993943817, -0.19265662857514007, 0.23824784095550489, -0.06294140664165043, 0.04953666759449575, 0.18999977960465395, -0.09784583885352366, -0.27811727790701163, 0.01807080211752843, -0.10132575434128721, -0.009673949442315505, 0.07565840222159796, 0.2690445085731947, 0.1808886117491974, -0.2371677462992917, 0.08804867793611894, 0.13154860463220902, 0.03460259548801908, 0.08800634005245009, 0.14708687793286884, 0.09197396833620103, 0.16833289812616917, -0.04801920452601928, -0.21422194010335865, 0.1776123576333213, -0.09706541020320818, -0.03581360010153615], [0.1895894295320001, -0.014390436354633485, 0.024658237742420878, -0.12881840500004124, 0.07941927923851155, 0.2011010408075669, 0.042050105424682606, 0.0007860746821617393, 0.0561878563360645, 0.16247104572485058, 0.17030997153407632, 0.019635052613644007, 0.01815821935648118, -0.32636405436884536, 0.10071856724156533, 0.06258548923220449, 0.02301421830163694, -0.15247210765973318, -0.040677187390262576, -0.031159584182858035, 0.01972065130130326, -0.2529196254587922, 0.14590540997627613, 0.15630364268047653, 0.06411561974142603, 0.10209048031927806, 0.03440447926684471, 0.1076989468890911, -0.11251026094628444, -0.12562064424434546, 0.18604143126352823, -0.14699194501042837, -0.2099027450400956, 0.1519207918710646, -0.059484179844684744, 0.07126186559050969, -0.03349918113635266, -0.06199252592136566, 0.05883666939886776, -0.24808367270482126, 0.043784194399775246, -0.13930606602471124, -0.147374732183303, 0.20668487792347512, 0.19374656252278924, 0.05066441108397525, -0.072351490769436, 0.06594250720301181, -0.14330960200825626, -0.17918795266186277, -0.06310041818383434, -0.024123641273683324, -0.12427217094183497, 0.022650159251014546, -0.06310273499611366, -0.04305752212254854, -0.12453760003292892, -0.0350346099710601, -0.17889561270744717, 0.15675143342702913, 0.18747331224366934, -0.06442794180227106, -0.04780500497125958, 0.114609721004117], [0.1868612392698447, -0.06456420295737077, 0.009543035386598177, -0.12399392544864518, 0.03900348961956112, 0.3674833279283973, -0.07714712521819911, 0.13961094743300745, -0.15328111864450344, 0.14770934803189087, 0.15566841914568166, 0.04618782996135591, 0.0032001528015670726, -0.10337578234927193, 0.099795763139693, 0.11277219571309424, 0.2254846590832933, -0.0037286174541129027, -0.04396268440061368, -0.16768339491574838, 0.11681423496917864, -0.2052941610719015, 0.0047303142081706545, 0.03484150750583715, 0.007544248106226509, -0.07439010748176254, 0.04841680886718067, 0.1766607572224017, -0.06797200507711133, -0.15555699623081004, 0.17500933658985096, 0.003270382908503276, -0.11662059523839421, 0.1404034373013631, 0.03642754001417984, -0.07021039147946326, -0.022167801611045035, 0.09980702921664623, 0.3148286533687269, -0.06352579041343523, -0.07388303227958314, -0.01904207678191629, -0.13308685991619457, -0.005229365828371475, 0.1864884880719156, 0.09500100071608585, 0.060286555857186445, -0.08558423713500465, 0.049726089339744005, -0.01354652505824932, -0.12004213704200807, 0.12063032425482383, -0.1384976385127261, -0.09523172953879376, -0.13612703358529535, 0.023631860006758466, -0.17095834617330874, -0.09603442649075583, -0.11734002394052244, 0.01457023092338845, 0.030890819407053426, -0.016601680261142397, -0.07873041734842331, 0.0717125802471686], [-0.08272253680808711, -0.03903871774241165, 0.02870276529759513, 0.11730745526994664, -0.061506599711859296, -0.29513195700925493, -0.06791012878694969, 0.02112896957820511, 0.06846832915827405, 0.023182715975698705, -0.10058418753714347, 0.11595697267057577, -0.11351270108059867, -0.3151423897522411, -0.13093534174767216, -0.01875567475666169, 0.1361405083740765, 0.1245801290410649, -0.04785518550409707, -0.020286334149979057, 0.12284304228637015, -0.1285784092117832, 0.09767045121627903, 0.016540059254987284, -0.029404541436764162, -0.12404613057731824, 0.10581575369409427, -0.13581919490435201, 0.0662707257724454, 0.10742572996727917, 0.020315938403185792, -0.05040142157799086, 0.027781618973119634, -0.03997735737473334, 0.06819169683696279, 0.06036822651581653, 0.11450464468375332, 0.11550290456987858, -0.1349975285562553, 0.13615691708424632, -0.07001535435871044, -0.002920087144922194, -0.06677989123397768, -0.018915597470928983, 0.021193541827942287, -0.09186490724016921, -0.09556808327058422, -0.002809830592980949, -0.02866381293508005, 0.12797716827105388, 0.11154498531903727, 0.07910927149140475, 0.04383978893704743, -0.02555640924523, 0.023886702485901877, 0.046495750721407124, -0.08189577606288051, 0.08521599019762513, -0.10311435340351782, 0.1164198795288414, 0.06349685988309549, -0.09353779324417479, 0.032435938714887945, -0.0031838825386556377], [-0.059815690172561255, -0.11019452279903122, 0.06412874535986066, 0.04297668973514569, 0.12429035472332976, -0.09428356393238861, 0.12326135772310137, -0.07835552240405072, 0.12717915424545775, -0.08217201328491718, -0.04122917507890036, 0.06526312071552413, -0.07272397282987413, -0.2358649606923543, -0.16453982298382025, -0.11130554542416034, -0.0729564414647573, -0.04997665556972306, -0.15533976972809121, -0.03036691781291367, 0.062033295621232484, -0.2472149183695409, -0.07954246825263947, -0.09272336229137569, -0.06542128895753883, -0.07011217439701618, 0.12795494894696527, -0.14048545309587995, 0.06196930826951549, 0.04471132112075861, 0.037707546237365525, -0.10125395064443997, 0.15242311910641956, -0.035872825441089315, 0.048922129032663256, -0.018539048939548924, -0.014391789307680628, 0.14342847716614268, -0.17628868656432695, -0.10133429779506571, -0.048957420941227806, 0.09072952424715355, 0.09108688197991259, 0.1280945961817852, -0.04577975790057766, 0.05526074313939966, 0.0028318615911133, 0.038776102053882586, 0.0995672682424204, 0.10614651092153791, 0.07100246210607218, -0.032890487535665605, 0.09421012737365662, 0.012633587348839273, -0.030705498238611458, -0.1365868778088329, 0.05038892613845015, -0.014994907150457244, 0.054949021843264306, 0.07361637436128259, 0.08508873929634922, -0.07527939840758448, 0.0699713045092664, 0.00011466078699542677], [0.13725974659835471, -0.08577645525741658, -0.11353754685014027, -0.1848327683471246, -0.1300709473811369, 0.452537331396201, -0.004187663280067946, 0.09145221306450341, -0.20605535909824477, 0.011112409555630393, 0.05548550184087223, 0.20170772935061765, 0.19840736673591106, -0.33335488021514814, 0.09992681880112422, 0.17614166354014102, 0.1543230362301035, -0.2211982267231615, 0.027913701890634156, -0.22039066059004286, 0.23042541322624902, -0.32806923076701966, 0.11845929703975591, 0.16597044422652088, 0.1511023805465467, 0.06477568669399213, 0.15263697368792126, 0.11900658704108873, -0.03395741707453869, -0.03670876686278199, 0.18143967681982615, -0.1824988996096267, -0.21162494930932954, 0.026902869382802702, -0.055690849772786113, 0.13309826232334407, -0.021084654053917077, 0.04158228268170768, 0.31976026882456643, -0.02430197404870867, 0.102336588288588, -0.1401010185816791, -0.1874852663557545, 0.08191363775386472, 0.21143117443151577, 0.21485607114640473, 0.20220064971136226, -0.1862520876102046, -0.2292677119049521, -0.024677902502762635, -0.18208033075104377, 0.12219933956512784, 0.019692981780687596, -0.1434429091539297, -0.08339741080786571, -0.10347351151059676, -0.05946752972136768, -0.1218139710515716, -0.18171441135819388, 0.014645899755602071, 0.0632406393941566, -0.11273174056101688, 0.15193600194278611, 0.2171872722446028], [-0.08566997443120401, 0.19054729167272702, -0.14575795512738707, 0.05077286491831632, 0.05457376005102241, -0.20102148932796957, -0.11303992234321461, -0.1733549551509847, 0.05522553762955003, -0.14896567895023444, -0.07945614192424484, -0.18966620359744998, -0.20655557393084442, 0.1933471825270302, -0.12253062277942138, -0.03852288383350609, -0.061194049191439163, 0.1951087561512715, 0.02781996025804157, 0.1264602816060731, -0.09790570110560388, 0.27500353111460796, -0.013411713110913054, -0.14263863816479994, -0.027835081940107344, 0.03793452585067401, -0.09607420979332924, -0.04982136132546897, 0.2300408474287668, -0.021836629926013696, -0.20504430112400032, 0.2715062852603662, 0.06260688287206578, -0.10054595351827826, 0.055832594361596856, -0.251761970395054, 0.16053302546320206, -0.0523616678589129, 0.08167038649727547, 0.13684468702409086, -0.044018795176360315, 0.15263055820089472, 0.19131664055919698, -0.16040532091245072, -0.22134109524923343, -0.16203674055764372, -0.14624554862899994, 0.09171075720267055, 0.05864406820453741, 0.23461648594721293, 0.2404470278955792, -0.06801497401740064, 0.1259797840527668, 0.23270949992639373, 0.21286878670838383, 0.1364668788931574, 0.07328527336926424, 0.08619355969484892, 0.03264874205811542, -0.07170034388286743, 0.0059436943348400925, 0.21584274384285237, -0.18064074566144805, -0.21918376308198328], [0.06310823333898508, 0.041966876503426946, -0.07218234468758351, 0.03209153541813095, 0.04330341797032782, -0.010498238679950358, -0.07628769954347475, -0.14001093119159577, -0.07675688548788982, -0.059852996267086116, -0.1371581870280566, 0.033642132936108224, -0.12620711741782867, 0.10546166355008516, -0.05417150212713566, -0.048005844933834925, -0.06533946310086552, -0.033136426745737975, 0.10202834710105077, 0.1471807952583699, -0.019585750223586437, 0.29695959328573435, -0.06147887240016302, -0.1269865292994734, -0.026710711601539153, -0.013970243424847378, -0.0247628589577036, 0.13530722475332757, 0.018641196738796235, 0.10319366914594506, 0.06343200455983676, 0.10472685978127191, -0.0024344996046813407, -0.10420686911763626, 0.0104181814502629, 0.07494112477863386, -0.04965293932886547, -0.10855948530376883, 0.20933486283834934, 0.07103174243178574, 0.035369762141447054, 0.05936536698632449, 0.053948083006581576, -0.03822889127043308, 0.06671814407495238, 0.08034979631055987, -0.08180465634354607, 0.020801103855842596, 0.03348432916607703, 0.03644774184404654, 0.14223491621811768, -0.061664535488482226, 0.13227178662886369, 0.1332510995182511, 0.014651146179946692, 0.10530535560393446, 0.09560328629230642, 0.07177630292290349, -0.017959014878045153, -0.08972129633571282, 0.01833185464349146, 0.12204037507674746, -0.13387094889082451, 0.03401753124068399], [-0.1057402936767343, 0.18138122963038988, -0.07584468691289037, 0.0499890820055951, 0.05313706747324459, -0.37145608369021904, 0.0038165865432804643, -0.00217964850934382, -0.04675811060929334, -0.06882712977776398, -0.22876539357994463, 0.05568866209349403, -0.03458349256022427, 0.3353889452746667, -0.15454181377616197, 0.01979791741718138, -0.11531311270080548, 0.052619112822055045, 0.03083783922172369, 0.11781256461955328, -0.13168538357348197, 0.30968122106427076, 0.03098137035896286, -0.19180163733688985, -0.1466577240255423, -0.09045902776808604, -0.19261222104182008, -0.277440612611059, 0.06723342305134045, 0.15201769394470419, -0.15133252218407917, 0.05038314778209817, 0.23714452562302335, -0.029167700848547036, 0.15862847184611564, -0.023714801166893326, 0.19684228326756065, 0.07333378951667295, -0.33084192006558916, 0.01531397250175172, -0.06633237904051785, 0.052270850107033334, 0.09692044816796368, -0.11455538079388247, -0.029340669296418622, -0.0415955653765508, -0.09131211494264327, 0.17944450975512857, 0.11039878866297372, 0.17860616285266426, 0.09759323914570912, -0.0129469937656452, 0.13267934269555423, 0.17920114259160708, -0.007715501171044823, 0.05593714147008819, 0.06722205357569583, 0.18674989746905488, -0.02555026856526079, 0.0847360291058289, 0.012110875754635163, -0.02388625843179584, -0.06572521583235579, -0.012812469655116081], [-0.030122086864743745, 0.17718200476559176, 0.0378706000172231, -0.01798274895758898, 0.026360809338247228, -0.21732043010255736, -0.11710069169109559, -0.15570817319586958, 0.029389650310514992, -0.09345288504800425, -0.040318595370103134, -0.013966574281771428, -0.09478299412145631, 0.31660382582153535, -0.08644657749941526, 0.09096955777128919, -0.02736154920435194, 0.059137423591365146, -0.04066250832675634, 0.1483759070806586, -0.24647684385517812, 0.16787251575870435, 0.02037192940917856, 0.05942079928615273, -0.010420309853969308, 0.04819079458315933, -0.18142681415042883, -0.22714609187039628, 0.08844316137459138, -0.002003339719467167, -0.1857086246178526, 0.016040687907335843, 0.09924933509108474, -0.07224861985643038, 0.10593359981615505, 0.02418755993982323, 0.012305610865477023, -0.015346368019592138, -0.3197001596533781, -0.01824235419032573, -0.08054086888720029, 0.10081404728451375, 0.04582578463335099, -0.007688924652385041, -0.00896767153119703, -0.053604716333633555, 0.023478489285473695, 0.15038414349142798, 0.1641093414919849, 0.09709719958279163, 0.10419464923890084, -0.16719640221013848, 0.16850302086941096, -0.019105713778909798, 0.1307713651251646, 0.10750451447105064, 0.04500253613329021, -0.00035207421846368027, -0.035171309823231606, 0.04503072618712528, -0.08496991063012833, 0.1263786561124828, 0.06068150923099674, -0.12967060744496345], [-0.05712436192947987, 0.1231401619018089, -0.1043049443377583, 0.21307920059294994, 0.21707998479821922, -0.34196509522991436, -0.04827823395919689, -0.24723572758614026, 0.1491575758347834, -0.19079243215487182, -0.025844370114385697, -0.12773886023322686, -0.14936427150867365, 0.21189902286558537, -0.19761284405373916, -0.01931340183294668, -0.1078577605086844, 0.033554120361454005, 0.02481944116077987, 0.04141455020447513, -0.15308514968356524, 0.18273482966763435, -0.14387874332419415, -0.06647088078820268, -0.06805108087962808, 0.10747167858456635, -0.017029761400310834, -0.11235061284838964, 0.2346687945535171, 0.18927153110843886, -0.19241868100709, 0.2814216815205278, 0.07776082387550087, -0.25109310627273573, 0.09770178927937728, -0.22534275367851772, 0.16691455236935349, -0.017951459106114703, -0.020971951458650318, 0.26005372173767993, -0.14856168074860107, 0.1157266304100699, 0.1835362084310817, -0.1448243345012036, -0.0755873876283334, 0.017269084187030832, -0.010525491892722318, -0.0148769532324323, 0.20588672913783693, 0.034055543208183055, 0.0846858678771016, -0.20499009797918688, 0.04397392449606663, 0.13871376914356096, 0.183768768206125, 0.08686097729009183, 0.25093948148663814, 0.07896412662325929, 0.1974545098266758, 0.0005738629463610712, -0.1207341401650989, 0.12231676725447341, -0.08776522359673884, -0.14444773499961416], [-0.01775971495898242, 0.010122872833065575, -0.06700247051484942, 0.05870275356071259, -0.11068803035863534, -0.46663816762082183, 0.10719115640828876, 0.04103184125239935, -0.04401290330355396, 0.07031229657785344, 0.041331854677345924, 0.0875254764328118, 0.0071308853415512595, -0.2547641588127289, -0.2826854636861321, -0.030298011625392487, 0.11329233719995824, 0.11010113048299316, 0.10496357036096089, -0.0987424833393404, 0.06478637610964837, -0.18806221290537975, -0.11010701117659523, 0.04036794320100402, 0.05589342924714264, -0.0491520829598074, 0.10400168048321903, -0.13415866808121807, 0.12960790756405002, -0.08500966149133804, -0.11998826931784247, 0.006785442003016979, 0.021170487691276205, 0.000578624102445867, 0.013972243981589983, 0.06921100917656871, 0.11835066817875414, 0.09722618374695988, -0.1379447131464789, -0.06598300719051974, -0.0708664927780047, 0.034804117293876155, -0.05283700300004436, -0.10170275090061373, -0.08481005068729869, 0.07991565377494628, -0.03925033443517444, -0.012498336802484286, -0.09235795976723911, 0.11524544827736156, -0.05545983408213143, -0.09108153008811579, -0.04828006079872391, 0.1211915858899818, -0.04917681532357314, 0.052344047402810026, 0.10326461182352072, 0.1303964309596381, -0.07206415945848416, -0.044493986472750324, 0.03745490297284318, -0.047822421241995525, -0.06496607989341502, -0.09492771488612432], [-0.03761322487620355, -0.04223824891470175, -0.052928340545414926, -0.04277484957103302, -0.014942668510088014, 0.11076065120430631, -0.03354721927088036, -0.06395402469950714, -0.0028800868617458106, 0.08767453038962036, 0.1968422757261668, -0.10224270108328021, 0.04686899351105779, -0.06573089064216248, 0.05351452320696018, 0.06646734818279872, 0.18108452336682151, 0.03890424996810841, -0.12387249350547785, -0.14733001368954768, 0.019231963887604, -0.19179636627005475, 0.07222499437009747, 0.004141593261458275, 0.060085093201572785, -0.01742847364476463, -0.060175157847231764, 0.16360966347839034, 0.05879314937501909, 0.11276776378354988, -0.03235299903348665, 0.009604972712031394, -0.1491554481537291, 0.1148940346178664, -0.12645851954974047, 0.03374385716900274, -0.12055426962148523, 0.11806850366699731, 0.226684921791616, 0.03137310733924086, 0.011477244362771089, -0.03975135255782225, 0.05473398715586826, 0.04742320307886216, 0.02995077402220625, 0.1893333809242952, -0.08072934000166472, -0.08662343829043198, -0.04830762107909796, -0.08014205760710254, -0.14695440900606824, 0.10424488564580209, 0.056211909681336256, -0.025809111617334568, 0.08772117976581087, -0.10265365303144972, 0.03036089800058853, -0.0930797564329751, -0.06331214135069177, -0.08162042683016378, 0.10447368580060626, -0.12722625334212154, 0.09484805002966105, 0.04386924447593443], [-0.020949549756504742, -0.0069139723062244685, 0.005728956528199698, 0.024881845119286858, -0.002988564377025673, 0.29620102397202963, 0.15554947703062214, 0.03125827452654778, -0.07073504659639406, -0.08952380692727416, 0.18693641212451304, 0.006158948735832187, -0.03413965039814385, -0.2193256726616141, 0.15313815734678046, -0.04109080414675344, 0.04479527058697688, 0.006316134627318948, -0.009182378853900578, -0.05684500431053748, 0.14980450534320058, -0.06294704509810746, 0.1660773056432357, 0.09605472881670106, 0.08406405332936961, -0.15397701625155685, 0.1120912081237942, 0.28787802530261586, -0.00534062274987602, -0.135424444027445, -0.0040356885629604725, 0.0696722543834592, -0.05997278731683283, 0.19583045017266534, 0.0072366637920304525, 0.0469580648067231, -0.1878490398568502, -0.0682665964927494, 0.2025463968183235, -0.08034205341874844, 0.01827734544642923, 0.12638106986902417, 0.05581373388036657, 0.036240792048410124, 0.11203135799817139, 0.052743535599100895, 0.1654529967993881, -0.14595832856426363, -0.031952713556573836, 0.035305815028862826, -0.1648526334173003, 0.0102690592985489, -0.03012178801512216, -0.002072518142206396, -0.08591784366517707, -0.026465275358580252, -0.1538570127875138, -0.08783536948263913, -0.1747423000279197, 0.008228485152826428, 0.028133504010120606, -0.0907560282304825, 0.1877669923031359, 0.007123231167309478], [0.09172683290786106, -0.06893778719989188, 0.14918208504295347, -0.140141421498097, 0.06219263468482043, 0.1949973923353949, 0.04041420936371879, 0.09364757989737486, -0.12504256632325353, 0.017974961429778842, 0.11224764623316386, 0.14598170417135986, 0.19078883257280801, -0.2610532004998616, 0.2853075583615861, 0.07913791303519094, 0.08520055990629612, -0.1798829419940293, -0.09050859423074839, -0.0791419328459156, 0.03460740209743823, -0.3233570188798758, 0.13076689379793896, -0.000887529910780698, 0.15157259223599218, -0.05061011502833564, -0.008921104160544525, 0.14814748653230142, 0.005289711501838845, -0.15744580149725135, 0.011407413101260441, 0.0028023522408218587, -0.222251900215207, 0.11856713812049904, -0.030038191117318837, 0.08019669844419333, 0.03254910787157708, 0.01279609985967003, 0.10604396741753325, -0.1074981366230137, 0.0915074489802781, 0.03296514747476053, -0.15031769550399224, 0.14429631059004303, 0.18141979887439413, 0.20708032245026078, 0.050934248891965954, -0.05475671451684172, -0.0724439653600056, -0.04678639802715808, -0.0014448436588762209, 0.09968804945921192, 0.034789490656221125, -0.04340823525047309, -0.20246522120125354, -0.04453261149616288, -0.15042831836254658, -0.15373977342051648, -0.12196098734886743, -0.01093870950336548, 0.11446673515496976, -0.045513622518872664, 0.005362537894601667, -0.031143748369639606], [-0.23311028548411847, 0.12744987757819695, 0.0009999733703985561, -0.05595809757840702, 0.1733139668102019, -0.25663015431129593, -0.17137266108903323, -0.02670937598219422, 0.1935148022961377, -0.015133372095213227, -0.22387171908466166, -0.16692730889615354, -0.12117953095151426, 0.370829932774924, -0.26887600751771834, 0.00363995453211823, -0.22132505758847068, 0.10628761001956132, 0.12077966475566139, -0.010300308581908873, -0.09610774827345615, 0.36022460619133834, -0.2004137284359437, -0.02189946116899154, -0.05808619814698268, 0.03249749370120043, -0.22538477047386166, -0.2531627429542575, 0.11834468940696037, 0.18884788095379113, -0.07337014340686324, 0.11656420053101464, 0.15461608035347965, -0.06939687233376093, 0.022690271382962566, 0.033574409793259694, 0.16061667210479863, 0.18901295540260635, -0.19395343706482152, 0.06085601149240797, -0.15237863125801862, 0.11078181415152707, 0.13870106663477982, -0.18814298916026842, -0.09889297147180605, -0.147767400793543, -0.16496241640333678, -0.021167820765144705, 0.2135468850126038, 0.05895801520360672, 0.22450804435361674, -0.19181994778646128, 0.07260644333885503, 0.00892362548639595, -0.019702846238035115, 0.07586204066853164, 0.011058533414843643, 0.1634521747498009, 0.1482237562579104, -0.1406878478434327, 0.005755770094946682, 0.15798771833028416, -0.1308954037558417, -0.031094651979921926], [0.126600155988862, -0.0968214472565806, 0.01084053426550587, -0.04814688881605723, 0.01951282880618824, 0.36257978827033666, -0.07512704343517801, 0.15498654749998983, -0.13386713373126402, 0.0655698657887022, 0.11153719972042359, 0.08959025800199177, 0.0944114225670066, -0.19245502382314053, 0.18476573297237603, 0.01478859404745637, 0.18145090468020925, -0.06578096268661601, -0.03241740430383674, -0.10529094891492179, 0.1491377878212858, -0.21576856652935855, 0.08401176972936217, -0.03898752032854782, -0.0590183630758786, -0.005204037994703287, 0.028722489461254424, 0.18811591697459173, -0.15199486275696997, -0.1346020309541299, -0.05830582564351249, -0.13357174232489366, -0.12885276554941696, 0.09384758176611252, -0.07182466798006458, 0.11483256442195731, -0.15339781913611167, -0.09051847995333308, 0.12801366721353474, -0.05795083484227693, 0.09477210259040539, -0.07499655938541071, -0.05157977975468437, -0.05411219414274914, 0.13871318672081132, 0.11101841241013222, 0.02982685634164364, 0.10473176749923897, -0.17311216403723903, -0.1449659811985008, 0.006665899437906278, 0.10989471003540259, 0.041437345583312996, -0.04688397271231356, 0.0665259000212975, -0.03493845308178688, -0.031410070577464186, -0.16591084467206246, -0.07109576020558023, 0.056654374146036204, -0.012058902705435803, 0.05573196742816153, 0.07085075896862357, -0.0335124907686346], [-0.07447557173241678, 0.02015335953087957, 0.1008692402910921, -0.034146305147634705, 0.18174802137732923, -0.32692395662687074, -0.004622246257594531, -0.2550908329921177, 0.025187497649812273, -0.1674496301854754, -0.07904587766665287, -0.18233896367551763, -0.12567639035101588, 0.1635031527689752, -0.19531633303318452, -0.047119012273005315, -0.1349971700029111, 0.12364059215583485, 0.0617461849264085, 0.024360491819782663, -0.1569519485493924, 0.23259777671880646, -0.14905397453784178, -0.07901281823006173, -0.05838749542418785, -0.05531449463134374, -0.2349896875251968, -0.3117261902187092, 0.15389536535041362, 0.09223159534895822, -0.0766525987972904, 0.25381919635300104, 0.1730840429986674, -0.1962338070977978, 0.2224466967693858, -0.17357579821713548, 0.1701663725113253, 0.12650294852822605, -0.11029173479767594, 0.11638097402336603, -0.009133534055315732, 0.031189020708633216, 0.14349609785301362, -0.18162143599378036, -0.16786236745548436, 0.005436992870602596, -0.12059390787667225, 0.009080349091823701, 0.13147090360501154, 0.06182959877237632, 0.12456786953067403, -0.015648470698817942, 0.027634323743184322, 0.09593601143601178, 0.14860367172731415, 0.08647180559688403, 0.23583253201612894, 0.17002536459791376, 0.1711528895789887, 0.046768308673096344, -0.13773907441113473, 0.07778869472239787, -0.20464764800923899, -0.17929632021713332], [-0.12311360072726486, -0.03206633019640298, 0.01098130483705943, 0.010038373426857202, 0.04121151156113212, -0.1777493289665296, -0.06021642074755145, -0.09346545435062098, 0.05626808900667796, -0.04875811247551426, -0.26049240544191216, -0.021205415174155657, 0.07317905617822697, 0.1471616598190105, -0.18379306558268838, 0.12087192155026119, -0.06708139428363671, 0.017332784862948706, -0.07123820948186418, 0.10336628717599984, -0.07198189520078972, 0.25826873744821277, -0.12738453806881345, -0.13180320383106603, 0.04293879627597081, -0.0987606992767361, -0.1173373637077193, -0.30026241705572115, 0.12690154622538383, 0.014685867666858091, -0.1632244989760642, 0.07002924727233122, 0.15703220992047365, -0.016837204761315342, 0.07258585261149123, -0.07466528696055424, 0.11216521054235119, 0.016954273288636655, -0.1132769081363404, 0.18841922493242025, -0.012859889487923193, 0.14027917854117475, -0.1372613223263828, -0.16531627287673709, -0.02442085232548383, -0.19395158667474455, -0.06394983735522752, -0.04895189067805839, -0.0070457465269349664, 0.10274213005148693, 0.06980877699842356, 0.04916230186764693, 0.09757958910330755, 0.13302696307072262, 0.020567478504797843, -0.02223740165975095, 0.15546853025176893, 0.08660050451932325, -0.06650444033416503, 0.02218917861336748, -0.07992892417712065, 0.16719191111833412, -0.13219372088982914, 0.021655008217298363], [-0.06423127278108991, 0.046750621260314464, 0.07932999736942906, 0.13908685211180372, 0.1463460945273808, -0.4293847926859873, -0.027623778727448478, -0.15973043720266553, 0.1400006859500792, -0.03496316080425082, -0.12258761797486419, -0.15083826001673065, -0.06867191428539154, 0.30800693216749137, -0.08560841044552162, -0.029367092052491342, -0.018375802475553687, 0.22256710227650747, 0.10671681192155857, 0.0882232301441429, -0.17208396351051314, 0.34095994189203466, -0.22710812258801027, -0.16452583279073466, -0.1674117439918616, 0.07132450725865988, -0.13178463749473096, -0.2376901252324795, 0.13268402197471837, 0.03415912250380442, -0.09484669325710508, 0.13588302794424728, 0.27580221085812745, -0.06047029945309582, 0.14024011065560046, -0.16466633577137132, 0.1979895796902658, 0.045215774215628154, -0.12350372898319918, 0.01371287260899971, -0.055331464405607614, -0.010735573873670055, -0.022428807792884864, -0.01958660740832018, -0.07014108391002508, -0.17129593870137874, -0.17060858863477243, 0.15980137687627757, 0.2005631751223998, 0.03072332152179057, -0.00501630853393999, -0.06422847292944153, 0.17522779320527218, 0.19923552622363397, 0.11832156204574724, -0.003591198899423721, 0.05787222430624556, 0.20297924711574028, 0.0848470453100481, -0.12898667790704252, -0.16045433067366197, 0.037216109842676925, -0.15711788844145594, -0.07037509852576], [0.16729551183392305, -0.011965937525068271, -0.060601643830701823, -0.13210867486012653, -0.06241811085075731, 0.22408011004594372, 0.07225275542351657, 0.17241913691304345, -0.040861231966286465, 0.06641026638190618, 0.25543920607687587, 0.07438361341534278, 0.070077231020501, -0.28410889111945403, 0.10131052077957801, 0.11473356226622453, 0.023236257089133277, 0.02947100757966704, 0.014465953095024528, -0.07272333850678879, 0.1249347703502598, -0.15031447379786428, 0.11466915100112382, 0.04299534514277779, -0.06959868853868821, 0.08576503995855145, 0.019538515291219565, 0.3639300221257845, -0.10772025868844502, -0.0734232396991808, 0.014648972091966294, -0.054551574063828295, -0.015646221162457234, -0.04830375009751257, -0.11524703343247204, 0.031397423552328316, -0.043853712901455406, -0.02277653074660294, 0.26951559550418797, 0.03183687969544097, -0.0011085678685689626, 0.010779347976729994, 0.08254194804683919, 0.05849005037703718, 0.002519720041169887, 0.17198967300486512, 0.030645658914962487, 0.08796406647398372, -0.15663899290247452, 0.051197090529038806, -0.049404786655679926, -0.0893951594478409, -0.06253099705592455, 0.005018978161837093, -0.051440887708459594, 0.11495817648503438, -0.07298096070339145, -0.09527141671023556, 0.03543725900099128, 0.00843806826964214, 0.09456732804500725, 0.02486625238770603, 0.06249134301207128, -0.0027028538698479782], [0.06405651656576043, -0.12381477950638388, 0.14570755707937963, -0.1246527385337501, 0.007432402732416349, 0.2880618501648707, 0.11955384214838032, 0.22970788868277817, -0.09764730915178355, 0.06120916491594801, 0.20345999388962602, 0.04049675710819596, 0.17565962539008154, -0.2835104425974235, 0.21180301275622176, 0.04869242753894734, 0.143047666847643, -0.2480360906960302, 0.024783245597264417, -0.051760234692770815, 0.12810571598445492, -0.2820523526744145, 0.09499760527624417, 0.10277549472051532, 0.2213127697318447, -0.0843213584442491, 0.13886102028147165, 0.06643542100722201, -0.18281200593790192, -0.19713311772975928, 0.2628843562534023, -0.08703850308505995, -0.1329689350854897, 0.026284837582408016, -0.18285345706641246, 0.28041360483384065, -0.23680200259745535, -0.16594168918393423, 0.11243866225362542, -0.1457063264742563, 0.15787256316981793, 0.014373234416866271, -0.24514273266107514, 0.07740536284030493, 0.1280998915668057, -0.019269344847250014, -0.017913235009394107, -0.1633007751954193, -0.13165048804399884, -0.20418346893698028, -0.052479239239037086, 0.07615760809679756, -0.0139758827213448, -0.012248419722887715, -0.15169318801987908, -0.16020667079247072, -0.19204523298437362, -0.07322979229153682, -0.18650800672912612, 0.06149606376076113, 0.13218271867513312, -0.11442467739388305, 0.23477362731267928, 0.059262554310707274], [-0.07120330879112606, -0.024018463720601783, -0.029881232207783957, -0.10518122937955364, -0.0196045251710078, 0.2845396449212729, -0.066660266248402, -0.06141633781192567, 0.1158916253587371, 0.0895262826126416, 0.04068031291560828, 0.04950831548590827, -0.11351287262288612, 0.2401736389863328, -0.01767882835858046, -0.07363972757531763, -0.0988384222752656, -0.004680317393931455, 0.012894605506860533, 0.14026452303802145, -0.06182396817092547, 0.2230185956721976, 0.038815733238431904, 0.04828763848463731, 0.0524095957462928, -0.07408526094962425, -0.029076846806143405, 0.00733755180271336, -0.05326281356883905, -0.016875861698705724, 0.02865170644046885, 0.0983509992799218, 0.06919305564278393, 0.06756330765954124, -0.08342680229267829, 0.037963242032043494, 0.03497082182486994, 0.10512395288191563, 0.0780922058284394, 0.02096127781235193, -0.06056867473263314, -0.13419781243308432, -0.0036031127842874465, 0.025307937768271577, 0.04101875432411776, -0.09265633281771539, -0.05149148731780181, -0.11188608855851992, -0.035461782900082936, -0.048932091136881024, -0.040508793798884675, -0.060260213851592644, -0.034818193153412114, 0.14866384839372632, -0.010871411980777694, 0.12997064909960376, -0.04680386889428655, 0.09359723494524592, -0.08008125313949307, -0.03251937818698661, -0.1505685875138711, 0.11616014554916443, 0.10092951529711632, -0.1268956245515324], [0.1958961683655146, -0.006720789552723886, -0.014801754391049755, 0.0701805852660758, -0.07957301187913185, 0.2535056038196495, -0.07491696509713375, 0.11867419253374634, -0.1543895267796166, 0.017982870150223578, 0.17149568334236284, 0.1165117881441136, -0.02870401638583122, -0.15379419865162142, 0.21920754254131714, 0.04881714620847904, 0.12396281284941336, -0.1823448475203233, -0.027616920303465842, -0.09254000724600928, 0.21512828959022953, -0.24460950141072846, 0.10327269570385482, 0.0377440596188443, 0.1405151423532375, -0.06334736335016623, -0.038171554256419056, 0.31146458430085483, -0.0985075800239748, -0.019874591093896967, -0.04184146890790789, 0.04113036087595264, -0.03889330686599187, 0.08699400458064113, -0.2035804266915702, 0.0014658736278758105, 0.06055634040730217, 0.015443551006566948, 0.09601306492862392, -0.10311714984731378, 0.14047045620257662, -0.014859577872280203, -0.1332518158998708, 0.10533218717641603, 0.018129092811465554, 0.035482424531171126, 0.00795211371745177, -0.019204272196080712, -0.18567803711866038, -0.059946085274824354, -0.07800465575984197, 0.12671762213552157, -0.06416620906175854, -0.05879905667548613, -0.01000613022271309, 0.07213201738956446, -0.10672824520272338, -0.04967846772900485, -0.01624734317229362, -0.09555647024642198, 0.14781533856069765, -0.10205531846501706, 0.0851645650093336, 0.035207960539260924], [-0.003859985863607582, 0.10176860501703658, -0.11535364069554833, 0.04307036859375012, 0.08928716972459484, -0.32309685987851977, 0.07173381582845907, -0.013805620522828443, 0.12055887304994681, -0.07902903504595586, -0.2314694620157869, -0.05300532230144483, -0.0900162578254395, 0.2335259619782873, -0.0790553433677577, 0.03966067497088489, -0.17660336196384765, 0.14055213758036225, 0.14251776223267304, 0.03921289573476602, -0.08513979567168083, 0.15568715378204473, -0.1103153059336632, -0.0910642383659938, -0.06049896965509882, -0.1003766045661506, 0.06514801146692421, -0.16087695407007227, 0.03415117226326817, -0.02776405245880284, 0.06252673214451619, 0.010282400703739137, 0.12017042967635592, -0.1378566218680103, -0.026292607667859638, 0.021295775109583793, 0.06577041215799512, 0.026130511757296256, -0.05047725355018895, 0.18654210230009632, 0.07005403830258651, 0.030040259851361144, 0.06922163148717302, -0.14668907990896243, 0.0011458229848146074, -0.14085380398619035, -0.08220744913888196, 0.12844779395194636, -0.0035240522903772155, 0.07375144866370607, 0.14416814557635374, -0.022629677038363605, -0.07978788454496782, 0.125705017343004, 0.0034530470748247487, 0.11867900748148627, 0.14499698536455935, 0.13246117166356733, 0.0011552934767527908, 0.07516391334263749, 0.0783661181865853, 0.0521567268165792, -0.0186069971165866, -0.13035614210171503], [0.08844575114391069, 0.052535397554230416, 0.015212549555264816, -0.043477435132641754, -0.009868446629191386, -0.30496075940122264, -0.09095058283579233, 0.012702493262340029, -0.0647822740671893, -0.10118395255227683, -0.0427478937965901, 0.12214638295968615, 0.12472779205731767, -0.33260631297748106, 0.022463283499289912, -0.09101434199113914, -0.019877270151629982, -0.1147878174981343, -0.06460898687997906, 0.0295757799702379, -0.034752538269639775, -0.14353305335686076, 0.09314430130323754, 0.14240075593597049, 0.0221495777377319, 0.05363214070594381, -0.014154317603000847, -0.16648623586452307, -0.05458647474972138, -0.021122824793730413, -0.0652533154028303, -0.07810650359560992, -0.07807119619847194, 0.11546670184192744, -0.14667778068067167, -0.028082503544600804, -0.06321525232606362, -0.051042366067590314, -0.2346978305339994, 0.021203058594572666, -0.09658959149989968, 0.06565157892502736, 0.035575823161576155, 0.10999486517800725, -0.06981130626344541, 0.022786957377650102, 0.06945901115901186, 0.08723921502966098, -0.022746105114782915, -0.04029766478842875, 0.0814957371236133, 0.08590692031216245, -0.006829970279745407, -0.07731239014820193, 0.05723882038005166, -0.042483307707940905, -0.13310431733961597, -0.04135781428211388, 0.06278554929903794, 0.016449158887337927, -0.09317563576071247, -0.011799833517956031, 0.12443823594162018, 0.08977675905763245], [-0.04215652750735091, 0.15890779596575713, 0.021646513587981638, 0.004151507587888086, 0.024405862796292484, -0.20008910089773743, 0.0864122160873515, -0.17155344745508389, 0.07466883698848799, -0.052121659941755445, -0.10336848062851602, 0.05534011364389525, -0.02337997660963138, 0.11257170551318214, -0.17457766403308045, -0.11229157946431821, -0.06964908925345635, 0.17252076111603598, 0.10884348346163775, 0.011596802830952203, -0.12126649880915075, 0.12135599326816439, -0.05382782404042094, -0.08906852481299009, 0.040221852247130825, -0.08446563047448379, 0.0713194574768034, -0.22280852964204867, -0.04629407024607419, -0.11234393208034481, 0.06338769321364982, 0.018387642541269435, 0.07533699219257188, -0.10654948818237699, 0.17384033008665448, 0.02445139065839395, 0.03496626950532007, 0.016607312678242017, -0.2145120976868821, 0.11038532516657598, -0.017787997891205283, -0.029235542297794074, 0.029690452054568283, -0.08271154216513184, 0.01413230722137548, -0.178001553455572, -0.0038317938489889234, 0.07845570345676536, 0.031855454194346045, 0.1720007826506456, 0.1384122373255862, 0.05524095208821373, 0.13179970289940016, 0.02905037249086, 0.07164639360046965, 0.05361054698052445, 0.09884387522696762, 0.1703515396205033, -0.007084407856156104, -0.046983831273142054, 0.05186375079219162, 0.1279966773239454, -0.09251897852138147, 0.006285894641285002], [-0.03901895539472995, 0.05237914457962868, -0.018189857127997606, 0.07701881156965454, 0.0443507950478492, -0.21408451688472666, -0.17895509080126118, -0.11023297485127664, 0.023959614034875894, 0.021335552138135504, -0.04041710966493261, -0.16749671016641132, -0.16486293497471066, 0.275750070834348, -0.1080566574786553, -0.038286788019393794, 0.03325099546444874, 0.09431469614220442, -0.023183389122835796, 0.13002345196974172, -0.08248860213632071, 0.23957990447736602, -0.08349736601498543, 0.03651982568572195, -0.1658568894622821, -0.07480759636636333, -0.17076602396094895, -0.2783398816898556, 0.11383848708843104, 0.10020965341913425, -0.15635460271402915, 0.04297070775077635, 0.1337854915346205, -0.08734349690991322, 0.16986529053784033, -0.05155089461868396, 0.14553755589911013, -0.031242719220143704, -0.18059987751663417, 0.18231150474546595, -0.1295623628677756, 0.004914165978951904, 0.06075203663921085, -0.17025188265239635, -0.026159008820205266, -0.22600570081869129, 0.05612969698167463, 0.04951500266410088, 0.03904976308111919, -0.006037562630259706, 0.07543911161853847, -0.03547586432781953, -0.03343337864276385, 0.03457959146308876, 0.17086503616864782, 0.08566789427329721, 0.015532023849725149, 0.0037906388857309146, 0.1811557451644051, -0.09819373980408153, -0.16678328975293846, 0.21229638131416398, -0.11621191114073064, -0.16336421145596017], [0.10388890212609754, -0.11761413880821253, 0.09112882031284304, -0.15380847775125428, -0.16072984033525808, 0.13896567402742246, 0.1485287103266112, 0.0922164331732859, -0.15775924438939118, 0.08488815043466885, 0.12798466262838096, -0.010248340390091518, 0.11250515558390706, -0.30702644205230784, 0.09021900730726495, 0.0708489398031439, 0.05403006182950283, -0.1818629065681246, 0.02327921293523835, -0.1800951930673963, 0.07283244448563779, -0.27694990337232983, 0.054694250841351266, 0.00626609189605233, 0.1475294186177352, -0.041324392013429405, -0.0010441988290169828, 0.06070286302608273, -0.1922285595291838, -0.10729956171071459, 0.19443961994958703, -0.14081293171370624, -0.10875633938782217, 0.089194080427228, -0.1960285795252149, 0.10362331830966068, -0.0008081179257576304, -0.14971468202881327, -0.09097118271722973, -0.05928327485666499, 0.13275347227747722, -0.1270730959377204, -0.0828288599489286, 0.15158235319106236, -0.018388990385402548, 0.18795859078645386, 0.1425979222994861, -0.07518727215993633, -0.10386340972116964, -0.15745517958694624, -0.22792370897356878, 0.0028295864462184123, 0.04213911473989844, -0.0035604283117899637, -0.15507171318882604, 0.062377432781647243, -0.13723208176706655, -0.15077768012153744, -0.17693044394364338, 0.14096358711976306, 0.22133023993168854, -0.13941426900998738, 0.12137137388322536, 0.035609394101715645], [-0.12853523485472124, 0.0026875894299393604, -0.0007953992610172814, -0.10983171968862455, 0.08322347624754006, 0.13264665566686656, -0.07377479906144939, -0.0014432263088264598, 0.06597232154767935, 0.019759217703328537, 0.035716985416006146, -0.024235297144639786, 0.10508627526901439, 0.28490915670887795, 0.025017209708471665, -0.11670978290385756, 0.03896893017922156, -0.05053468330891962, -0.058515972453412154, 0.12738210445129114, 0.12340403577613909, 0.14341962822767795, -0.08251676750400294, -0.1085666741180286, -0.010450312421234419, 0.09943182531451959, 0.030997751919554443, 0.19000277938236776, -0.04749307428622412, 0.04440440378663095, 0.07770204053704975, 0.016818699154314345, 0.029469812585648503, -0.03250365834179199, -0.02300103835892615, 0.1437603290849784, -0.03866458460928766, -0.1157689001636391, 0.15436603708356555, 4.866173344709246e-05, 0.08093033681181858, 0.08671715875531277, 0.05493218181500486, 0.0726421434754086, -0.02827171275153614, 0.0541781345385092, -0.06511473644823479, -0.1165135045523258, -0.012669050527934246, 0.07181362851800886, -0.030202350544064303, 0.07945263423495487, 0.08250867370106925, -0.0484041890869198, -0.021740934310761656, 0.09993465574378338, -0.03761804616581156, -0.019279449278215576, -0.01631352079753392, 0.06482567941466653, -0.13629257482607327, -0.07359907005999271, 0.016263720198251997, -0.024133414953573174], [0.16512424518509455, -0.17414025709821987, 0.11668108147340807, -0.007319380536735222, -0.17392719339363286, 0.37857054537380014, 0.18892438495107183, 0.23145119396844424, -0.020020527191726433, -0.04847394379964802, 0.12768037538590196, 0.022107824012901033, 0.2157007293513419, -0.23040526735098185, 0.22877756945326638, 0.12798724376292003, 0.09314623290192413, -0.15347799185764552, 0.023854777636201405, -0.14870503363136492, 0.020727182515840492, -0.2826162293432537, 0.19539865985304244, 0.12017187801225898, 0.2072729438803283, -0.13032148690660336, 0.21260016335855234, 0.18479209234392463, -0.1247407692976581, -0.10731844219208166, 0.020671690806568516, -0.13276542704365796, -0.11075993847624137, -0.02196242393096112, -0.215747101237564, -0.04537326689186961, -0.014130834749150122, -0.031119419918493728, 0.13234874371287358, -0.06788486410313863, 0.1761533684588321, 0.09045689557652212, 0.05037914111453484, -0.013629081005665185, 0.14009950707910976, 0.06854408126334528, 0.08975691054255903, -0.11318262899827132, -0.1897356941901873, -0.12927449189824633, -0.12340418486745704, 0.2139635431448194, -0.20049466730440138, -0.15741194993607158, -0.02357681853282205, -0.02618163128610544, -0.03305695814471596, -0.07574556289001617, -0.03862148624198004, 0.05669748167834369, 0.038369153339706245, -0.03094613151320743, 0.1028209131047584, -0.0004485900267220852], [0.19241982472410696, 0.01480528974149303, -0.04903705894777547, -0.10362969108704381, -0.15895996628080816, 0.2696203423739908, 0.15943033719210545, 0.014823923596135002, -0.061457853574334996, -0.10929061763495365, 0.003335054019791801, 0.10244221092730746, 0.16849824117053877, -0.3017652530134789, 0.2686488407633232, -0.0351189860140287, 0.021286491348414587, -0.007958925836238868, -0.0679904115058637, -0.061184782530578165, 0.02192150510420551, -0.324189251559557, -0.004487870623878103, 0.16868266541894034, -0.019732782439869867, 0.006186128032276969, 0.054931793210474894, 0.2630497769804443, -0.13792196100885523, -0.1192451018121859, -0.0007111420906834771, -0.09603314583280445, -0.1595012633167993, 0.1592077134416348, -0.12166319450403704, 0.2275436215764391, -0.07257331761967495, -0.16565374682964296, 0.013084349310614484, -0.09192828124886623, -0.017085748545429276, 0.12593189131138183, -0.11295060893145033, -0.02406793959169718, 0.17353890085828036, 0.15547758031629547, -0.05269615328746062, -0.05267032773467389, -0.1401588192442557, -0.004037867015540906, -0.16116518753774658, 0.18506969727143768, -0.058256880715320494, -0.13876201799827403, -0.018015307361561487, -0.0026371349473542933, -0.11920818331913328, -0.06871248709528915, -0.02054391832998937, 0.1360956496681407, 0.1743939630121786, -0.17645477592306627, 0.14506682701748733, -0.04496420842931484], [-0.12188989847079637, 0.07531169171624812, -0.07546332077231466, 0.032878474974894885, -0.028018780484720108, 0.07000404500300363, -0.0681300270137853, -0.1499847059442181, 0.012053916924580708, 0.26381812441480024, -0.015896547269720385, -0.06400379383098809, 0.08541543779976432, 0.18745392112548456, 0.08019818878949156, 0.014683115631105631, 0.12713362090797137, 0.14448513661126988, -0.0411200070995614, -0.06550765894048242, 0.077021008163879, 0.30076091486977574, -0.04899517990850796, 0.0071977412422179554, -0.1293118985544477, -0.03178793623830734, -0.12580352910821455, 0.14939437006295037, -0.03638165384637378, -0.09706836538214571, -0.09195945342824435, 0.0839432091436585, 0.026977068682295283, -0.06889839942361249, 0.12959929879349255, -0.04206841775126057, -0.03888884625539061, 0.006748829614786677, 0.16007518541299548, 0.020086162862709526, -0.07767078704703646, -0.08568177680083323, -0.04195715217593606, -0.07520749549887835, 0.017624530486659722, 0.10088379295020258, 0.04173081302022387, -0.01136038169813752, 0.061136347442849105, 0.10080059632919158, 0.02203039704786525, -0.05742834673742259, -0.06331557289393037, 0.10100243244761932, 0.12193758861163503, -0.013137556782691986, 0.11147452172864518, 0.06604610672972744, 0.1080869303413152, -0.037136010401735156, 0.024573911160705304, 0.024341208355010108, -0.12178575794092904, -0.008325913036305093], [0.04734165885399947, -0.11740107184963357, 0.09033089014457218, -0.05790275061351333, -0.15441975330925548, -0.028317809133940487, 0.040044271820837446, 0.1458412599275885, 0.03806095380043182, -0.13942881960999964, 0.12695635738475294, -0.013405109702615324, 0.007120406265351174, -0.31173866449111404, -0.1042784521063765, 0.08492860843619074, 0.09501174494510761, -0.0526460659021131, 0.026123419206499805, 0.01973607324239007, 0.038617036340493044, -0.07301123387458398, 0.1285306607474491, -0.004644519642262284, 0.1166663136962354, -0.014399540803532328, 0.025871131372301327, -0.19238446024995495, -0.12542752150645334, 0.03175608478223479, -0.007878974488172793, 0.13451625010552296, 0.020841745212973484, 0.036057143799127556, -0.039520573190913635, 0.012509660055289149, 0.07671269217333464, -0.10863468988771571, 0.026610985731646924, 0.013930440770028986, -0.032137141747792454, 0.17466803945768417, -0.03509103585207965, -0.024144107519414957, -0.060157194670034164, 0.03958883828742869, 0.1358743994586314, -0.08510718071058085, 0.05366854954710156, 0.013728819542561107, -0.16307526095190442, 0.06720891970914573, -0.028219584080422966, -0.12383169473396567, -0.09322131879321138, -0.06868579849347918, -0.16114521289240574, -0.13851896202552264, -0.13391975153594685, 0.013003098014263489, 0.10943245167088442, 0.024981876276583347, -0.03439025918395804, 0.1058284245652147], [0.11543901280761258, 0.035722736532141405, 0.158556975222667, -0.11172858005755935, -0.11897728104469092, 0.33999595006815575, -0.07372788688016829, -0.01121804236507849, 0.0736602720255646, 0.14072260038248796, 0.09089819838803719, 0.1069320951164047, 0.13448579231366375, -0.17374861960482182, 0.16773002003693796, 0.03758277905219923, 0.06040940004072734, -0.03639590397894706, -0.1050217928141552, -0.12879851547353605, 0.1085676911063234, -0.12919090473310182, 0.10082097517599974, 0.16354799137274892, 0.06812592219117664, -0.07603636192932209, -0.03253064753736983, 0.14135359204729825, -0.1399449348317197, -0.00015797953095710986, 0.1484663612437555, 0.01733556217276697, -0.1467540055066617, 0.0569396106086067, 0.008403765800125865, -0.028067676040247024, -0.019167964423407916, -0.09682473477963521, 0.15972882822422285, -0.1619008907474897, 0.000358349847954572, -0.0650388553319234, -0.01633346358898073, -0.0017771817438196958, -0.029100220919382094, 0.08800742850509026, -0.049215263422982644, 0.03723886943639773, 0.0023363580620024333, -0.03989883310137602, -0.1689749311092341, 0.056208181550203976, -0.13654778433800854, -0.1804031561355043, -0.09435103984641116, -0.07762823267290757, -0.03915957607346009, 0.04597422265738922, 0.0025438690000285586, 0.0715463462417732, 0.17119009814327493, -0.026115548576979477, 0.04740018467019298, 0.05122246402608149], [-0.06739665358303826, 0.11814115739713721, 0.016877261169462664, 0.151150202049487, 0.05524252462598835, -0.3698801528916265, -0.170746929844821, -0.09811607853327453, 0.14273537931318758, -0.40038241161946553, -0.07833211599831663, -0.07379898427123964, -0.22056808564114602, 0.21604859556786712, -0.22926508336228527, -0.11233109260513961, -0.23749146925732756, 0.11396894595310217, 0.17107876431038166, 0.034702873688258556, -0.4002101243091292, 0.2041999828756265, -0.048521604171633426, -0.16195036577715427, -0.21587008439213518, 0.1285258416687939, -0.22511132559096203, -0.28131518455349663, 0.20268330706252757, 0.07147591071821499, -0.21014387849407792, 0.18898690501519266, 0.2529988006045105, -0.028123986720313958, 0.03443219019115925, -0.2912518005824866, 0.25213474784351364, 0.11391435450256793, -0.09144744079900263, 0.25644835633142476, -0.19178416044033303, 0.04036577032311902, 0.3031339282923395, -0.05933954198556075, -0.08851803844418164, -0.1186026652276953, -0.10100226144515817, 0.21285683463753957, 0.24085029829352753, 0.02135113156151796, 0.21129800071370874, -0.24983300996514593, 0.24887045984648618, 0.11110607984960745, 0.26008143852841076, 0.06636561474956164, 0.08792868576348264, 0.0974818589165233, 0.1913039747727928, -0.1756108685506482, -0.04738159870610823, 0.15852444509107416, -0.0015353921266337547, -0.013617576505653865], [0.03314576507061705, 0.014951954958833901, -0.09235485853525202, -0.17861489139702338, 0.0548823191242541, 0.40441096637704405, -0.032448684606987084, 0.08851107822178286, -0.06897410191999016, 0.12764638380462792, 0.15183537459669455, 0.1327643898151531, 0.08154884142337519, -0.22402053952988477, 0.23957525819326994, 0.12354405950518903, -0.018848994433176586, -0.2063382819589548, -0.10758491158411396, -0.20046945168472508, 0.09980971321405728, -0.26845137309236006, 0.2133059444591284, 0.0946522669950001, 0.12869551692914838, 0.079991973205466, 0.07853285176254728, 0.07691085716967348, -0.15192840979153488, 0.0056681659075746614, 0.19900822318651737, -0.10857044400493177, -0.20409014216884708, 0.18905314266149045, -0.14148226683574686, 0.09388307328374434, -0.14242847063866543, -0.15461654340854922, 0.19867128663253325, -0.009028777674677939, 0.07628303984905649, -0.10075583497937145, 0.0034846563458657068, 0.1690766648568601, 0.05464390619090962, 0.14613430354241147, 0.10475981419396221, -0.14576818427249882, 0.0285115034339039, -0.1120382621278915, 0.016799031060502265, 0.0021254881353824787, -0.0773451227570196, -0.17735920437177677, -0.2172594034652963, -0.11770249760678814, -0.12544985713225493, -0.11563142118847171, 0.008291508131529068, 0.0788235943153357, 0.08076221682838781, 0.02586264321248774, 0.10013083884772007, 0.030444854762428766], [-0.06331889226683864, 0.0984700527219819, 0.10345844294435803, 0.1751189433601538, 0.034060143593151244, -0.28356547833957546, -0.12887629630034914, -0.07254268438525378, 0.20653511599603055, 0.08169642027807389, -0.12744048291541155, -0.17923069093243763, 0.022038273908194093, 0.2066267689289521, -0.23070641615041518, -0.1220238238657718, -0.07673146318765268, 0.2203414452647076, 0.1968306298841162, 0.04757978325509103, -0.12394252165490359, 0.22681814593419083, -0.22908224535578386, -0.16184579999250645, 0.018524925259383044, -0.08862778159597876, -0.1978244661847625, -0.2268358118582158, 0.15868696603232071, 0.036412897495063434, -0.14710367198691432, -0.011794371449872552, 0.2384473242224656, -0.15793848459138599, 0.11953000734559505, 0.07248826478618736, 0.1560661416980612, 0.026217708070024097, -0.1513598587950401, 0.220166640418832, -0.09538042111794234, 0.04940437616777059, -0.06313828022463186, -0.004206552279987638, -0.20146447343053311, -0.13567562629970864, -0.05645361958560093, 0.012360467449095892, 0.12841825118366573, 0.1144310166450575, 0.15653866323473703, -0.12760521985794226, 0.09462402379357812, 0.1693648345733782, 0.17532871845449205, 0.11392999453232622, 0.11141818186102695, 0.14305399332745894, -0.013529110655417318, -0.06399122211591311, -0.008741045817191815, 0.12219078240287219, 0.027052367706022342, -0.14868084727653388], [-0.19469299329624412, 0.11308170783091513, -0.13687595971949323, 0.11033180943787502, -0.025776701140730374, -0.27112173300543285, 0.04400293498819269, -0.013878520135940754, 0.044028769963488666, 0.08738405909238504, -0.12260670956505783, -0.09932787268848596, -0.11525909164250088, 0.2889018478182823, -0.18471812066244575, -0.06154938850004039, -0.22470713719952162, 0.03773018457398102, 0.14730463659568147, 0.14598822441380047, -0.06207091654743857, 0.08872857334072719, -0.2078732851691672, -0.10829383330552945, -0.061492471331672974, 0.10497005258347945, -0.10293367866292644, -0.2929569316079646, 0.10092294467707445, 0.15539977328100957, -0.02315854746978081, 0.16360486934515556, 0.05875089380157257, -0.15652089885885384, 0.09956337583526213, 0.012659582361165413, 0.18040433703635855, 0.0029918663490753994, -0.2364894269959893, 0.10259111562847958, 0.016708468749817233, 0.05298587820863291, 0.07614289019086544, -0.11078097687596491, 0.008020586028330995, -0.21311806158532687, -0.08264461001972863, 0.10943668140582907, 0.030236877229934535, 0.12291451554201775, 0.03377809482239263, -0.13897797621049368, 0.0025196743353790097, 0.17375767982589588, 0.0676427684155011, -0.03664869591066932, 0.03769572188069972, -0.04334263516053659, 0.13540687364469556, -0.0930610310034286, -0.05409064084005595, -0.04086939662547424, 0.03342416679205314, -0.12874364348613188], [-0.17640836888425918, -0.002352642956477153, 0.07575208034044531, -0.047542934227736276, 0.011342594570892312, -0.28107958594411997, -0.05409154095394671, 0.05928955622231924, 0.08919843818203489, 0.060859084202811185, -0.1298906216301136, 0.06745899046393809, -0.046280843587382936, 0.1566629899924548, -0.13426013434250847, -0.07665954827533594, 0.013691109683986524, -0.009029515926355567, -0.04242163992029452, -0.02765672767850518, -0.027360151518316316, 0.22450541718381595, -0.0756238424940167, -0.16558638904988884, 0.09712170671711114, -0.10501263140858819, 0.04915547055270198, -0.16598498348718738, 0.1521940566693328, 0.08369598249098285, -0.08884548591005428, -0.0007272757614597922, 0.07239188710651513, -0.10543489244827708, 0.10462738078696379, 0.07726633499524964, 0.06740531990175062, -0.06300278386418628, -0.30483391483336736, 0.07959345813989861, -0.012099352039669832, -0.05036193621731093, -0.04144846323833567, -0.048017631585874264, -0.011793493113449497, -0.13928872489057312, 0.10834332927329028, -0.093488920667987, 0.07942457150567771, 0.14905726384414783, -0.01773456672110875, -0.10296864258908589, 0.08957804770320232, 0.04313039905094378, 0.16453054600661185, 0.02670832377300641, 0.15727719810685048, -0.07750137578603901, -0.047065258121768344, 0.05087231962667776, -0.0662532349276926, 0.13265789715815102, -0.03612998755341923, 0.035137905604687346], [-0.028627653716266997, -0.05806120590913953, 0.006532098053753224, 0.043728951015511275, -0.105864359116619, -0.24300663807266099, -0.025976252361853143, -0.048402039173955275, -0.024794165055301413, -0.11022647145779318, -0.22586985924882386, -0.09856875506035136, -0.09547692718335875, 0.2323277463132232, -0.25490610800995633, -0.011147481372570394, -0.019512917817697286, -0.06132577663608446, -0.04667253617262354, 0.07774843664459773, -0.07982462214100297, 0.14437389817079085, -0.12635985817935394, 0.045352972030630725, -0.09297331917586073, -0.1223489722219048, 0.049190622465282476, -0.2906351500913777, -0.009537869074269957, -0.060978175587912804, -0.08404682960428635, 0.03186669736162577, 0.15295698659700202, -0.08060852983351476, -5.7829886357858825e-05, 0.07262523815618274, 0.1171599316439233, 0.02403335170702748, -0.2851428348394594, 0.06973866794806521, 0.04337489879351126, -0.01576521972785387, 0.05791357624273921, 0.03234545226450225, -0.018276120285695165, -0.23469508502164746, 0.056641803330898265, 0.09731712629253095, -0.03331047883774832, 0.14929197967177016, 0.1090628755121425, -0.06380829455914278, 0.03553556252629214, -0.011259930018687416, -0.06867819655431964, 0.06984876147813338, 0.07826957956841867, 0.06346507560868371, -0.060528166886939246, -0.010388113642992901, 0.06210250970865106, -0.04821943069433093, -0.1156201754419872, -0.07403089399541986], [0.041970481485409925, -0.017741851258815708, 0.06685547411413613, -0.1631404451875707, -0.1575390097826332, 0.30319891745415883, 0.07306319188730857, 0.0002710494126276557, -0.01910569931089717, -0.029027925445448563, 0.07529900830589689, 0.025872395093062973, -0.02713924193564707, -0.12653624684143033, 0.29799029754820416, 0.034257803275053254, 0.045336288534008444, 0.02344469796800304, 0.01582792905727172, -0.020408313455373757, 0.120157684460788, -0.23530998305636575, 0.16414807470827913, 0.0680257420056033, 0.10040045394601747, 0.010393356904966055, 0.1333777163229721, 0.1392018932034893, -0.12472637663641274, -0.13890798651405636, 0.02816267682663298, -0.14763058936844226, -0.1481354843571029, -0.052126014199131133, 0.016877613983939516, 0.048145924952739026, -0.183693099156305, 0.010397216974443615, 0.13067214381337067, -0.20877586911060783, 0.11650682965418721, -0.10679974496816744, -0.12065400175997408, -0.03075132310406314, 0.14911466786396738, 0.17389172422020988, -0.08118141422238646, -0.10951930999384435, -0.027308021483945913, -0.174474708968965, -0.07777703839302945, -0.009043297393662397, -0.06878550673854625, 0.008012030472869965, -0.13412588567099254, 0.008029753602157243, -0.10109951812044046, -0.18980167350437788, -0.11318904517205992, 0.1157437778199311, 0.20234747315895102, 0.0028505003565196998, -0.027032336987920524, 0.01656180088806189], [-0.04415947651470596, 0.12392551151149167, 0.04640812818204935, 0.13419684597848378, -0.049059898305787365, -0.3461569876582407, -0.06977402884142378, -0.004615324154621911, 0.1703955449809196, -0.0663559952777763, -0.20922234198881973, -0.09493979168622257, -0.0825926497461047, 0.37841848579831144, -0.2515280011745497, -0.1192811474194004, -0.07755752987014863, 0.11633939549234104, 0.0048043979146411, 0.01118933203055982, -0.13581154889379843, 0.3180613291402904, -0.04661021148394717, 0.040605288982615166, -0.11417659626732504, -0.0018722887624192028, -0.22776676161986237, -0.14097773534304642, 0.1513761531789736, 0.14871678453524662, -0.11998807962502993, 0.1774179692179421, 0.05097977118863763, -0.1866627019300328, 0.08885224876262172, -0.16815404102475137, -0.006370335949235171, 0.0727505240308216, -0.2994338246795606, 0.16316536073322724, 0.053031178641010215, 0.11108465922053495, -0.017589370146577517, -0.20482615466392795, -0.00031777323928590455, -0.004832448696383397, -0.0967476598294543, 0.049379601331345974, 0.009205686667121802, 0.16230280545646966, 0.09820808133500589, -0.010516785087981415, 0.09845446873374444, -0.01112039792909246, 0.06526419009817179, 0.1370949117860054, 0.1551128215121583, 0.14418869801299972, 0.14149595343758245, -0.025611075379272204, -0.07087448684738264, 0.13370733585720526, -0.07248495086449586, -0.01671115405663842], [-0.09216954006550213, 0.047389374291403386, -0.045318700095734556, -0.056051093723666644, -0.030301656929751706, -0.3869774066338271, -0.049722500123103634, -0.08075137805013491, -0.07897686532139486, -0.06851492616375103, -0.18985980804379082, -0.08707544549770724, -0.07907974715353197, 0.07233874024820876, -0.0876262558100836, -0.056504114690160326, -0.1782994674109354, 0.08162796304334533, -0.043848092515458674, -0.06812525529090653, -0.18001624968751453, 0.13461415866441467, -0.014466704992022784, -0.009758487042300354, -0.15141748920110137, 0.06309517115722395, -0.08589171264147646, -0.18515365364323044, -0.06716449581220929, -0.0043455659786652305, -0.1734346688273783, 0.13849641172122287, 0.033271587263015004, 0.007934709420875478, 0.0008534137662800448, -0.10388630332246418, 0.14502565057036937, 0.04417891403861089, -0.06605814439377905, 0.01803289617454376, 0.07238696789895485, 0.13295244353271835, -0.030545830188104497, 0.03905182231872006, -0.09284663106433691, -0.1696927817813399, 0.11016254432542807, 0.136551429676908, -0.02218616233940692, 0.13601726192436442, 0.01546677006365245, 0.08208707104696711, 0.11729106922294233, 0.15211372286443425, 0.06573032749665916, -0.044192825701137695, -0.018920295093506328, 0.057478697291584176, 0.08777257484329708, 0.060385684197069675, -0.13339149075931833, 0.06152765085678335, -0.039377473243969924, -0.09738542366192081], [-0.05292713189088249, -2.792669220930819e-05, -0.029743498759315354, -0.06172187198695447, 0.11110043141346657, -0.2985107028715418, 0.021118033718842116, -0.15253150848314803, 0.049552787426571605, -0.07876304387705102, -0.019844669228021743, -0.04373945159882938, -0.0125264452427588, 0.11610432410134228, -0.05381854510606533, 0.06096475318271613, -0.16662225394874144, 0.1626265053567854, -0.07782386837565697, 0.10582973502853835, -0.1320885995188288, 0.25415182807593445, -0.07405069310275075, -0.15278876581589457, -0.09414687294183523, 0.10898676686726141, -0.08813146759292557, -0.3290841692956513, 0.13214641799120785, -0.09469096614088578, -0.16643755821666256, 0.025526695491636005, 0.00210716784197204, 0.08695910378522269, 0.11040301282171318, -0.008239527017943655, 0.11333130254664964, 0.05479189273929441, -0.26851089029702063, 0.004414224884322969, 0.08643388686057801, -0.007681460763889587, -0.017276162130955734, -0.08634349437625291, -0.16809208888060811, -0.08846333210640255, -0.0029440230096645656, 0.0627225496598168, -0.00802116328454289, 0.03187307266786772, -0.01586561745100703, -0.053651001554994915, 0.06487132372650117, 0.16619304573265165, 0.09148607014596753, 0.015039717374807525, 0.03723880994161485, -0.043997731060140724, 0.04138828887619128, -0.08511542642393835, -0.03291371130115554, 0.11221543771971988, 0.08805738847413108, -0.07226992834836851], [-0.13361028006103662, 0.01735055730025382, 0.08987797047693998, 0.1374243475430649, 0.12212090283951249, -0.3982008716197896, -0.03728640039676582, -0.16608920717158296, -0.030839923729051023, 0.04521367229224875, -0.19021446789408147, -0.06010730763545116, -0.07677365200645833, 0.18111286661308973, -0.18070414010081803, -0.17155047796826622, -0.22587961243336904, 0.19943437657443258, 0.04999491047633956, 0.18947031800974415, -0.1210685015440378, 0.2188688876395333, -0.15761295961732452, -0.17759754363637656, -0.1201645829098236, 0.05140620694559046, -0.02480360349003944, -0.20250925622230723, 0.15880320630148057, -0.016796978567594385, -0.07398074878138453, 0.16229383620588117, 0.07809613681789992, -0.14714889015142435, 0.16331168899102333, 0.024317785851759796, 0.02163479397733915, 0.011549178940997554, -0.16629241626698452, 0.08574207271285689, -0.013761011560915018, 0.015611816702070656, 0.10909899134043001, -0.014190417106184182, -0.004206509729878163, -0.10032556958583252, -0.02951526952258619, 0.043780381852730664, -0.033514316104479955, 0.04601823931528508, -0.00939014187063993, -0.09383997392212422, 0.15788328448829494, 0.11475365104996564, 0.1349743702365291, -0.028843294809029824, 0.04026769037604321, 0.011488298452263264, 0.17064332103337024, -0.09615676716907881, -0.07918321876101994, 0.002357802252158394, -0.16039820221447473, -0.108888031319172], [-0.09040038178775871, -0.002227011204146745, -0.0038185432369675413, -0.044842891947141285, 0.06416076660140416, -0.38434244901735587, -0.03639630898299662, 0.00035538477685900246, 0.029271749077034108, -0.09865320913469691, -0.14616565844957186, -0.05007690329313743, 0.008162746695090787, 0.04052099767493507, -0.10327407898637812, -0.011959471776113556, -0.14164556221112345, 0.1038932786357294, -0.051757176123947035, -0.06018762003890652, -0.22470264415982324, 0.21008750032292725, -0.04828115032681688, -0.030002002282946933, -0.1079420330634576, -0.12092221954877494, -0.070715391417169, -0.24179598182734197, 0.09241121578921575, 0.004993289918343544, 0.038747191221337254, 0.0295451596912682, -0.007311414209730357, -0.039468329156242266, -0.056537660677378754, -0.04576228714005935, 0.14254929348913012, 0.09388784633114697, -0.258256652630102, 0.03062344977205873, -0.01519297860061457, 0.08535239488577254, -0.13762928111685163, -0.1571379797444703, -0.13730433138229511, -0.10496295846712, -0.020418575099328203, 0.09413270734537393, -0.01976373096845563, 0.03610264720473287, 0.09616531682701289, -0.009128331386248313, -0.032656421768492774, -0.047161875703469, 0.04577964426155953, -0.09581535493560586, 0.14927453152544032, 0.048415606964828495, -0.048219264987289435, 0.06854015068992936, -0.1348252285128857, 0.10769952738610501, -0.021612043633857488, -0.09695086369582963], [-0.16722218330460936, 0.16601826125090988, -0.10710781035510702, 0.11194194071815902, -0.0028023757580994918, -0.25841169060624397, -0.09312990862838597, 0.06789890204095347, 0.05993841973108714, -0.010616745348136523, -0.2371560505252121, -0.08307930999793892, -0.04262134694466174, 0.12462985768259917, -0.12351988059913124, -0.10496865508531424, -0.2145260546214305, 0.048675736483159045, -0.09157474138707562, -0.08220478088493367, -0.14870827091310748, 0.03468894981465157, -0.08026244537311965, -0.09893070887963447, -0.0883513203832228, -0.05150184665303536, -0.12675743811532275, -0.2871766471992807, 0.026678617318527137, 0.08436332233827903, 0.06302011561867589, 0.027955101186820652, 0.05472624069366135, -0.005977793979062825, -0.041328740010267595, -0.038839363335142034, -0.08956926123244935, -0.029111787375601498, -0.2780368329006127, 0.0782123781320093, 0.043030874092514666, 0.15987276427402025, -0.09351459285171586, -0.11958686380346399, 0.06997960621347492, -0.051529626172669, 0.030868387949554616, 0.09024796539079907, -0.038442173727701, 0.13508037472243037, 0.13900257844062802, -0.08352244675229398, 0.014458796423021692, 0.15070161876694974, 0.0821630799357079, 0.03487009306480664, 0.05936468578464448, -0.016297834545618665, 0.15364699890035083, 0.0017524850148820845, -0.08665848529266029, 0.09913313561944748, 0.01860260320082533, -0.04305708055455766], [-0.1336995070851738, 0.001366486913263613, -0.12925831257775447, 0.06321240971451048, 0.029205780744648344, -0.33818269636365167, -0.13630586882313697, -0.1967475250415959, 0.09607264765440372, -0.09873518008327778, -0.18196871663799097, -0.15775023965511506, -0.144414571061422, 0.3042660740507342, -0.22386492758318474, 0.07971816463750744, -0.18278898207493433, 0.015593034859745662, 0.14337467305602417, 0.04267591424586454, -0.17509214084575306, 0.2399922458069197, -0.19327676235392102, 0.04142443586143976, 0.03944791617147057, -0.1040929049786307, 0.009683091847878697, -0.11243242650574176, 0.07261894684178952, 0.059021872019571875, -0.029990640857381724, 0.011279819004392837, 0.16730139187064283, -0.06070139810407411, 0.05661955201940378, 0.07178243259112964, 0.13152136347460333, 0.1378868616972785, -0.08262507250380911, -0.025373066359134704, 0.0029726759878295405, 0.07684579161491684, 0.05137430084749552, -0.12983211495746563, -0.0927528048433775, -0.24824106637741575, -0.13091002901005427, 0.04973136296656102, 0.0845127973032467, -0.0024862651961440625, 0.06551686930450647, -0.058703229382195736, -0.0780924250265066, -0.019537253003797772, 0.09962599308606129, 0.1480741517953617, 0.11135430217814302, -0.022947794404550418, 0.1439878575218427, -0.03425215490931235, -0.17413839705679418, 0.09500874961413766, -0.11045102291833468, -0.06253890005089817], [0.08213134407323036, -0.07596995718710765, -0.003279976432165434, -0.16589659335034798, -0.13284639032252993, 0.30783056050133145, 0.13571542989075555, -0.005932084888383255, -0.04529072586232232, -0.05515760200023582, 0.13558150683435558, 0.15754449524935707, 0.026268844844476422, -0.2786024054717153, 0.26830368165499735, -0.008449727901893871, 0.019362045188664963, -0.01681813644127646, -0.03376949110389737, -0.04271508040524413, 0.21604557294909935, -0.24219669054918702, 0.11690121314876441, 0.09324862721986371, 0.14025249080508334, -0.05397408642450012, 0.0043452659238967664, 0.1287550323257626, 0.00457734903196656, -0.19434419990299157, 0.16528168095624254, 0.04062002681337251, -0.26056521324061455, 0.14794070618885147, -0.16965498399037354, 0.0009120893692550979, -0.010778610460752187, 0.0431649849377344, 0.17836923539290214, -0.09818114020838659, -0.026850332960450304, 0.05001942102734325, 0.045129654546637483, 0.06147095888038638, 0.15132387242580014, 0.2228518625626704, -0.05386452410448435, 0.026470755019561695, -0.08109271032985611, -0.1324639349829204, -0.11261598742988226, 0.1692790522322868, -0.025814262070787526, -0.10414048058591246, -0.10996604178958769, 0.03963208919931617, -0.17869306953308872, -0.21309086674037886, -0.05491577204142001, 0.10231362527832247, 0.12583902448461717, -0.16359723861686248, 0.02932358003561411, 0.11268615646705818], [-0.013859686900627551, -0.03748093450832102, 0.007016746034866127, 0.0034659913315520105, -0.0655761883358781, 0.16086819625811144, 0.04887985524727472, 0.00872916349298685, -0.06923866963654789, 0.09759764265318392, 0.09806844316463029, -0.09478654658865864, 0.07517059780107209, -0.20151283541329612, 0.13480592783154896, 0.030626433953945084, 0.2025197004661231, -0.11692983158788584, -0.07724864071256228, 0.08357860557475674, 0.15475130859792444, -0.14899209304116964, 0.10486630267404436, 0.012068172488805099, -0.014004156794573727, -0.058563737911267955, 0.032823044891518494, 0.15143744279649698, -0.0013299620511677652, -0.027040987148951763, 0.12685787684824318, -0.001212785063952203, -0.18100358199328462, 0.04219966929927921, 0.011519795177508136, -0.0023726306659810625, -0.11401173833793686, -0.001691343170158637, 0.14962480260870764, -0.09494846192871637, 0.013871837880397348, -0.0849954355542188, -0.04400504755540767, 0.1029008043199794, -0.03528275394408436, 0.20428993755350472, 0.11807396645166371, -0.021442375235415895, 0.046784090890105566, -0.11874434320341323, 0.034746744974035876, 0.13361662499257887, -0.007260154411996217, -0.09855366429124719, -0.11605128488868945, 0.11096878166547589, -0.08344328077426744, -0.03506338648801228, -0.046618767877278, -0.03227713232635606, 0.10060810544467351, 0.07101147994063438, 0.041596987343771576, 0.1179173776122117], [-0.14244776311597707, 0.07492769006838164, 0.021762108355891124, 0.08602795060741707, 0.09128099882013625, -0.3125975939075751, 0.0730074594937685, -0.15199469193772253, -0.017768417150308104, -0.009450710731123121, -0.09604351560577268, -0.0843864108567962, 0.0501980590428044, 0.16119491691158677, -0.24154111974939277, 0.048162004195469475, 0.037292909253117505, 0.02422406634726586, 0.05620613009722817, 0.07338089888040505, -0.014926088588824904, 0.07956048533253036, 0.018842687350719135, -0.0005232354608354156, -0.15897937659139608, 0.009190607654432623, -0.17132695924796146, -0.22484484760272744, 0.08131543922192176, 0.073928572880909, 0.04759685686940734, 0.004490195496762891, 0.19658867414559802, -0.058596500497957824, 0.10318799429415193, 0.06334588643673252, 0.10492534080741275, 0.10531566370976599, -0.15768334454071484, 0.14269770413297703, 0.08033551438605639, 0.12565600509718833, -0.04016073930086858, 0.04905874599989474, -0.16966186361811905, -0.0876958994282077, -0.024581335788160914, -0.02943321198720436, 0.06187107486102713, -0.04945667336768097, 0.07343009993263377, 0.04098658949623076, -0.048983419716437916, 0.01202321398755245, 0.08785488428429178, -0.01669869015923355, 0.04020778299145309, 0.01585947381419367, 0.04746643154104383, -0.043634505941333654, -0.14652980061368637, -0.01527290590577555, -0.143708621097538, -0.04797165706902087], [0.22166506160640093, -0.22208665233125038, 0.03685226320670868, -0.0923793359781344, 0.02580642958815303, 0.27998371148097745, 0.12227407005502097, 0.09974966601726727, -0.06946155529701716, 0.11224385303611117, 0.22289339374524808, -0.012286044501676729, 0.10836826898932242, -0.38316955633517497, 0.09133307291792454, 0.142297182711984, 0.23419690817353186, -0.10163991306213425, -0.1946873388204582, -0.21854988197427122, 0.09017325099252253, -0.2931733019897361, 0.0018868468980639706, 0.16802161679776612, 0.08536023607775524, 0.0764935889279131, 0.208498525093319, 0.2188613867993996, -0.09016250516445605, -0.1362757449514428, 0.07061645328586919, -0.16464793309365858, -0.16532225524642502, -0.005637765586327059, -0.1413376267251893, 0.028961321893175664, -0.03305508207419189, -0.09546315974763284, 0.3373784675643328, -0.21798397674982284, 0.17107262116060587, 0.0012847955162346698, -0.15216109576600592, 0.11178026180970081, 0.06274287835833155, 0.19028553710392318, 0.1152783149914869, -0.17468168397978728, -0.1263828366505679, -0.02116677838523318, -0.1484616855625824, 0.15718873289548288, -0.18506963698210013, -0.018603368479836613, -0.11436755737476281, 0.04309204841908936, -0.108320700417848, -0.052663832347314254, 0.011561643303433686, 0.11835185264673341, 0.13415313343742646, -0.14400392300030562, -0.025554372193531585, 0.07360357754093005], [0.11404166988359633, -0.037836946596547426, -0.059233593294943744, -0.01052030168725418, -0.1791254124323107, 0.4252126881504317, 0.11239975829247005, 0.1053548814273012, -0.13583697759284005, -0.024190381940477845, 0.130459064850039, 0.054774409738672196, 0.1591454201289129, -0.19104706238095473, 0.16455703681751896, 0.115116768276935, 0.10022504466949711, -0.2365377236696136, -0.058804997341524376, -0.14162569682577725, 0.024277015019735008, -0.26710866571986386, 0.02154698611889274, 0.11597045252400905, 0.09894699350231632, -0.02796430304624727, 0.21951113459347435, 0.3547584949023597, -0.06970174940216335, -0.06808335797722452, 0.05843839640715334, -0.1992481688777467, -0.2754648409002236, 0.053392600716790285, -0.20401178225600244, 0.08970274033809064, -0.09540178043725654, -0.08835702215304414, 0.31528990445558985, -0.08398243242342457, 0.1066244300968127, -0.029300301236197014, -0.16643983486999755, 0.09008267092148975, 0.12041072087056906, 0.1204485877922422, -0.053199665686305214, -0.025402178102802927, -0.16509370582748475, -0.23202226664241424, -0.12448525997293197, 0.1986186030490354, -0.20371694741836055, -0.23254492265859913, -0.0932277339042728, -0.056097580055906225, -0.23600485585256417, -0.21899081278536262, -0.021625121190585135, 0.047114280602365076, 0.01921807155347674, -0.1969769048685433, 0.11591008200483444, 0.04517079582357763]], "h_bias": [[0.44862567094758776, -0.5423399052801355, -0.5637075780098321, -0.6688761955311902, -0.6209592989975956, 0.6848991257453542, 0.6744332195949893, 0.45597972881685855, -0.7052365658007033, -0.22981532190100393, -0.5620208762063867, 0.6407742521204406, 0.561339929591968, -0.5823181910188501, 0.5158120487839232, 0.7442418582533713, -0.3343211222005078, -0.41860934890715146, -0.5386282212069328, -0.5947566863041985, -0.3799902691206842, -0.5787101319670929, 0.4388856736309551, 0.4857858504917222, 0.6719436182427354, -0.5536992700221616, 0.5157266690971274, -0.18304283214777617, -0.4887224916392335, -0.7079033030476455, 0.49980608879456107, 0.46221327042275584, -0.48666536392897586, 0.565525680253327, -0.49414629643050423, 0.37254111494123826, -0.5359513622214096, -0.5561465182814964, 0.8582327056834786, -0.4279829054010808, 0.6659036314056439, 0.4014069658761019, -0.3796895240035281, 0.44623372007595286, 0.5469237134515996, -0.4805050303286097, 0.6145768578295226, -0.5828037501756467, -0.58832623957294, -0.48581529862854395, -0.4490709872729946, 0.609378006473378, -0.6748426145392464, -0.4698916158726811, -0.5176263017741175, -0.5934290389214474, -0.4377930345577942, -0.4715661740747812, -0.5504214531351327, 0.6415816646060367, 0.43965189546554373, -0.4960917193765711, 0.7140643113734555, 0.7227657363418121]], "o_weight": [[2.0173180193489557], [-4.587159192510579], [-9.742185913352433], [-7.849078573507108], [-7.147362325093958], [-3.009439125406297], [8.65696210603317], [2.0037086566756823], [-8.781944552718457], [-5.043244922376232], [-12.814895254221017], [7.91516616409031], [4.967483940909415], [5.612556248682038], [-0.9886222098530012], [10.026673285882918], [-8.605961947449828], [-0.5079675275074668], [-5.4840891071453575], [-6.022104769406164], [-10.175490952207573], [4.446489456086781], [1.5562271912313816], [2.193314343637147], [8.001624117311025], [-8.188767976540229], [3.970981209908728], [-9.180130495597956], [-3.2361015134075366], [-8.733139861481146], [3.519750056610174], [10.487995727047709], [0.40028321690045804], [5.264566175763879], [-3.3186939235606117], [-0.15556961053399979], [-4.664005787888937], [-6.01443715964564], [7.311291960309647], [-0.4265660008741431], [8.893201788362688], [8.13539835766434], [-0.8656948979489646], [1.211068620518449], [4.7552156373419985], [-10.471959532403323], [7.752982445807475], [-5.563176679094604], [-5.892753611794529], [-2.8951876349177716], [-2.035130245626124], [6.562274150403562], [-8.319592682194209], [-2.5966058428767305], [-3.9317144959102843], [-7.135458699764229], [-1.5731792603778878], [-2.70115836183499], [-4.958758401139985], [8.399595782203551], [1.5950584233311607], [-3.1089589681328302], [9.131975302066564], [9.43124001388154]], "o_bias": [[23.372418133777423]]}]