[{"i_weight": [[-0.20918582262373472, 0.09944977703416877, -0.02991773259117958, 0.05958602421101304, 0.056772686782110046, 0.05155451829762212, 0.005256605736204795, 0.03999608778522062, 0.05166971796148259, -0.03349055698031781, 0.04104266056532861, 0.025225282597497924, 0.05830442739455765, 0.1336193820550812, -0.06683258533721907, -0.05346939595567196, -0.11869505368729315, 0.020753047589863412, 0.09062839548737407, 0.07589337627043936, 0.0805753626137496, 0.07046079008730169, 0.04435871032762169, 0.017235998054704608, -0.004376674477740213, 0.04401496795835971, -0.050409973580372275, 0.03886968768303279, 0.011698904048434109, -0.02363663415925912, -0.013406012950522041, 0.04098406757538175, 0.02767851224831623, 0.019219249652522467, -0.07090017038129673, 0.03558058423906349, -0.09370444054329212, -0.040376757305402675, 0.0870918928315916, 0.06010484174883895, -0.010801421264409002, 0.038788587127765804, 0.0871816413590195, -0.05489551345214549, 0.05561151302310895, 0.08743998352148497, -0.049396712290620856, -0.017151588793202655, -0.046751248828676914, 0.02369013445932426, 0.06767475269728028, 0.06245099384798065, 0.06224622747325087, -0.03375900320684685, -0.02926349720800035, -0.01566496112036675, 0.033893811841387504, -0.06828557582462054, -0.033336368116996404, -0.09164770895700952, -0.08666392053365055, -0.04239084351647965, 0.01988207520829797, 0.008931146532834904], [-0.011447705600685674, -0.04048732219936012, 0.03522671682300017, -0.061205136885393197, 0.0516465297515384, -0.08192838366689742, 0.051001488708049644, 0.0058095447937609145, 0.05618457239252449, 0.010059801215539345, 0.008438642043665389, -0.020466518931736025, 0.004553295218408512, -0.05959437494118389, -0.013377648222014317, -0.03106579198735489, 0.017606103420062892, -0.0623220541530062, -0.07705231149066687, 0.003940045191219098, -0.03953232997363121, -0.022034680285879644, 0.00751564540568611, -0.053517299643363055, 0.02264494001028903, 0.030955137128592252, -0.025256568484050963, -0.007504616520756406, -0.06321426884738436, 0.009996771069652173, 0.020034008007815962, -0.0552412437414392, 0.006167775906378093, -0.0825304047878579, 0.027936892246976895, -0.03344922648609108, -0.02630996388131377, -0.011862862268886012, 0.0030076947412803643, 0.037163436762776926, -0.021469041812635776, 0.007328841980899972, 0.031963028592824884, 0.0378814693819065, -0.03159526898805445, 0.05153887526326585, -0.05547045030989909, 0.0881622515809397, -0.01095328081535559, -0.01804252446365169, 0.03266690685428012, -0.01981209158280477, 0.02789552046345116, 0.004886614350805315, 0.04118928990559693, 0.026292919295214042, 0.01707236628935389, 0.017002713433371817, 0.07009130726567753, 0.028416416542997383, -0.020524469942885613, 0.00446163869890471, -0.09797513374291293, 0.001234629008981625], [-0.01922257315609988, -0.02885547449758741, -0.017856263338529743, -0.02478874818558896, -0.018874406225527544, -0.0314139881109099, -0.0007864423878098282, -0.013298677338983513, -0.009976550685831283, 0.01721208257299753, -0.03197975477876641, 0.021008635121901206, 0.0327306462424272, -0.011642537230826791, -0.003914002191162827, 0.056550934338587946, 0.02716729491035807, 0.0216150701610211, -0.0294907440591797, 0.02192269522400336, -0.01818408251735859, 0.01108273287408057, -0.028883154042139224, -0.012249164798592598, 0.007207468468333358, 0.002531126514308748, -0.033142892179639685, -0.0076650760422241155, 0.01064148538046447, -0.001727817060205787, 0.014235500152573645, -0.023061153272521565, 0.01687638898775199, -0.007966497031139852, 0.034938762460716706, 0.023516026060479672, 0.05121726346626195, 0.016255622074020502, -0.029272752715008718, -0.007005828932405861, 0.0002863325099549346, -0.011999789591219745, -0.0008670446979093964, 0.005615078115512967, -0.026009720414111464, -0.05489214649494681, 0.05171534586696771, -0.011364370383208247, -0.017762503741571425, 0.045804249436181055, 0.023107949427934857, -0.012126240215660741, -0.04006677472757981, 0.0058511634650840255, 0.018513747513255262, 0.0020363440223623345, 0.015811545872711587, 0.010402729702168432, 0.007945540435927802, 0.031287495104025266, 0.0013643843795802036, 0.01126354208131234, 0.030675734258923094, 0.015138229301787792], [-0.013162340873062502, 0.03072606233607484, 0.019814114576398333, 0.0004025960730675935, -0.037053364401341035, -0.053973197971372164, -0.0829745898806717, -0.02402008623547931, -0.06639586156583371, -0.006678270082291251, -0.08466269743772226, -0.01914050600421754, -0.13034690998259618, -0.11204017392977185, 0.051335260701263805, -0.002788632425506206, 0.05780256178739532, 0.08728592741755603, 0.07661313910709332, -0.09741451552556427, -0.031458074838098954, -0.022951254165697186, -0.06904092246185989, 0.10528144856292133, 0.006156964724173779, -0.05265212658842851, -0.0037097070650316203, 0.012481695628133407, -0.0009118086851813044, 0.03132025311295718, 0.01980940701746915, 0.07243393944549757, -0.06964016755376053, 0.06859564224095421, 0.0604783233271509, -0.03826744988549375, 0.03393362309765068, 0.02726847106349547, -0.05083662101554746, -0.07468440862707516, 0.0443309656399121, -0.017794055527525436, -0.08000810503894727, -0.003493135836371672, 0.026608836479353186, 0.02244447118927087, -0.16992657034165215, -0.009857821233263953, 0.06713863518678465, -0.07460093576517014, 0.00325315704442242, -0.05654195447470158, -0.0177522467652765, 0.022195840580770898, -0.0046884260383729375, -0.011554816340758453, -0.039973992278807005, 0.04508562554869729, -0.03392353070725269, 0.10405620942106845, 0.04005991253087184, 0.06256446391070931, 0.09601113607502834, -0.0518425410918008], [-0.0012962255756303633, 0.00010656876037404482, 0.0007517682763357974, -0.000656731405909348, 0.0002808327799735992, 0.002272160556603513, -0.005186745242564455, -0.00012081243319584932, -0.000615280438635028, 4.252584828547166e-05, 0.001174878266923556, -0.0010191426959955101, 0.0009677412247601492, -4.041981805440446e-05, -0.00048611778001939775, -6.558450421950159e-05, 0.0006335026421444961, -0.0014880336792424055, 0.0004019617869390031, -0.0003647710593352266, 0.0006288573630092183, 0.0019422149360936681, 7.056800790228239e-05, 0.0011235597107140999, -0.0008767633631964357, -0.0003084184479598372, -0.0007481159812931504, 0.000996112791772596, -0.0002626474544958917, -0.0012433526605122496, -0.000553736303741552, 0.0001541618673993293, -0.000600767397580848, -0.0005213367023404128, 0.000995577231702616, 0.001361267811158953, -0.0014003987160002029, 0.001179238733917711, -0.000251454887835409, -0.0008333257660574623, -0.001333333752132161, -0.0001735785020873759, -0.0003609170126765548, -0.0012152964192644932, 0.00024333462555371524, -0.0003964422984222666, -0.005206774522171545, -0.001894778846471681, 0.00022427047474361675, -0.0019528777372858617, -0.000239970238541645, 0.00033523844074220875, -7.94457415915344e-05, -0.0006968997068695723, -0.00042010372777622303, -0.0013492445756083558, 0.00140194466311038, 0.0008947139450864855, -0.0002340947463510436, -0.001104284345872823, 0.00022498569760101992, 0.0005439514080474266, -0.0016081793925265815, -0.0007048013048287701]], "h_weight": [[-0.14586165119420985, -0.1664666403476829, -0.22021728594852705, 0.037749452128381204, 0.0233153525933446, 0.10612562975373746, -0.06225686792855315, -0.07122056619776479, -0.15659038027434213, 0.024472240500389174, 0.07332161734467398, -0.017827360395226338, -0.025888048045966047, 0.178353730062101, 0.1261336626527437, 0.1682840525007865, 0.01620372719114275, -0.19905718621077947, 0.08787967050359982, 0.06764547370342913, 0.035134101282279076, -0.10352810457426409, 0.17056932366032573, -0.1679396788230862, 0.18490705419379705, 0.011484565845780444, 0.10015729855406921, -0.17180624362098834, 0.15169186270637253, 0.2038845394582211, -0.07718091111912208, -0.3040140985730319, 0.1173679357087138, 0.08198653298637017, 0.13896060525149412, 0.12492493793721308, -0.19021723393613493, -0.20416976639097806, -0.1246675295169961, 0.2542228408779009, -0.14999547106418973, 0.020288752110594676, -0.07392089509538519, 0.09621129013525252, 0.0022976084678676544, 0.046442913090704994, 0.07825576213250784, 0.05922555958270004, 0.20020366853334892, 0.17057061223961, 0.19101754888161757, 0.06335117137878497, -0.15136550249680086, 0.17800962157976072, 0.023249240596621115, 0.028959195582138622, -0.029499899880807347, 0.010508109711795863, -0.13685201466637922, -0.1735970043948104, 0.2653244021297306, 0.07266574730373666, -0.014979591340035828, 0.10287975751641497], [0.12563920787207036, 0.12059634612447587, 0.20016658121079117, -0.15346417504290366, 0.02985019344293025, -0.012035610604542009, -0.009395095677840637, 0.0748051805390084, 0.0664319661737211, -0.024006984808975982, -0.05882993750161616, 0.23050831620018314, -0.16135035249355795, -0.14753568811638462, -0.21288618105022722, -0.19111818191350238, -0.06470761829081668, 0.03372100192018471, -0.06709533073570562, 0.021978160540891835, 0.027656131739854768, -0.04597750171180381, 0.042636448743935886, -0.14669604043986284, -0.07066590258538433, -0.1800030016086925, -0.06924850716752622, 0.10115371063425353, -0.20527105810617652, -0.16550662849036993, 0.04102850748159115, -0.15178947637311133, -0.20564568449208043, -0.24072015521714052, -0.20727868959729556, -0.032708776304578524, 0.09144838088462563, 0.21796760198199505, 0.07164509261160365, -0.19985141015621435, 0.11152124389337745, 0.09145248242886952, 0.13497684568120938, -0.23224397748424996, 0.18137415426322645, -0.06920466201741636, -0.06673887585573893, 0.07122649403309322, -0.14978270310324251, -0.06300380194708198, -0.08939340779276947, -0.10100405397362704, -0.0359073170401552, -0.16152105085566013, -0.04824027771633403, -0.07201653978044331, 0.06349493554799593, 0.17540533080505538, 0.2114619707727171, -0.20954633413858498, 0.013095988064498637, -0.11590185349981677, 0.02946734987165751, 0.056029072144046586], [0.06422561579353553, 0.028962216617497524, -0.06847847381685539, 0.159636135852338, 0.028662929913621984, 0.01940621167194777, 0.07259398564102475, -0.1031510401232456, 0.03883088113947152, -0.11234389483510603, 0.20804599027503315, 0.09003229116434187, -0.05220177212170932, -0.0047530754463914115, -0.024013290163412224, 0.07610210374579982, -0.012118965040808831, -0.2534214622117135, 0.07231178407799126, -0.009820551049224139, 0.1250079065768591, -0.16122903075889314, 0.17588191817742843, -0.04080548531966414, 0.06924496689433805, 0.1426344539428865, 0.25999378107994814, 0.042253287741009796, 0.08530473388551617, 0.1281068854646367, 0.10534470029064552, -0.19624893915511268, -0.08040598791406123, -0.04760905954384693, -0.06274255060662577, 0.028677721274607805, -0.21536602258732276, 0.007093937530694118, -0.05444245049900289, 0.12220433234206317, 0.09148333423035535, -0.000584669739362986, -0.13305232229391292, 0.026626189063488504, 0.0893767308202758, 0.04720356404844976, 0.0944759314643742, 0.038755152674692706, 0.010758929780951292, 0.01565458672052185, -0.02783456531726806, 0.04613169584792021, -0.2118031403261078, 0.009986881748251632, 0.02123008887651636, 0.1319872965959804, -0.0656672562063515, 0.07775019460054378, 0.046486129757473994, -0.3037484196512685, 0.11106652080717956, 0.017207062551708483, -0.2328865231497319, 0.0067615071619155], [0.047814971765463676, 0.0499143012133847, -0.0563639574596073, 0.09065909230577401, -0.10046687740891554, -0.0803558006907117, -0.008766707391369222, 0.03532771204433751, -0.08186697310811597, 0.030684033154385344, -0.1923695484107331, -0.02978128625528276, -0.029212277054310256, 0.04859159224957402, 0.07464527697312964, 0.18842474040549173, -0.07440393796254537, 0.07061595150082801, -0.15790624500610778, 0.012513893864857637, 0.05615493651497705, -0.013093999296844619, -0.1797558707894181, -0.01167536037485655, 0.07826495190194174, 0.08113729428044227, -0.031175402879257717, 0.02258872929009339, -0.06190992204490813, 0.11124917136850285, -0.053693731097143996, 0.1366951739446807, 0.19373537355383552, -0.03435896308719932, 0.12083116571207042, 0.11468251384199696, 0.06052117494184337, -0.109408419625858, 0.006804491078177931, -0.020270399903720388, -0.0650912366560612, -0.07018852563525406, 0.06334034955813901, -0.00459145473363089, -0.1523436685116887, -0.03648493066128295, -0.0038426713818821875, 0.04846552709900114, 0.08976816929761192, -0.030600037601378537, 0.18079292187546575, 0.14263024156044438, 0.07971524553113991, 0.1671402949806095, 0.07771010961332402, 0.11691746517226255, 0.010912087058755326, 0.05473718791744822, 0.04375217894130893, 0.002892887081188845, -0.18620643028881337, 0.02102670430007961, 0.186704676663295, -0.007121803863150613], [-0.045611883834539485, 0.1035678910724208, -0.049477054144901715, 0.10043189065747801, -0.14025410501120913, -0.010854385572719278, -0.05837108438718844, -0.11349570871863861, 0.004227906178700451, -0.006112643356514376, -0.21856584858886527, -0.14490651731698848, -0.055313370721225524, 0.1277239423721126, 0.09719615078245408, 0.13515460524924963, 0.05298624486188702, 0.11308507774550138, -0.14077674228711917, 0.13022316467548997, -0.013886569052990776, 0.0576490565980429, -0.1558233148365802, 0.19801427049219866, -0.060766848411685635, -0.053269337576197555, -0.03954474404499075, -0.1487487742505861, 0.03992135164430674, 0.030881783198348865, -0.08714807882557306, 0.0694431384898019, 0.025551709635779657, 0.015567902476823657, 0.008679882013777153, -0.023956414518859194, 0.19116035114994057, -0.0992784919421092, -0.12353354394442116, -0.01640818860058873, -0.002286546076017485, -0.0034957319833119663, 0.0018872983575046764, 0.19126373374654856, -0.08141322354424577, 0.027918244234138908, -0.0025274092855340057, -0.011733685445316607, 0.12711804339071583, 0.11985388563684461, 0.057044639453755375, 0.05673865981661128, 0.06825216377824943, -0.0687278073770289, -0.09007467535300206, -0.0840788289720396, -0.06298620934414194, -0.025499874749298657, 0.041909797744480976, 0.25478275900004965, -0.22172827675063964, -0.0891724607523853, 0.12105144335484395, 0.06852222134601037], [0.053303732568625695, 0.13036834583112675, -0.0003854897087822027, 0.022947113900097977, -0.05501799103275431, -0.1102080288002731, -0.07175874147008787, -0.05034929717358223, -0.03445027352821782, 0.004625459041757179, -0.05575474474898158, -0.0872229351630291, 0.05513962439545547, 0.025500117660598103, 0.1598749088685982, -0.0058512549882331205, 0.018828382802364117, -0.018018364248789567, -0.04480526911732533, 0.19833010489234523, 0.022688139285449292, 0.14804401115478552, -0.1782817495972685, 0.021594534752856973, 0.0697457882084379, 0.029021364907006336, -0.012795613960055074, -0.15879306532826132, 0.1475500187653709, 0.13575996697976725, -0.13546032835798674, 0.06921721718406233, 0.13777930357608267, 0.005898607905301711, 0.1939250671406585, 0.08145015324847828, 0.10099676892844099, -0.08271182529299503, -0.1794727250413437, 0.09376977971609163, -0.08818026662873135, -0.13561369605036772, -0.09398095604856303, 0.20586785384565087, -0.20575508468599535, 0.018698481765483485, 0.043285336665810505, -0.01637791559594156, 0.19408746525031492, -0.003383964149350301, 0.1779974282147844, -0.046052325396481096, 0.05123922374253703, 0.08204533185517732, 0.0955587969028388, -0.008826817741025778, -0.17248018854169184, -0.1965661105687488, -0.08862735379470839, 0.17503355903142695, -0.11158681264252172, -0.001642705928154376, -0.04983505700192644, -0.050375724296419865], [-0.09350067411906655, -0.15390677615411305, 0.05202064831840995, -0.1296899120833684, -0.0002193834512957045, 0.1976560051131321, -0.022379433735144335, 0.0832101632450962, 0.17873993426995718, -0.11768248157570395, -0.005281678240823239, 0.043237339553855815, -0.1433265954819405, -0.10350779526900535, -0.11649599250166072, -0.03883909372875525, 0.05107568709037358, -0.02287133863752426, 0.09433574242030793, 0.030900463227770476, -0.049995621447852565, -0.05692676932699959, 0.13225482071299433, -0.0460636018370107, -0.01461757453084005, -0.05455255324919543, 0.1350624900227309, 0.09630149451545615, -0.12332397375457561, -0.15679952149048507, 0.11139098339895515, -0.03690425023030849, -0.1563888148909026, -0.1033373518967279, -0.17410790623240877, -0.09792875972176314, -0.19025853806802018, 0.18670748002542384, -0.03092147865071784, -0.18959798214261658, 0.08228220584030951, 0.00518342221653594, 0.027845874750858833, -0.09597731081468698, 0.22035419665906317, 0.07107022201456735, 0.11861022490942137, 0.23062393444734314, 0.012763248100014555, -0.08165480708541702, -0.10979218889835289, 0.033797588422179205, -0.07574297474777347, -0.20834917673207348, -0.1171737393322705, -0.02738436189421811, 0.1951538762494808, 0.07909017204958768, 0.07578628296416232, -0.1269381970012825, 0.1729836166564178, 0.05882052475525185, -0.020509572103509198, -0.052389161275971104], [0.09286082097340084, 0.012009825666665317, 0.04506291881994865, -0.04264226042872508, -0.00792343815034838, 0.016536817059019153, 0.0767901286462043, -0.07293015276909487, -0.005453207485925559, -0.01995623287344909, 0.20982876874412373, 0.09919321697394738, -0.09850674756076266, -0.005045444901907487, 0.07048021802730345, 0.07568612626749645, -0.05458770355503487, -0.24406169092310495, 0.033630130751584816, -0.08856846861467585, -0.001149397618344487, -0.18569075231717352, 0.1893873179011674, -0.20194956625470892, 0.037326421181850804, -0.06207200130216314, 0.2557628375394848, 0.099135082561603, -0.0019681154533432873, -0.06375559673304945, -0.06939703359952443, -0.18866749986225229, -0.1011383225899129, 0.02285880923152609, -0.015082812873933196, 0.006463062453019437, -0.022325251286540906, 0.04435096947339832, 0.10213295852154466, -0.0279587062279951, 0.08131974305426921, 0.061871858298940076, -0.10120877914921102, 0.02707134558866368, -0.05121906442486813, 0.1429393648198118, -0.04025328941187901, 0.013723640745912893, -0.06895607296899386, -0.0074462362938369905, 0.07752864859666432, 0.03605907294245011, -0.16033104576220072, -0.1021116225323167, -0.018981316315212573, -0.052229531701488856, -0.08958929190052098, 0.09641350474517572, -0.08978538388000114, -0.10371017623602366, 0.2459216349222289, -0.0692380306235508, -0.10269438750255304, -0.06397324537790942], [0.02878944102669736, -0.03404467173194121, 0.08579338583856165, 0.015661338744371388, 0.18632457881884487, -0.0061521398593116115, -0.07464627831188232, 0.03994740499975128, -0.004535777278257066, -0.10150396162076587, 0.02646676025858122, 0.09398152931722378, -0.024677503040978165, 0.09659727262799973, 0.05293414702472134, -0.030900051639618058, 0.010502714929631006, -0.14911018113428864, 0.16755443999045921, 0.08000009779576762, -0.09179257839017949, -0.032695021874057165, 0.2690040365806884, -0.08693207509700691, -0.06458010022794705, 0.029057869221545036, 0.04427856478407746, -0.032653956824722934, 0.12133758754459269, 0.09626980130343847, -0.04982138720454642, -0.21370681658529514, 0.02701909825529296, 0.09901266072868606, -0.08665857583091313, -0.024665585431622648, -0.014490637414631902, 0.0009732844096867577, 0.09360410046553459, -0.07995020288669959, -0.0022965547475859377, -0.0361762452048994, -0.11659016035746349, -0.02919144047499721, -0.004386242395787043, 0.028038928440585406, 0.17621700388434475, 0.1405710422965017, 0.05974470472931144, -0.03274694721540584, 0.030677834821259225, 0.09310049315792877, -0.07283775618896791, -0.01989177734419069, 0.0628753105224704, 0.11547306332589385, -0.09675391006587698, 0.08056850937689916, -0.03809829631685677, -0.18293927962353473, 0.1484491843142638, 0.03048214493347212, -0.08966520815791645, 0.023706098169449134], [0.07919321956958253, 0.034179606696433835, -0.11086068413502313, 0.021534750401946495, 0.06205069958304687, -0.07375567554469303, -0.11792812830529938, -0.16958368095764714, 0.0035891728198198607, 0.18343837699459434, -0.17559917456467306, -0.12461596047087543, 0.009278442714816072, -0.017709746269311717, 0.17099973553518436, -0.027932113664612103, 0.1408989959816578, -0.00383565330571392, 0.06646878912174184, 0.07010270263190006, -0.0022458510196024335, -0.006870283482745408, -0.04576496603948841, 0.036292566568074884, 0.09916244389242101, 0.039934775877643096, -0.07993404127356941, 0.015064863100546564, 0.07367039720158321, 0.15301467816080994, -0.01951103705097346, 0.0001549940571803528, 0.14496073996802167, 0.013778841604784335, 0.17190564091348862, -0.07777107704039492, 0.010127339454614743, -0.1688147259701265, -0.07307426826096361, 0.15893503844217102, -0.09740188515806611, -0.1544275285986444, -0.03521726575803765, 0.16513207605138888, -0.16938723905138045, -0.07350927612620259, -0.13040673635754313, 0.02189327587351685, 0.034102172529327714, 0.012732675284172181, 0.11671845636848646, 0.010280590371754888, 0.14452269400018555, 0.14129242855492097, -0.0019902755025903805, 0.13354668609501177, -0.14642886656989285, -0.11436451984777343, -0.14147002331439162, 0.08309092041753881, -0.10984741627708726, 0.05539481805250961, 0.15786427372169587, 0.1381814076091907], [-0.052809200792192486, 0.05939355126031266, -0.13693354707645, 0.00019003119452837785, -0.08761303825719584, -0.0834308958076585, -0.08937316370503784, 0.008061565295350483, -0.16937533931554466, 0.14706194000446585, -0.0472052102169878, -0.14009649153457668, 0.16355155324246518, 0.04509967473536623, 0.16266759391486446, -0.018708281277714175, 0.013636645663734022, 0.0867321691143536, -0.207986720335572, 0.10715655712590949, 0.14812798115649478, 0.2128676161963298, 0.01630618012084691, 0.12331390707399682, 0.16439359191097722, 0.039144192847844254, 0.0655123286077606, -0.016654805450649998, -0.008759535251895703, 0.11291264392467049, -0.1779630998844894, -0.002571507371727825, -0.007613335023293925, 0.0518368859883049, 0.1301680413679981, -0.09913795845078803, 0.11503568098276588, 0.06557456022658102, -0.10808865362814313, 0.11499443642315986, 0.0031644131312179927, -0.16894413104879086, 0.06869414437527756, 0.16412824708448104, -0.1651960383048604, 0.05431273185251628, -0.15507848653116532, -0.31672891452207524, -0.0314616621468808, 0.19553429110900067, 0.07125785634366118, -0.07193025430190225, -0.055243817121145386, 0.07708642981562737, -0.09299760248076668, -0.015735123268456858, -0.11174768193845636, -0.1383381159758084, -0.0533716615624588, 0.11035248482356445, -0.09768872988922422, 0.048930091500026154, 0.11405395207006437, 0.10491868811852757], [0.05189034241471989, 0.05057377965723103, 0.039766989756376755, -0.082300078775867, 0.17359305995269372, -0.015320908624559235, 0.006026969186186658, -0.09642510673511023, 0.15824569712525025, 0.0621814493747393, 0.1693511370942172, 0.006007890499646203, -0.1127039916017909, -0.090547781020036, -0.1407132850098253, -0.03801280260312635, -0.08040716471001652, -0.16862988541901128, 0.10328220746230571, 0.04142317326528711, -0.1231493680838226, -0.08955041403502459, 0.17871268601081283, -0.024126068618151808, -0.027204358084307805, 0.12183785959584086, 0.0514094331611121, -0.07809171017329457, -0.01572868001678875, -0.09436488559953016, 0.11418896062762814, -0.21784457029553464, -0.07563151768236773, 0.023580548926094385, 0.028914690924218, 0.012571110971978834, -0.02840253256139382, 0.0015779777464358866, -0.0973371875211217, -0.1524972611792407, 0.016781479937472008, -0.06764524602698718, -0.15767348006406665, 0.05890248129298954, 0.132133264879529, -0.04808213458131636, -0.07735500568765176, 0.1765512785006518, -0.07658159586864698, -0.09780682557653891, 0.03144694451636987, -0.10543016344205068, -0.1823536111719065, 0.10479470274215023, 0.008471203819345775, 0.03767240929340018, 0.009970037246938112, 0.10088796315547154, -0.06650613585075009, -0.040663014552217276, 0.2295175083723917, 0.01806639989708484, -0.22172468602887443, 0.046398302340913015], [0.10081013004397625, -0.0026369229241685783, -0.13686496476135357, -0.046921469095037846, 0.04004566159671546, 0.058857870247681944, -0.1589231219814929, -0.006181970712624453, -0.22626298351933305, 0.20924384869562157, -0.04835043946481378, -0.0816880993120751, 0.05358855141448152, 0.2004441282580344, 0.017550304739319383, 0.17756310619348126, 0.15461543562288133, 0.16999468502574624, -0.02986846779362675, -0.04341264282464886, 0.02766025381125245, 0.027143936283828024, -0.18307877124229702, 0.07679978237085526, 0.03360880119964132, -0.040739335175293184, -0.09545413107693095, -0.16030602713509381, 0.08015613653092457, -0.03131083471301866, 0.010483641845034, 0.1946573568417438, 0.1049881574301626, 0.1852859845984617, 0.2027334276551879, -0.05203774995900898, 0.09104598538467307, 0.04429121067139166, 0.04410611606036616, 0.12160596862144614, -0.15173266499919097, -0.061756203681394575, -0.12207110697147175, 0.02725570596466224, 0.019606661985768294, -0.048848042757476194, -0.004259854848375655, -0.09536967146069998, 0.18407587741058967, 0.12763677183583774, 0.03235839025815304, 0.13167287430726943, -0.020146477156102422, 0.048143651031627106, 0.008340794335845872, 0.07001643113531825, -0.174425879190603, -0.09981633963031786, -0.12840967978428572, 0.1224926608616478, -0.1425306862915084, 0.10959369143621547, -0.043953570346110624, 0.08092255568746759], [-0.02666934254680543, -0.013562520402576222, 0.05034611081205119, 0.10574447235028132, -0.12394808921092042, -0.012906484850140872, -0.08895517956551692, 0.03180815899550227, 0.029975348140724556, -0.05653289620240605, -0.13167271435695765, 0.06899516948952085, -0.06628805671252405, -0.104554982545039, 0.034807082490599744, 0.00568820092931571, 0.050187083113089545, 0.2541425236493133, -0.11709468738471551, -0.03690572409873913, -0.02634774207429273, 0.09916331172391113, -0.03792697223743686, 0.18792555610157913, -0.03176232019754531, -0.07893042005481742, -0.015602926711961894, -0.11043343501771473, 0.0603788930505445, 0.13072855420549284, 0.019840417857084326, 0.15009964161107026, -0.059880017811508666, -0.0033093731656387735, 0.0680557536477394, 0.01907413484868784, 0.21054256577132524, 0.07390878401990401, 0.07146106912254116, 0.12252535648572378, -0.05865266207645878, -0.05264446582148446, 0.019976546207313223, 0.044502096029271805, 0.014646711964004445, -0.10826998693768869, -0.19638748604252224, -0.10932867898593245, -0.03691685097827837, 0.1031552002720229, 0.09873604985528028, 0.08087983283196257, 0.17495775401100325, -0.03994852763761701, 0.02802991393914393, 0.04303459899807976, -0.10233358178268985, 0.07627624558518938, -0.10404188465262856, 0.25357253787255307, -0.08007585597166912, -0.11452264498573732, 0.14496725880677966, -0.010446538159252183], [-0.10089020624191206, -0.0852275739315583, -0.0191798778387663, 0.05364423168771587, 0.10517686399288116, 0.08607581491337962, 0.06770315155001237, -0.1555708420242758, 0.01800334107766007, 0.018108495183919854, -0.07798339918957772, -0.01738637389711695, 0.019374574546036156, 0.10112581688636928, -0.012497138969358914, -0.0157425794101791, -0.06835554989592314, 0.04897856159769156, -0.1467372840256591, 0.032442626576130174, 0.06991193017879764, -0.003419263472437218, -0.20531054973508756, -0.04419840933159579, 0.00013037268703029235, -0.04969125129284629, 0.04982195803198662, -0.17782895812795765, 0.13914153576416843, 0.09526530382341258, -0.06187728421507299, 0.11430411752902621, 0.197780199896014, 0.05135671743649123, 0.140941639453262, 0.05234236226780429, 0.027748498712913617, 0.04935527129028381, -0.041926133492500496, -0.014745974397171964, -0.06952688150646863, -0.012425664457862433, 0.05075143012191609, 0.20570768891155472, -0.14480896930599435, 0.06038731231923748, -0.025300280481890945, -0.012503717655764444, 0.17216029395345966, 0.1808879670938616, 0.15344492363509032, 0.019723036738368976, 0.1778524408458317, 0.09486361029188592, 0.048571708582890956, -0.10264861386113636, -0.006352113546511985, -0.06171230932531551, 0.012113590003124508, 0.17554665721097248, -0.029905913603661016, 0.0009176642926714426, 0.14045384123834206, 0.061437534320068814], [0.014600452431487347, 0.0938066516096148, -0.13793580032242797, -0.11135952113115329, -0.11350562409506154, 0.033164694062557946, -0.07416383820634485, -0.03829077390462319, -0.13577460986421958, -0.016695342395193796, -0.16249538812244171, 0.08939993040867068, 0.11105463913702854, -0.021994145091981443, -0.1040319280365572, 0.10046912126340592, 0.008050429721586646, 0.05487763800567044, 0.06782018565331384, -0.11125466336164434, 0.07345743716463926, 0.014495030573828912, -0.17048988451597163, 0.19295628062216527, 0.0392633202805111, 0.08569917236013323, -0.08733242799677601, -0.1106950587096772, 0.09064515116931357, 0.08144001596710324, 0.04239715503163939, 0.05409873915515154, -0.020513117454021065, -0.05859235425469187, 0.08516480033460581, 0.027165982929137567, 0.1894927009321193, 0.10825053172440809, 0.06685572286637785, 0.13247531393030293, 0.03312418061596703, -0.1267215007079308, -0.0712336937807871, -0.01758113936151355, 0.06344858632600214, 0.047679541192366885, 0.06279457761461352, -0.17465629862437804, -0.11145548305089961, 0.09465077658401574, -0.05076554187503455, 0.002979556937451293, 0.2604566418315746, -0.034912559216509466, 0.05425973744231981, -0.06546518088046048, 0.07063490293898274, 0.01130964031614565, -0.05341037392989055, 0.11403971179127523, -0.2126420850720259, 0.004928807766740816, 0.15907666016604782, 0.09992231779197079], [-0.007846180639763986, 0.02336198597208341, -0.24985431406362926, 0.06967564756115144, 0.0008408568471544784, 0.06089472988131788, -0.18127812315341188, -0.18614552955119276, -0.20793331654592304, 0.22080296594282584, -0.009294682022907006, -0.2575519392365911, 0.06475158767998954, 0.13230439731704813, 0.1856633936028219, 0.20316460661003186, 0.13218401458633378, 0.11979231702234434, -0.04828723978056642, 0.1370592257981677, 0.0860233413246645, 0.06033814414789252, 0.05563929075892878, 0.0007880362135218679, 0.2039741098683717, 0.14196115823955233, -0.011943229334075791, -0.10418620654888146, 0.25479135827258825, 0.027584428598969698, -0.24417002466038892, 0.12385036297922528, 0.05957529324652804, 0.15996611461412893, 0.08203466747617283, 0.04226057357217032, 0.06945049034126025, -0.26056355521487534, -0.04572663686947573, 0.15146390021181325, -0.10958217418408099, -0.132578832861128, -0.0056358918943015274, 0.13184055399677963, -0.2559104313665756, -0.010759349487975783, -0.08404710451584181, 0.006968482219814197, 0.08298153557196944, 0.24986219998167214, 0.25753546929684495, 0.1547923775314182, 0.04791015424926921, 0.2671211965402359, 0.23214223293345432, 0.1496042168951567, -0.18706015954077998, -0.16717920560519187, -0.2126455625584447, 0.05978242757631104, 0.07020938703735577, 0.21628946436049298, -0.06560142480994569, -0.012328222118043108], [0.08210948924752147, 0.004880200168980971, -0.011537358920912103, 0.019174682283316497, 0.07843957932999987, -0.07990484379277786, 0.05496605455115652, -0.0397349153631278, 0.01439537198282416, -0.16605996285850022, -0.06539185363054058, 0.1200224789242482, -0.19628977042841966, -0.1669744072560483, -0.12326917153403986, -0.1167410635175948, -0.08335266880000711, -0.15050437026876062, 0.18415524779793163, 0.039501725145915635, -0.03290286797350914, 0.02885618937049422, 0.004013511091076009, -0.16435029041849863, -0.08617460899225018, -0.10091508073807555, -0.018647947899405163, 0.15692785665921288, -0.09563680069862718, 0.03498786974470409, 0.17673194340202972, 0.022232698186122158, -0.08386232970007013, -0.16454485065358634, -0.10807646262530647, 0.024921044091365738, -0.14952195215510408, -0.03775289650013323, 0.1584059650984185, -0.036233952839552434, 0.07751913399609847, 0.16085263772234387, 0.04609537161773114, -0.1506637807103951, 0.17735181126172625, 0.12411900107903596, 0.09331539873007517, 0.20999905955755757, -0.04645740211683167, -0.07988382028594387, 0.048040477497699755, -0.09683624501355953, 0.13456954274742075, 0.002208019388933601, -0.052480704217845495, 0.048083741129520394, 0.1935927911672627, 0.12232257204143958, 0.029347457409652174, -0.10459776540879132, 0.06849681830176702, 0.04592788538670866, -0.1630481843929434, 0.004959328895868284], [0.04207440222672211, 0.12461844086041741, -0.0870275246758475, 0.0013323739007025063, -0.06525618799836919, -0.1677087635344146, 0.0003888958855185664, 0.05340423071395212, -0.16318532635602648, 0.009538989835746765, -0.18600010548159043, 0.058482723295018496, 0.10420184072653252, 0.1447337791070903, 0.034529131045897755, 0.11468490108954714, -0.02240714100930915, 0.05688571145895558, -0.20891436558193807, 0.06694826631428431, -0.02438561151368372, 0.2160755731757346, 0.029531814097944458, 0.021178478676253363, -0.03960456177748126, -0.09700383295832342, -0.1756468019570265, -0.12014805050537287, 0.027712724336051292, 0.12602889031875175, -0.11717487705719429, 0.09703452421410214, 0.14648668074852442, 0.09159872992114694, 0.11894088023062174, 0.02168176467849602, 0.1674349716398112, 0.00241704069160135, -0.14154148412428086, -0.03905837454338009, -0.0502886473941527, -0.017316191265916856, 0.1329224788586277, 0.050102131854762, -0.00398330654543388, 0.017789696717269078, -0.15242638328271688, -0.08477542286301926, 0.05794219568295984, 0.1433049115050438, 0.011870303367363692, 0.07179094988402869, 0.123147050494746, 0.15254877117907728, -0.06231385258830645, -0.0030719461010533878, -0.07685253330476309, 0.07544013064470173, -0.14329335773313165, 0.22525300113627852, 0.006088126446932597, -0.10029397371380895, 0.08923518413616015, 0.05581272574927086], [0.0899267031705788, 0.14459897462206783, 0.04585621523010546, -0.05356809542639004, -0.05532551860224775, -0.03591146435618416, -0.08120272084582009, -0.07641001596140538, -0.03693925282547428, -0.015006914466131567, -0.0313305118667125, -0.011582302538626079, -0.006350609811586041, 0.09915971495917908, 0.10629615836940871, 0.15150427917695794, 0.06085389801550829, 0.11945776993335483, -0.16565474818857512, 0.08376506301553302, -0.11802832982553496, 0.04308213097050223, -0.053197121968268854, 0.23837471128199395, 0.04260974865946703, 0.03033952949089296, -0.2334258288794031, -0.014521515271163197, 0.008921335340724037, -0.021665660114508874, -0.12348265325272455, 0.1033827673223171, -0.0249844816572671, 0.01742391678594263, 0.03702202154319479, 0.041548537495877, 0.039766229566762006, -0.05417722200907398, -0.12798403109921724, -0.09828873941819768, -0.05779064575044972, 0.04889049120377268, 0.08251129298620095, 0.09942223594142316, 0.044100650577641516, 0.04687027925170295, 0.0029356750866920966, 0.04432035838832531, 0.10740898699664533, 0.02460675705954611, 0.02648337097575129, -0.12355507498203097, 0.26272481809671194, -0.09031352217079269, 0.07565019209413854, 0.041135520226739705, -0.03163836441397771, -0.08044537951823928, -0.1041196819597846, 0.2407363599905748, -0.16861550432094763, 0.053726072735725966, 0.21956903807967804, -0.10031909125339317], [0.10362972672378663, -0.029971207734600137, -0.1256818274318313, 0.1436555924809894, 0.1102742435542032, -0.10523524305996193, -0.0075903947340740675, -0.14473288712051638, -0.043644300251640705, 0.1595039813184212, -0.0329773530835966, -0.08858162511679636, 0.055159940996781814, 0.04221332895900253, 0.09014818590599787, 0.1697998502647282, 0.13901548764801838, -0.031154600346202193, -0.11599631534473465, -0.053523276178796646, -0.04615676384325861, -0.009701734269741915, -0.10242722336084634, 0.08974343487907858, 0.1097023713372552, 0.12403800643776543, 0.06341441569574463, -0.040727756430365525, 0.1332117481327665, 0.13029613567990653, -0.11510466211225186, 0.20914718401300694, -0.05008654134753559, -0.04818633729223286, -0.0003381552593481483, 0.034392404693525724, 0.08558792854093106, -0.14859585867956793, -0.016811265914611715, 0.13827256920420583, -0.12111695388687409, -0.0868959478707834, 0.008700857993468404, 0.07729749296177235, 0.001430215875939727, 0.10827993865499291, 0.06559695335388227, -0.14597259956532385, 0.12436750510932068, -0.0573318290452679, -0.019913683571777637, -0.038797739234699063, 0.012982279824949143, 0.059053028176190084, 0.09438827814522145, 0.0020940624522834917, 0.04911298674003726, -0.12676259129835996, 0.004488342777722943, 0.21243304525749773, -0.08945394920718122, 0.028735500157425705, 0.0963492527231827, 0.0242757579582921], [0.010322131893807655, -0.015900147628558684, 0.07897706696824797, -0.003546393714819044, -0.07817896960751941, -0.07504254895960978, 0.1940914046052433, 0.15167890620402624, 0.056704323772029164, -0.12659901824674039, 0.15415437274101307, 0.18002475020436082, -0.0845765043339013, -0.16572376766390431, -0.17294042871025772, -0.10985371612493315, 0.004800693535654388, 0.014273542802397713, 0.17452661386557122, -0.19380666870888463, -0.11474285674970208, -0.10492318260885436, -0.01010934633153216, -0.02233215069693669, -0.018912670644622993, -0.045339559213220325, 0.16082540137070642, 0.018836329307634916, 0.003322404283417314, -0.18708723135859218, 0.01813437904894092, -0.018355468895100875, -0.20045153528603127, -0.08455155983086973, -0.12230675807643172, 0.008260658435053013, 0.07011048704129581, 0.14444050794833746, 0.1639640729240359, -0.21972138367049138, 0.018707750283686493, 0.09155714048055313, -0.03182700972919281, -0.19203129551929887, 0.05633682380524014, 0.11695222481656108, -0.012627607023071379, 0.07746220495158378, -0.18945760544699647, -0.010841239774470265, -0.15313186340418924, -0.14001700605303458, -0.09000996446706862, -0.009708326042100868, -0.1543524760921296, 0.03583473385955385, 0.1777486587541544, 0.1825306986344962, -0.00428295912136008, -0.14213601692918656, 0.12313750611657678, -0.13343063975225022, -0.10510204144511057, -0.13377796322389016], [-0.06068261995300332, 0.08232327996084876, -0.12647260610259548, -0.05464446770776893, -0.08191364623884312, -0.18197432409471676, -0.08592283031507883, -0.14145513372298218, -0.03816676028671325, 0.08014887158894039, -0.12313865291656279, -0.14614957748129556, 0.0433067440620312, 0.11713776944735495, -0.058337043618939884, 0.09885572099873102, 0.055012392616677175, 0.28990744001157653, -0.2671288679786725, -0.05774509844556923, -0.056360914058928534, 0.12808134605608074, -0.052469622907067366, 0.14426697597124605, 0.08883220049799807, -0.009895639909517757, -0.1770372359003623, -0.12831669709515905, 0.1524174144318976, 0.13603116360521333, -0.11663442051730817, 0.10371411606312722, -0.006676205630974679, 0.11463423465648101, -0.019931108912134322, -0.0019457175319917647, 0.02565630250964418, 0.08379994340175587, 0.03164682945608977, 0.14685566036610714, 0.02732933396914052, -0.0071696105504958614, 0.13819414109922745, 0.07254551395798178, -0.03082397321027759, -0.0006694769140489338, -0.2360518265048888, -0.3092744493847514, 0.005951550872880045, 0.018222416900237817, -0.06613035578389766, 0.09338540977656999, 0.08606852519446992, 0.08483737817462754, 0.13600191606520165, -0.11856812059209659, -0.017467762364215805, -0.1062991961405946, -0.08104382202357098, -0.03522298141791693, 0.030572582766805422, -0.09326254446702113, 0.19872478772124133, -0.0035986769788847834], [-0.09515981417593064, 0.09699547760209196, 0.16805505009193691, 0.03374191974514709, 0.07372971775860071, -0.008863214303490364, 0.22791232450189133, 0.05637008550279316, 0.15221143068286547, -0.1700507926644389, 0.13262103473414494, 0.05353969071161457, -0.2635369616191413, -0.17304636228850573, -0.07189858774473089, -0.23889944484351056, -0.04093468897943952, 0.048019342972901904, 0.08569056732042235, -0.07105923530267635, 0.05085737403307717, 0.08447564676454047, 0.12320626426743207, -0.02552059205653574, -0.11436023828130325, -0.1942025041868221, 0.029196938655158752, 0.26629191298394483, -0.04456952864052273, -0.15760282162777342, 0.045765359307321125, 0.031831925262654964, -0.07278041277956404, -0.011331249666983373, -0.03359445077263761, -0.05582030741966676, -0.12364674701650255, 0.09846663907520772, 0.05588868620695105, -0.13195284494085774, 0.03918580446465465, 0.20919418903746112, 0.09992464501388182, -0.22095504611623398, 0.1542992415984296, -0.034507346103690405, 0.12159505879864832, -0.009200626614151282, -0.04253652027485426, -0.003402475081900308, -0.17394891829854844, -0.17090757900757717, 0.04877409325477544, -0.05876824136609754, -0.10522709477940108, -0.03619504354800858, 0.059690377932722825, 0.09331547561860454, 0.01728815511171518, -0.08474996171902884, -0.016513752510634635, -0.09855776117917804, 0.07985172489309612, -0.1582687225745959], [0.008435299473335316, 0.08496155975145013, 0.10576460973882562, -0.11191075337147159, 0.03368673071458323, -0.20199238309078388, 0.013773934444418809, 0.004682693500957862, -0.08585222894930951, -0.016594857770869338, -0.13469534273399578, 0.07549261763383584, 0.13109495566877077, 0.0030317707076957467, 0.10320781241970758, 0.033944183171237124, -0.07111002925996729, 0.0684865898144479, -0.09955383478107202, -0.014174993484999843, -0.13475176314322068, -0.011638176285809043, -0.13680878756254733, 0.05645291933209863, 0.06876075526347009, -0.07643093492667186, -0.22520318082978802, -0.1067689531642616, 0.09454454835837081, -0.08705915194253286, -0.09311210075084046, 0.2629866745912167, -0.06544003207438673, 0.05755832531371073, 0.07488478733872363, -0.0008320064933796273, 0.2161573583076772, 0.05555756746773184, -0.09074459939171302, 0.013069848457528928, 0.06282004674744979, 0.06560060238940268, -0.059780608705616654, 0.07495425438490047, 0.06970941292418055, 0.009274082714483118, -0.05897420983274884, -0.09686792371623965, 0.007048352954345582, 0.035881442574566144, 0.09119807798091174, 0.006555828919454571, 0.24548728842749204, 0.031761040289159555, -0.10613899375375226, -0.051171525122347974, -0.05089303171874353, -0.04457990790172187, -0.016438578295876954, 0.13120313473933734, -0.14232960965957675, 0.032572751055712904, 0.059700199853076896, -0.11406560510636264], [-0.08735461473147163, 0.028696019010297346, -0.1400232359577619, -0.10206148792800752, 0.06307608398817668, -0.046731400525067496, -0.13312533283177833, 0.050148779971299684, 0.05319662882523318, 0.051462862324527035, -0.20424193649556904, -0.15550652671782553, 0.04143253811415345, 0.1480154997961873, -0.0412764846263094, 0.13938282331258492, -0.11149868518063079, 0.10485592338990833, -0.01924791106576694, -0.08500401980925726, 0.038990784876568076, 0.16168100988943357, -0.21268415149085473, 0.15691873705650028, 0.06146451337546705, -0.06795130619987914, -0.21894062352198154, -0.18287842937280388, 0.0449786827171241, 0.16493618493990297, -0.01836796850515674, 0.19169149220572512, 0.04775984304722004, 0.08560230471251092, -0.04809918304905131, 0.1149780796977309, 0.13864623050380473, 0.08034449838201012, -0.09439832971585907, -0.016234677832548384, -0.12667389262837045, 0.059686700689167226, 0.08758775121416561, -0.010986846447933404, -0.047844158270955284, -0.04546260578867938, -0.13760560132333582, -0.15221295367771429, 0.15433007335958776, -0.01604160837463986, 0.13958431937149682, -0.07887410884975152, 0.0913706984684378, -0.05673363242374895, -0.07894634922072837, 0.009385547818621925, -0.14167627008360664, 0.017576910178381783, 0.017421502646941634, 0.06253948398120013, -0.015772764441390797, 0.08458830109125826, 0.040067417834207905, 0.07567597953992056], [0.038462936710045026, -0.00856318598315367, -0.14101610257554828, 0.008586484802374554, 0.006775345394497892, 0.09059755920147432, -0.18715405049087874, 0.007049944772783699, -0.2248160636033986, 0.12642112759486748, -0.06863331173418546, -0.027063995693117855, 0.1571501435684442, 0.08730633424366359, 0.08470714195144227, 0.09465134284649575, 0.08817685389827357, 0.06340722684258854, -0.03695989470298452, 0.021068821439687215, 0.06915707824288331, 0.00673682838888091, -0.05329664956743426, 0.0024643242141776218, 0.0067770029904473846, 0.03252251455420997, -0.05254522639680932, -0.16154282964969383, 0.0003344960980543044, -0.0322227981115037, -0.21861386691647003, 0.015217908672923329, 0.0904963490947735, 0.1553300058718859, 0.09851475151137958, 0.1273315916569722, -0.08849336266798592, -0.15470024000570254, -0.10764083752886267, 0.12426384392963129, 0.03866187807722512, -0.10942747903855227, -0.028483188476269145, 0.02227467611791534, -0.01400597083212065, -0.03490232415999353, 0.0011178026134720971, 0.044844705316905424, -0.05980732784070932, 0.00885636351092871, 0.14138275651013885, 0.14037492525123166, 0.09786453227097054, 0.1116396763688932, 0.1995265328422989, -0.0002822229932961786, -0.06231985806767131, -0.17431487747878183, -0.11253161189441503, 0.13118807233525118, -0.13156233626780833, 0.16782757283798663, 0.0916229890979242, -0.008889945343114127], [0.06624485204619798, -0.14448076611827287, 0.18656593818988823, -0.13053448618976954, 0.16413001381176065, 0.013239804890082222, 0.08227189596595884, -0.08234035679170511, 0.012422434432264401, 0.009355210465866947, 0.10267623983121714, -0.027377209713015927, -0.09471400305461693, -0.09310770179002015, -0.015654568675878597, -0.0162003096838058, 0.09667824390474618, -0.13584640020393177, 0.02180146986367932, -0.11560892450675998, 0.07829071493750016, -0.01048294756988876, 0.11809431169823224, -0.12235173070693689, 0.010992069052689185, -0.09544379530817233, -0.004026185588185071, 0.012721262728618057, -0.025744640508426633, -0.06142853901215585, 0.10982625483007229, -0.07021621962570207, -0.06505924689551058, -0.15453330995609493, 0.026539028591433915, 0.019558289753995903, -0.025092999969558792, 0.10724135503726326, 0.15725744170181225, -0.11948208218897825, 0.07389573903015943, 0.0160335076045706, -0.06265451903331719, -0.12715869940974306, 0.02303576154913851, 0.15011419414974458, 0.005801515212347772, 0.0051406200498104355, -0.022872308187790385, -0.09404495404578504, -0.05673499675765503, 0.05557718579345356, -0.177041624591706, -0.06295565898952112, -0.024155048706537435, 0.022194371871440605, 0.14275201340392457, 0.07060445469779232, 0.08669259380742766, -0.03770585705177535, 0.11915094775067585, -0.06356065473720679, -0.21118541210585368, -0.09548804535819659], [-0.04154129130544927, -0.03378216145213941, 0.03946964413086399, 0.002574802310728908, -0.02242164098547984, -0.009071810929706757, -0.056661792119064795, -0.04301285735932874, 0.021711331331877116, 0.009286833224728789, -0.2335697267549689, -0.04484351436419509, 0.13413244200574498, -0.01282192696065081, -0.017616212840936177, 0.1468432784428849, 0.010364780306955826, 0.1075175465741595, -0.1689331421897438, 0.06731908702103502, 0.03710873835538604, 0.17919332107492045, -0.22666162810122234, 0.0318764804204901, 0.05838402488028563, -0.09289092258540295, -0.20119285851678745, -0.06125373116990051, 0.07692104130572182, 0.029918341585408084, -0.1287804145479169, 0.1591211734359056, 0.05505796896432269, 0.041560367780775584, 0.029631222391717327, -0.08666342829050122, 0.178403151385855, 0.0015640267426536957, 0.045181443634499746, 0.13399588157768674, -0.019277313733471056, 0.07899499023745375, -0.06993494094970881, -0.08998889032701002, -0.0017083489651692754, -0.09440630290674948, -0.1252590837087937, -0.13094750734115887, -0.03649728407412403, 0.054269486657941235, 0.017406984687218078, 0.06275475789043056, 0.21755770631031965, 0.0820109803196263, -0.004808953423797432, -0.05976744353028998, 0.10294919515483103, 0.03529868663293601, -0.10173099692031705, 0.18610522692000145, -0.18907802070029459, 0.12178190671076247, -0.009287693821746483, 0.01662990607900326], [0.05904106701684277, -0.039862431710172994, 0.04617032522836632, 0.12119893663552221, 0.06772478297859082, -0.17113179568134665, -0.022044014610277562, -0.09668894741771679, 0.008056297797155708, 0.10646582728195261, -0.07265923102114992, -0.16581151071751585, 0.0918536739827305, 0.09788029937590308, 0.17194386431072858, 0.09073640725928848, 0.13113701043831072, 0.22025718016292573, 0.0029014200229184823, 0.04001616395701401, 0.006781412638473131, 0.13850780061179424, -0.23470646133577827, -0.001676295616497814, -0.05474794877114017, 0.08669185718896347, -0.125659099721091, -0.03905744643912763, 0.0741606105577098, 0.03511285858028753, -0.056746272708624326, 0.15989977194376814, 0.1729645284434926, 0.0938368885033646, 0.08596154680463694, -0.08226399846339727, 0.17942421501246675, -0.05141280738598559, 0.0193734735388351, -0.04771232496456525, -0.060982291383438234, -0.12490482438645921, -0.03897457420012417, 0.15305756267622367, -0.040173471219893404, -0.03604250060286548, -0.16239859516504004, 0.07273889724554224, 0.16623666129869477, -0.02782776657739594, -0.06820748615161604, 0.04535107534190489, 0.20525991087726697, 0.14879687215848, 0.07762184189673599, -0.04757227952784217, -0.0988749851175541, 0.047516153710314785, -0.04563739683508445, 0.03742156546515441, -0.17630194044804764, -0.016662683099190726, -0.01572983936558835, 0.021764758430813644], [0.07920603277289448, -0.0013039869951434534, -0.07611823132255874, -0.12391834904773133, 0.009764023129994774, 0.04981016785831008, 0.06781247822104718, 0.12228440930907679, 0.011085387090961685, 0.006567187908874416, 0.23026537732994312, 0.0964004758739275, -0.007534111422625607, -0.12620562208707178, -0.07055765722604485, 0.0740783968783321, -0.05436417157949421, -0.046260205981572815, 0.10795401899603485, -0.03306451216779308, 0.02065743773548591, -0.0568838005576305, 0.2000126619546287, -0.11884669921760692, -0.09788105807476132, 0.08185106573393373, 0.09089415136162018, 0.14273875024207347, -0.06192621608229457, -0.08800535851610866, -0.0168497196673907, -0.13810279595252412, 0.07892881284532613, -0.11903424884393989, -0.07465172122707667, 0.031619809039684574, -0.09996027754969053, 0.009913038768564666, 0.09664058668684633, 0.08311089572509903, 0.0035350863917259973, 0.07167257707524521, 0.025917922146762046, -0.0322535561929201, -0.018765658774746025, 0.08191340105952007, 0.08230474717677, 0.16634817481583683, -0.12847789341710697, 0.1004489490285362, 0.0005252920889745378, -0.11940558553780983, -0.16474064710671668, 0.05122926226298666, -0.0252129824235394, 0.1532320937364615, -0.007379146965412816, -0.03193364753995464, 0.0812268960711227, -0.15135280373694202, 0.19029050980629295, 0.07140016082862695, -0.05907912494758559, -0.014218288969056695], [-0.11215949129266728, -0.05881775231230491, 0.15984549466076609, -0.028015559991702185, 0.1560578102262346, 0.05262739103778362, 0.11423634361063868, 0.14777705247990094, 0.08270149263740675, -0.12364122774583011, 0.3270157084081826, 0.0015443988119263313, 0.005821000924479403, -0.06131891248655991, -0.039705659286806035, -0.12848321348098582, 0.08458205749488325, -0.30894936383345073, 0.29968643422771185, -0.006957307850489218, -0.031050477905171504, -0.21660116071373783, 0.03217604740820068, -0.18291543908580846, 0.028037966883520695, -0.1050139956181519, 0.09424618377522591, 0.04912888638878386, -0.12262284617143315, -0.12210076476441226, 0.1940494493340159, 0.01579654121019162, -0.020102362811822535, -0.14571261394408663, -0.12357185784545323, 0.12010479279031826, -0.2218542393106894, -0.027497225855364935, 0.07752491866948959, -0.05892892067549735, 0.09445084639492658, 0.12810876409888566, -0.1907518677673038, -0.15082142743530272, 0.0323371961092035, -0.06740126574024438, 0.04810077758727678, 0.15786860179104562, -0.0508569635200158, -0.15350144083889009, 0.029534012242078665, -0.07443499210079192, 0.10275922445400343, 0.01634319766187915, -0.049991886598914695, -0.07152612927329297, 0.05478516534513767, 0.14922853848648035, 0.025526450671809513, -0.04188572460483169, 0.025056169493289596, 0.0036687021192836344, 0.005786603989884248, -0.04065911520723137], [0.003795888420969699, -0.007975799276487224, -0.05163237223177198, -0.11510430066346747, -0.11599866767154818, -0.0034900929212442026, -0.033124140165852335, -0.023854795109013727, 0.08678998760718189, 0.08447643717529896, -0.11770830440530693, 0.04823419232249639, -0.06820553918917788, -0.0035201638729892596, -0.0835861283856551, -0.05010724561898342, -0.12110048477501326, 0.11783178173744493, -0.10801567260635415, 0.09701689114302309, -0.08421456941234885, 0.0794946437630865, -0.08725109949889995, 0.22093374896346427, 0.0535774356327775, -0.08108920895902469, -0.1343830781214699, -0.08889692487227668, -0.08397986037023676, -9.754442331772458e-05, 0.048320299115597334, 0.1829160191922373, 0.10103961986551208, 0.10741238632711955, -0.11215920107974064, -0.007822604794818335, 0.13280756867601842, 0.10780535875010035, -0.11956208111444565, 0.016356033337764954, -0.07020982105777011, -0.12363696452825036, 0.08087950638062995, 0.09080732915063551, 0.04954269802612709, -0.1760758939100302, -0.10203209985515777, -0.201574978881877, -0.06049183629071167, -0.09049664941351393, -0.07816198342571513, -0.05756149632325454, 0.08752932029021292, 0.10367823143405108, -0.028232213887982246, 0.05181144516847876, -0.07692057538649348, 0.06989860854743003, -0.09447428558830241, 0.17315771004732025, -0.28617840380647874, 0.06914267798276955, 0.23504458364171857, -0.13391060970312274], [0.1213793489081419, 0.10471785965494197, -0.08344703546800095, 0.1124403172206975, -0.10064753419117008, -0.09671945665493298, -0.11378157517151358, 0.015621584579124393, -0.1711984270756653, 0.04687710588228054, -0.0588415510863259, 0.02975134016868945, -0.03275436887055721, 0.10249591845933984, 0.09522870605526139, 0.061823630948957986, 0.010829003214552187, 0.02400009992963583, -0.025821806945463287, -0.011730596178462251, 0.09198370116349489, 0.011132458228697554, -0.11814790161590018, 0.09360181446466119, 0.11745505476092766, -0.05895610225981033, -0.2126941971238089, 0.01663512300871748, 0.0021444786507207074, 0.06308237378038634, -0.1593175944991029, 0.25990815349014845, 0.13179543284084289, 0.08269104958387107, -0.08495854761388774, -0.02999282700988276, 0.19904113541882656, 0.009703031096937717, -0.11643835001965136, 0.030937493605396098, 0.09935419569826333, -0.03004805260324863, -0.07774974429139142, 0.08231845587279141, -0.1038048839781338, -0.13683905496102497, -0.07282284961498288, -0.04418204121235892, -0.09132413278626318, 0.036361763420625345, 0.026721451504822948, 0.08754032654488753, 0.09776483125236143, 0.03668121577600979, 0.09678087280147046, 0.0762491783373891, -0.05872978718172016, -0.0016122237612705191, 0.027652696552632913, 0.03886276970904341, -0.05909979788869007, -0.012324524424160094, 0.13856458369434316, 0.0006496211828471246], [0.11033268615635308, 0.1444902466541966, -0.03899393172483132, -0.012292823726045343, -0.01657208503050326, -0.19874592268379845, 0.12372514805288291, 0.09384756353046045, 0.14299108416458767, -0.06860435679255901, -0.23408891269264828, -0.020184341810446458, -0.08290119818835794, 0.012637122063618396, 0.038828345241097115, 0.009465382813850884, -0.13934623282451153, 0.26324041050597746, 0.0202699114813864, -0.05462256654567654, -0.019264496585946856, 0.09736643403667573, -0.24356308424620918, 0.09583304256431364, -0.10227440565056363, -0.14940798946596057, -0.05145997581797898, 0.13484068564159868, -0.07088643168887761, -0.06248696132920665, 0.15205956357592762, 0.12990076955847504, -0.04064191977083303, -0.13131364488257993, -0.12965079113335318, -0.03836777102359978, 0.16712582821295924, 0.061617497411033215, 0.13780267697958973, 0.07154173825862432, 0.1059153728141311, 0.019630580433186214, 0.17744429141673473, -0.11796490648272472, 0.0745192378446162, -0.07865486012481303, -0.16614501324649728, 0.017558392559748354, -0.08229711475875841, -0.03526306233290359, 0.03429166803417019, -0.06157142376830979, 0.08435438341109598, 0.010028549604780225, -0.07154002568204647, 0.02790225622204588, 0.13819658834705262, 0.13483751111377346, 0.030627819196984114, 0.270410531992177, -0.06506170378520826, -0.04049679114077445, 0.1343108177088003, -0.1772571505608813], [0.01266305981776503, 0.04465091661798764, -0.22185008353764527, 0.045218255757622325, 0.010258891682357538, -0.09978326517921267, -0.22039180775388226, -0.14875669597940167, -0.2242511477667033, 0.11240828297413967, -0.046966230433216724, -0.024902989875904186, 0.2729421070232296, 0.06669611534226261, 0.2057523873454717, 0.042442324361571006, 0.08148264978962019, -0.023397163036986014, -0.03928207770966303, 0.17520504023257272, 0.0487940945045133, 0.08704668056156603, -0.009061847737607312, 0.17209240370255247, 0.12863688959607736, 0.16730582555619014, -0.0831622270278676, -0.2053538601664567, 0.11206717322078263, 0.11419456306378832, -0.24927954031462812, 0.07101513457162419, 0.05450727595099741, 0.24454914071607065, 0.03499133926645579, 0.08038240056839412, -0.025291176879575526, -0.22028626692773617, -0.06038733114143539, 0.21095165199129368, -0.19302016977289346, -0.10367172131416282, 0.0386003976086621, 0.23203028993440677, -0.2517035107727868, 0.07054401925261532, 0.03701511202268688, 0.06614732375642511, 0.12319114660431962, 0.11702106551404669, 0.24490521716250765, 0.18899052451316944, 0.03869775409398194, 0.09498790015522592, 0.2123893479475785, 0.06354934966512221, -0.23507521575226267, -0.1344656305502822, -0.03503230260795707, 0.05574602291196051, -0.18144356199063838, 0.13188877455886092, 0.16307986763231258, 0.17771098680381162], [-0.047908194202829726, 0.029189963453893106, 0.01704120745040176, 0.06923562345944091, 0.11399074856822418, 0.14138600293159703, 0.08193643224359884, -0.165646614760255, 0.020048005833140408, 0.01130333066644151, 0.15178970453384638, 0.026445663304088537, 0.05027813909601559, -0.01753143956897604, 0.024530422306120774, -0.05651475439349972, 0.09710268690917613, 0.01850631528171071, 0.22905272063949444, 0.00460609297479491, 0.04483273543612942, -0.1522597028922474, 0.1259543166419697, -0.1274089614323196, 0.10795648898801903, -0.002171217090391874, 0.14151775022791324, 0.01343947008928684, -0.057309006609665085, -0.0781072802499351, 0.0789917949244823, -0.190408473741812, 0.013534941239283173, -0.03071211290525424, 0.15763878362182593, 0.10508717031156664, -0.1036890135004048, -0.0548347554640817, -0.10391062249887535, 0.08561448507318936, -0.0646356907969128, -0.10005989864414899, -0.06038508502461139, -0.05298965301084027, 0.03335840185201522, 0.04914628302210687, 0.12836966786575896, 0.24667675723407065, 0.04662434907608728, 0.14751272954267833, 0.14263292738187644, 0.1456732109236268, 0.003364798858379308, 0.015663957459028963, 0.08508298385181273, 0.11927271265006463, 0.054555993262227855, 0.07927112221446517, -0.09907187151266653, -0.1746110400063213, 0.2191306641785579, 0.13582371957005457, -0.15182172957863865, 0.08420304501363203], [0.019333838127716364, -0.08782195094417433, -0.009321783790883024, 0.03875677759668686, 0.06990814641265422, 0.16192896175931065, -0.14758258626405457, -0.03120840565712128, -0.026507378278202074, 0.006643460844509967, 0.19127952398634115, -0.09180231384894966, -0.10296235650842157, 0.04481755651842366, 0.05239485804461083, 0.014217417436068946, 0.15360204463831845, -0.15180055890283853, -0.014173721156167265, 0.0690233982796194, 0.053094721332524915, -0.0550076108103163, 0.17774799436039576, -0.02156676877221686, -0.07628805340712394, -0.07266354739813666, 0.04267104437861133, -0.06309988653903859, 0.03768800903690773, 0.01962001932571873, -0.06437534828901594, -0.17967460802389745, 0.0011132880318098267, -0.02829465523199114, 0.08176452340934946, 0.02116018141325168, -0.040561947781779024, -0.08508095752759896, 0.002179643460110838, 0.08337603288683981, -0.08931196884669967, -0.0003432733668555542, -0.03072985198378333, -0.09422185114235175, 0.07556145542987427, -0.04701673070733481, 0.1843350739126127, 0.08203141679358127, -0.03572788231008702, -0.07581424374245078, 0.0011995727198886108, 0.06252026666409227, -0.24901464573585444, -0.027717239931928542, 0.08206504368373628, 0.08752026155071652, -0.0810006130222448, -0.09713884570530329, 0.07816554894795401, -0.2364073807810496, 0.08375666011142682, 0.13793504569097073, -0.16818698232447, -0.072529819037513], [0.018843204561070966, -0.024516727176832863, 0.21488391418403482, -0.14264540877652276, -0.08828741280773611, -0.06315684702768903, 0.16358204098811618, 0.06451887817079104, 0.02358079926061413, -0.07213261976208946, 0.08418978426880518, 0.026053456552007227, -0.08097168157165603, -0.13783041326624626, -0.14638739177272544, -0.09898889187117055, -0.07719133700306206, -0.16705846143462005, 0.12590981975931592, -0.15923971226991968, -0.09269895972022059, -0.07288110907240644, 0.05149179998937443, -0.1678447531523105, -0.010015373526854426, -0.09279531222381865, -0.018475003124112505, 0.11450927120354064, -0.17225770600580484, -0.12279644312797253, 0.18983107634018248, -0.14999523291703085, -0.06431536298121783, -0.09853071199100935, -0.18546426108549283, -0.0031699801305026085, 0.03862295916965794, -0.015502171592950212, 0.14259514297387588, -0.05528436674997708, 0.14726244020036186, -0.01723263984405617, -0.06063057505332637, -0.059042527235601716, -0.022654232560641606, 0.0632326241173559, 0.11240361474679283, 0.025012158182807775, -0.0920402028830233, -0.13494318576688158, -0.20999849151173633, -0.1416280462041803, 0.04532601576604051, 0.008284999521045432, -0.14273737876982712, 0.09622801489418513, 0.042789130666514665, 0.026319558609988712, -0.006053872109190875, -0.022128828900333394, 0.22671813887067355, -0.10497890121042382, -0.023264176556542088, -0.09132859595835185], [-0.02531740229073818, 0.04368960601221494, 0.04288975776799787, -0.13898731691792748, -0.02304635229428392, -0.1262865635177503, -0.010611793261182835, 0.07598615610794478, 0.0944331788767986, -0.04732785666286246, -0.09715957007392434, -0.0006128442415225945, 0.10045138805426829, 0.023490524041801, -0.04961173130112999, -0.14663684601494564, -0.01986604597938006, 0.09914581232011663, -0.19264654310147902, 0.05307214429325805, 0.07670906595333361, 0.04192892884338619, -0.2412717407809232, 0.07206559031279294, -0.059235380197266325, 0.027377395806471867, -0.10366633082853983, 0.1251258467538675, -0.12094679342936086, 0.03550475086785676, 0.13854169174426323, 0.14729789509102925, 0.001981854416003935, -0.03831053323200084, -0.09409861035906213, 0.06254458777815985, 0.0869382407914458, -0.0641595648800241, 0.009661820597451035, -0.055242030762627424, 0.09699925060819238, 0.13689647509359423, 0.1591505777672672, 0.08612052501739137, 0.015647884715131313, -0.023413617398686262, -0.13910811778266682, -0.2128072697401523, -0.06801750665969895, -0.007683365183704463, -0.11142655512779427, 0.03301982977189594, 0.25163144026262013, -0.1352294234105474, -0.07150500011831876, 0.0013686672455632798, -0.022483390035494922, -0.0017445282206279725, 0.019096865061892194, 0.2854034737667304, -0.3045260969245646, -0.1484547026327243, 0.16228874030472196, -0.07902794352452869], [0.06706071331769453, -0.026649304561124795, 0.23693607888818452, -0.012742058281118093, -0.11489369203694068, 0.07694812955091354, 0.2036536911426587, 0.21732596085008873, 0.19778946658974897, -0.20939804446619273, 0.06843864515056286, 0.07166358509080425, -0.018953811188047086, -0.07372340729698594, -0.07101941167781929, -0.07709139187353582, -0.07295364486480307, -0.1060329141491841, 0.11744493325645218, -0.13684927505557348, -0.1707804006668645, -0.039671422592273756, 0.1546315067481273, -0.030863733245119405, 0.014178483656233743, -0.17301090926019488, 0.15297056772313766, 0.10146330251990711, -0.11646136933138126, -0.1312903970789299, 0.026950290575930652, -0.15140806287575073, -0.06706339685415356, -0.2450860156821435, -0.2121346416212177, -0.19194643566050448, 0.05848202983787042, 0.14246209221838402, 0.027246157857447374, -0.06331236944151651, 0.19826171208659454, 0.21748394730849993, 0.12784255650201734, -0.25197231240531603, 0.1461152910428921, -0.07707897232880859, 0.03003168102339045, -0.025379283018483512, -0.18715323704323258, -0.11838319183674993, -0.10949100386131884, 0.027501762349994446, -0.15989416109550122, -0.16304783889429922, -0.020103726152802055, -0.016075672502472188, 0.18160173116854997, 0.13943298561090162, 0.17145219812225682, -0.09572573422553922, 0.00381352646714716, -0.009302673105315892, -0.028283200306090068, -0.16816178114920804], [0.11001376207501287, 0.13799082707570753, 0.10396205057179168, -0.1333657774592009, -0.10622694241383293, 0.04592324903676382, 0.21446457722388612, 0.019512792222725808, 0.1437472328209472, -0.22365975261716117, -0.07095691426607557, 0.17045642003736808, -0.05344111647908783, -0.17703520350352547, -0.010186557038426573, -0.2290938217825613, -0.12381250061767043, 0.03159297560647882, 0.005867545117657734, -0.07371882590239802, -0.17286095089466444, -0.10782506110869944, -0.03367148280168812, 0.0318259104252665, -0.19875145810069, 0.00763038573998937, 0.012652287027239247, 0.22042079789616517, -0.14890043591170976, -0.17862416300620915, 0.02894475506068903, -0.1343721887921425, -0.14200277656097748, -0.05457026317553632, -0.13879191226227902, 0.04152605482128405, -0.021595924763446083, 0.002336592662677063, 0.09464839137881477, -0.09115580475545638, 0.02222969419794835, 0.16581421308311878, 0.020478863414086886, -0.26215979895107616, 0.20032273613118967, 0.00017672805749964732, -0.08989139826970552, 0.0063097359106199565, -0.16125514589742768, -0.012783552290820288, -0.16795427841411273, 0.011113900628993735, -0.029727119782260638, -0.16227178677577048, -0.03417428978433326, -0.00652301123584393, 0.0906526676403366, 0.14384818349305023, 0.18128441257563024, 0.0030860824246406273, 0.1504552089604254, -0.1742550622250524, 0.037389255789441314, -0.1918956744527119], [-0.03065938764225632, 0.04598551612064621, 0.02495776018388459, -0.04012603193745745, -0.035638813703331516, -0.007436184863840284, 0.06410029502975645, -0.012661011180295235, 0.1305700917165422, 0.003850918875700421, 0.07450328702233279, 0.06234456064593595, -0.01777489391280895, -0.14576878342693173, -0.0331077276710137, -0.07775771526534332, 0.06673857728621668, 0.033131478959240665, -0.06739635014126717, -0.18641605455020974, 0.024994555517500277, 0.0817432549181085, 0.07604873792077456, -0.017033720734621765, -0.20066305669188236, -0.13161450719525444, -0.04009587950126235, 0.1519858197416641, -0.17937615573592167, -0.22073031782851385, 0.06639525819311724, -0.03638487562955727, -0.09825015977119936, -0.16260484684597312, -0.026221696632869898, -0.1192089177993175, -0.09826790067197597, 0.11645745030146606, 0.09290604730098388, -0.13206210668220453, -0.004254461210503941, 0.10913315956121726, -0.04859310112099999, -0.16111821415846675, 0.17566728049892003, 0.10060671124411626, 0.07812610539492912, 0.005030934289607128, -0.06607246812696053, -0.03588714564024427, -0.11273842677179662, -0.12174465129198385, -0.13237152045039002, -0.045902822384560504, -0.014741065011819071, -0.09493703324558883, 0.1780129752584197, 0.12072392983770334, 0.1663525291081308, -0.1064956131931297, 0.13606452458789806, -0.10247543182926047, -0.14871067389562587, -0.06057370441735816], [-0.05301171136547988, -0.02551160260765693, -0.04139971380962649, 0.02930870193394806, -0.15031264859329266, -0.08718913921881484, -0.08471280705858603, -0.01418062515983995, -0.07249910219251668, 0.030916642230364225, 0.018387781239650926, -0.1936477011718454, 0.09612226917460423, 0.03573742753187474, -0.030738518256464308, 0.1689103991291556, 0.12689357626525355, 0.10628377597781373, 0.05112859591107099, 0.16242655903339975, 0.07177006597687402, 0.17999338428168618, -0.017916255692794265, 0.0484140673762904, 0.1643371653886345, 0.11308129637627183, -0.11454963704619271, -0.24587275020442417, 0.050067926604272894, 0.18913370845964325, -0.19610204405212883, 0.2163725489168925, 0.18938206498465227, 0.11879927973448136, 0.1524176397456545, 0.061446111507482526, 0.17914374331911662, -0.20322458229205642, -0.15979328764596312, 0.19881440061944503, -0.1288057414649439, -0.019115477687348333, -0.005680076553383696, 0.056133081727820736, -0.23487398632223494, -0.0011920543865025974, 0.032905869519905255, -0.10396696496606644, 0.2069563868358085, 0.16647168024264952, 0.012419761918886439, 0.10870845540379218, 0.07218221856178937, 0.04432399109833547, 0.0657839034883956, 0.012564144563028653, -0.20405180460858624, -0.17627864934620754, -0.1812133834181685, 0.0635341331151885, -0.02765472848043865, 0.1584526237716635, 0.005192849531325166, 0.12596489063701374], [0.036436012006977034, 0.08041473304211076, 0.17408122214146562, -0.11597053071929878, -0.06441325066312972, 0.13107344575618335, -0.060831862301657554, -0.044744245683624444, 0.15906910898489038, 0.04862850427333829, 0.04517380151215981, 0.14335052997166195, 0.023535518555634887, -0.021202461581062378, -0.03183351326303771, -0.03624315222487812, -0.05162208043935184, -0.08379252862431202, -0.023269799884402084, -0.10624603053727588, -0.032195972296067035, 0.00744056593301802, 0.15717315575678142, 0.018401239561268157, 0.004431572527725188, -0.10013326499915282, 0.007861489478443036, -0.04791838442908784, -0.10990211126979517, -0.025837258938868252, 0.1334713309095244, -0.03793824860321088, -0.07132126581883082, -0.04698221512787424, 0.033882535999019574, -0.06029355126332944, -0.04656905763778102, -0.03603366607844973, 0.03550186850884468, -0.1309709005356958, 0.02032695060262589, 0.021887888510892135, -0.0390788678140192, -0.12383572702505458, -0.03538859628638799, -0.03441808504203302, -0.021414805281708867, 0.10432540121708901, 0.016057227135603425, -0.008453215361913796, -0.13562703753534, -0.00724867920536977, -0.21005868852919082, -0.1514852241629601, -0.08268750617092545, -0.058712004078045055, 0.06015333015074015, 0.14448149461612214, 0.08393129282758774, -0.07655427941201139, 0.23688057022026646, 0.004832439621980874, -0.0658537019265924, 0.006895956705922599], [0.09147406840584846, -0.017853962876100707, -0.007629089127672756, 0.06518872113999795, -0.0826976681721008, -0.16006291103861445, -0.14453164160647675, 0.0001171789798173624, -0.06712939922876358, 0.026057398564633235, -0.10295002666768993, -0.03411401084761747, -0.0024876297948994938, 0.056094484819344904, 0.045131597447728475, 0.08805003285619188, 0.029904587617552655, 0.05517320967501921, 0.0007724883083955482, -0.0617540536874652, -0.07829237893617833, 0.03832070210207639, -0.003907436739218843, 0.015467671366901171, -0.021349869926691478, 0.1331091443860162, -0.15102761485316324, -0.11879913089719851, 0.11245119418737247, 0.010106376000497738, -0.14211410302773378, 0.08449544609495467, 0.14125279962668147, 0.18644836918563035, -0.0522473599133653, -0.0435196609201642, 0.16868906542334544, -0.027370020446332594, -0.04673197469288198, 0.15052618118081054, -0.16156153226959824, -0.18873359125804307, 0.14063192589654727, 0.1884096095941197, -0.017708186153887587, -0.10349413047202405, -0.022336039841408018, 0.04657345659804507, 0.1560997347464153, -0.05976097473363836, 0.10455087456340256, -0.07748932400129899, 0.20250432419592518, 0.0429635344264506, 0.1723042071158227, -0.030597529766270955, -0.1276315478498806, -0.1097506532652462, -0.011231438318780443, 0.03960856824547675, -0.010149828791225751, 0.06207790797336056, 0.193518444488208, 0.15712540470166897], [-0.04288466066088239, 0.09850400875944228, -0.061598487617356985, -0.14041702827356806, 0.08433694175507934, 0.1113640127165721, -0.10763302052908823, 0.03226150886870913, 0.0327064334610796, 0.07983424967325571, -0.10272349122239785, 0.1051695560576692, -0.02146769442298118, -0.012280581905783277, 0.03909249427778971, 0.020483235499537438, -0.134859651522936, 0.019283100908178637, -0.12737593443209336, -0.1566414568887044, -0.022528028885700324, -0.010640108873659645, -0.016410496592975412, 0.05754171035777449, 0.012974613640971173, 0.050054146331108204, -0.069539964458126, -0.08936747403642552, -0.09725437994206969, 0.046927211404016136, 0.13614137568647489, 0.08871363379026172, -0.10156674506987082, 0.0826234639426413, -0.09253058082531335, 0.02564107462238104, 0.04609379574753742, -0.043918105706562835, 0.034647135747255746, 0.04518020059077302, 0.04033339577432022, -0.05971358920222502, 0.018477458836502276, 0.03792247409205079, -0.020644342235770607, 0.022246544279514165, 0.007176204652049766, -0.196305521700438, 0.06620929488151946, -0.05127701943449626, 0.04046855351137705, -0.11410295640200356, 0.1330546484188077, -0.13456264698592915, -0.1498824620863397, -0.06520230880101018, -0.03026598786657282, 0.0011028340460515534, 0.13415667219199412, 0.16147046580798716, -0.13516476954394277, 0.09230401988745629, 0.12662507874612913, -0.06292583665106449], [0.07129147279777873, 0.06549312750667109, 0.07464231523682079, 0.08726300669967584, -0.10670202526570724, -0.08802268925295369, -0.10656861184103406, 0.015375547287978292, 0.08382050894710458, 0.123239399084613, -0.09572376589671029, -0.13973723576439046, 0.15231047068110812, -0.019073752894142107, -0.04084372954935999, -0.0234875623950773, -0.013554854440635427, 0.22060368882611828, -0.09888869272800764, -0.021060592738818558, -0.028899368114446038, 0.179958724435908, -0.19942020305657562, 0.10524985265124667, 0.13080488733662338, -0.11876922381024362, -0.15698699104678415, -0.06863296259702108, 0.08717802069697561, -0.033657751149923115, -0.07717396894844708, 0.033953055474693676, 0.11782569263486224, -0.03976128070214331, 0.051116689330851485, 0.10931634346337121, 0.13319051182182992, -0.049582641208055236, 0.06299000204401671, 0.14087473486370844, -0.036543460156458894, 0.03225329399551641, -0.003574066892438773, 0.16848162765585328, -0.13767742671218666, -0.10263080566663894, -0.12305193650492867, -0.3348413771357516, 0.04144049701377697, 0.0598156793055259, 0.06616962256756227, -0.04329594026213715, 0.05464951537838561, 0.12535711742209282, 0.0833840988496587, 0.021783546312511465, -0.05231621580497848, 0.016837730624559594, -0.13818203770834395, 0.08080678956120954, 0.016447882145827156, 0.015372392176095097, 0.24464837235217485, -0.07943279111486452], [-0.09537033900999473, 0.06492421247847507, -0.14932099830024603, 0.08251394085762738, -0.10750568656549463, -0.05825480970319927, 0.06269268419955537, 0.04950813167091981, -0.05390674277607257, 0.17274994305735916, -0.09413915220422496, -0.10402373242836681, 0.0063113685929947145, 0.09840756572070807, 0.024508783660345465, 0.025307625475679548, -0.12665287470863557, 0.06881092543039588, 0.04264496022844835, 0.0923754031718651, 0.06178608356352441, -0.06703190064046059, -0.2515662311230728, 0.05682179984715366, 0.016167864561936154, 0.10423150515097238, -0.1270693320602469, -0.0967981733361046, 0.0402511847845945, 0.144960812453774, 0.020851743532349556, 0.23226720759480954, -0.04406899798207944, -0.04125442610139313, 0.0437396590034862, 0.05208041205599725, 0.18982412299620724, -0.06709023111522476, -0.06960702878642058, 0.04209658250830292, 0.026285314737912267, -0.025615106070441037, 0.09234146304727732, 0.025704120705583693, 0.04344930580231174, -0.11201522990304721, -0.08897390417567237, 0.011915587594095282, -0.012393148478986694, 0.06269294388818031, -0.029461192732295347, -0.06407879044654272, 0.06171275157289903, 0.11707324995413122, 0.026803069872973866, -0.08956396153661986, -0.0764834132907318, -0.15101590627634207, 0.04516715819908088, 0.08078932716096988, -0.10704403905055203, -0.09846114057482946, 0.17473814916780062, -0.06732420843246459], [-0.0867184659623594, -0.0017087627664614143, 0.09958624745553994, -0.08369437704790426, -0.06543725617875927, -0.12026267868147367, -0.03152879921855031, 0.12861460876773614, 0.060625516361618344, 0.09021828409939064, -0.13042529365841515, 0.06995367733150455, 0.005017098659288188, -0.013629219307972397, 0.01678433422612459, -0.056079138803926155, 0.07652989889168912, 0.086295728602336, -0.16639659960222336, -0.08161813264943406, 0.06541103036651234, 0.15291226462553056, -0.1853030599950295, 0.003765538801181139, 0.10540322697343942, -0.12715978171680042, -0.03942413586164724, 0.06636236066578978, 0.08731715193722012, 0.07093776341047801, -0.04203439156216715, 0.11249992634771343, -0.03885495046896059, -0.05846502523337935, 0.045704166313859686, 0.05777353211893676, 0.1389194993817134, -0.06653954177067875, -0.10766267652921255, 0.013739542546885421, 0.0009975653362056833, -0.08051498071793464, 0.02371845985727787, 0.03123974835032231, 0.023777491841116594, -0.05481466979421236, 0.05680906850561189, -0.20468147323555252, 0.02972415316751749, 0.08795456244600822, -0.08367250195194835, -0.09633331434651388, 0.2225760183526322, -0.026200127596214526, 0.11914709078496681, -0.031012743988710494, 0.10582365792050633, -0.12003096175301795, -0.07409710181548199, 0.23081062240186295, -0.18796673566886996, 0.06722581207526049, 0.11430592449550236, 0.031107910182185197], [0.10130959655613653, -0.02045121333339179, 0.09524484946019687, -0.0019158697144846517, -0.19631334488939675, -0.11248885008379686, 0.015503242288625985, 0.05431631010025094, 0.014192708402783284, -0.10650227741348024, -0.23532867450528056, -0.07424921358511741, -0.10188690189136645, 0.030943214329440014, -0.13410670431908622, -0.052424728355130436, 0.015322089913294827, 0.07058317261280327, -0.16266514459711434, -0.006347814059425835, -0.015177354184729604, 0.11073275161952835, -0.27180413943396614, 0.2174081636734936, -0.14556244105420552, -0.16276422287512604, -0.07519751382814821, 0.014911000181805212, -0.11449175631188688, -0.08770476428310009, 0.0028271772288620783, 0.1593291691211117, -0.01150262571708059, -0.0863379024866317, -0.10012894429021753, 0.012955215971894637, 0.22801283486122528, 0.07540644451589672, -0.05299899649644589, -0.047113456004037796, 0.07020367423297975, -0.017021699472321357, 0.16920489386705798, 0.049276337117006366, 0.04997123149742602, -0.16647436508122565, -0.03330634621497631, -0.00427414604613193, -0.10712560292628942, 0.04787479055063761, -0.00024518640557708027, -0.1160487661767964, 0.21305659052468245, -0.12017307184400196, -0.14029218111698116, -0.011103480604169541, 0.08360415157024313, 0.07389830173529602, -0.023163386196310077, 0.1763457573577976, -0.09268776184028375, -0.13245596477574106, 0.02960077625278917, -0.13633611255352887], [-0.0560892277225495, 0.09962858194010289, -0.025459046478955725, -0.10050208565656014, -0.17070849675659944, -0.04869848321269353, 0.009671546595535542, -0.13268934315343872, -0.041746950035784915, -0.008020659719043137, -0.1333868088856086, -0.08657159608705575, -0.02947309327619036, 0.17218962859866108, 0.15669815893767305, 0.04170463754023611, -0.06083864758085106, 0.23807414930335868, 0.028295037480176474, 0.08325532466101174, -0.005186869388593888, 0.041233477343384055, -0.06212971434970159, 0.12384495361202114, 0.07230082980535381, 0.028949635407041166, -0.049836391096892134, -0.1602591569906431, 0.013406175991530057, -0.027969095530345687, -0.12209633802470296, 0.06430507395286421, 0.057389164706455664, -0.058925758386219204, 0.17254443513984222, 0.012333260966475478, -0.031596589525424115, -0.00657781582151447, -0.098160979465905, -0.037252279758930945, 0.054128357833900714, -0.12510835015641752, -0.06688120367600049, -0.04393707845179235, -0.003660574734928576, 0.005949940692210948, -0.17472557150991075, -0.13999471882907383, 0.09343415782747531, -0.05249766627207067, 0.060921316766796844, -0.047285737976977334, 0.09194414255651479, 0.13335924716446257, -0.000638253505293676, 0.039996607466878095, -0.05148708242840095, -0.13192632353539757, -0.06429995110193996, 0.22940873687440877, -0.011801154870858695, 0.11376488371503403, 0.00677799994963029, -0.02294592929252814], [0.04291002186471419, -0.11176168125321402, 0.024174711058459634, 0.13187576428998393, -0.01733317087651375, 0.07265205465876545, -0.008631163937982614, 0.08142457127154788, 0.06557485529950371, 0.02101467680615644, 0.13768958248749863, -0.04062153676653902, 0.05658906598186411, 0.14697316114807532, -0.024229022315392437, -0.01925206498922717, 0.12182326728204236, -0.23908315157314053, 0.13162978909762776, -0.09880847214655641, 0.0084079001129737, -0.140115660360593, 0.17180262059503554, -0.06600453363745734, -0.010935300809423815, 0.002839981754295782, -0.006989983570958698, 0.087022559690508, 0.057183169622358435, 0.10803400194704296, -0.036358732598112314, 0.008753352041137055, -0.08902541751417199, -0.05681296770931328, -0.02474366901955454, -0.007652046497938917, -0.2660049555181929, -0.01649334187000637, -0.1162023824300981, 0.046993346982916184, 0.044655772935716445, 0.02771905985444189, -0.21665725169584987, -0.11003744019653658, 0.07086728358037364, 0.21655596069456537, 0.14483370063921852, 0.2432316404872954, -0.051333953694203495, 0.04866871520083316, 0.0047333364560454725, 0.13588244033503927, -0.07495659416360746, -0.11600638684115691, 0.0008961138112060505, 0.15210010146156908, 0.07174372751061571, 0.025879332301482486, 0.032020583936880696, -0.07594016663371946, 0.12512354999335923, 0.08603434671068604, -0.1457700100018004, 0.16340821514016496], [0.00018425854072120755, 0.049984069510488595, -0.04348301512614705, -0.08867800217550904, -0.1254392913949019, -0.21364335462612255, -0.0335057442663339, -0.01942809097749682, -0.12865943886210068, -0.03547617451865542, -0.1853946639189955, -0.09091990771009818, -0.006693770053769057, -0.07976908546469189, 0.07510672257682975, -0.01952366603176575, -0.12309022334082147, 0.17146609342845845, -0.16579637620254484, -0.12204052568149647, -0.1078758086678582, 0.06844407651364383, -0.11322570770812479, 0.17521904628757706, -0.13007599502049372, 0.045316233736417744, -0.1748242232106034, 0.028148136656546776, -0.12171786773756654, -0.008072576622772441, -0.13414659618561425, 0.25084578788738776, -0.07140218745744843, 0.07209582640963282, -0.05053082261505743, -0.1149383709286131, 0.21371153526673442, 0.016645671981604177, 0.09409279452454138, -0.03854277860798078, 0.0832795707464581, 0.08955279196532971, 0.038037527983210584, 0.1338912641177131, -0.06529161715709582, -0.10480712784314006, 0.04604189651186945, 0.020335918434175333, -0.06391578019385816, 0.07519313005224973, -0.044487342160510764, 0.10410310313621533, 0.2266847705509653, 0.0901536682703002, 0.02835194352618082, -0.10294310763273075, -0.08555298999278371, 0.0034136623797900354, 0.053266234623128995, 0.23803019659095137, -0.24307664624361638, 0.002039505482802437, 0.11028316348504597, -0.08834636702634693], [0.038164859685634066, -0.0050527842426586825, -0.0009625974796317506, -0.0922688675430777, 0.041457874044084346, -0.13106132513691574, 0.04617206811162849, -0.08037802944885715, 0.017896478119346908, -0.03243953931938432, -0.012709193476115564, -0.043520515139019146, 0.04485184411598767, -0.07320671165931339, 0.11001916395549648, 0.08858442915142455, -0.09673612578865469, 0.24541045267065842, -0.18853922900124914, 0.04951478654597349, -0.024122567752985352, 0.1598631008570158, -0.1685718564970067, 0.01116706654715592, -0.07572073999684387, 0.09419901919209883, -0.16257685116513423, -0.0886824951577136, 0.05959911207243113, -0.10759685974595032, -0.11047315002619162, 0.12155476312359996, -0.11763239035278597, 0.14324438411209492, 0.04319042903788078, -0.019014360160289897, 0.1685650230885578, 0.044148841673091535, -0.07760665494210112, -0.07169169270832498, 0.1011271218330331, -0.0455467728703154, 0.04342413949643055, -0.0076033677171766425, -0.12222410709782017, 0.006666640790969222, -0.03979765774973863, -0.031674051934838944, -0.06120132892791615, -0.032975842467781735, -0.08781705884059451, -0.03886237385542705, 0.1859038701315943, 0.0941526563055174, 0.04535121107261196, -0.04286742309879279, -0.01785750815208105, -0.09438572819419068, 0.005256680605353537, 0.09244131819175574, -0.13746843142733003, 0.0474707859633947, 0.22813152032660208, -0.069687993462563], [-0.05285086731690061, -0.08985409766282704, -0.022564737177943193, 0.13964505525598037, 0.049625653499688685, -0.14052061792343526, -0.06624442595829833, -0.15266802673713356, -0.21885454545709845, 0.17683203024217586, -0.1432325819413712, -0.11025057148962421, 0.12866075940133015, 0.03896140295580224, 0.08236513787659877, -0.0024340460039374424, -0.08450744941030322, 0.1895243679344743, -0.06751824187034353, 0.18121666705502554, 0.04637038407868471, 0.03013910235589249, -0.15175505519964574, -0.011102598350051708, 0.03878289749017594, 0.0820551961098296, -0.007422441303489661, -0.10735384016009855, 0.1593020365472328, 0.016028868632257196, -0.08765444455801201, 0.20141379748312926, 0.03990488804484467, 0.04527324977299751, 0.16737966802884663, 0.13171762210927482, -0.012004771634744164, -0.13544161103636934, -0.057709913134571716, 0.08827345001976293, -0.03912421266423476, -0.0965302366109869, 0.06979584201437583, 0.20523331989958335, -0.019278903661394595, 0.024857626215106593, -0.00484319130118437, -0.06404879725797043, -0.03457918267661528, 0.041301449670026094, -0.020209080264954778, 0.05901024475765814, 0.14959839554332455, 0.121357594037088, 0.13579957286423625, -0.04270027071591304, -0.15094966321523773, -0.17176230645728785, -0.006849473044751279, 0.055690237082420546, -0.08118038245210836, -0.02009513849885179, -0.021218253544613055, 0.022237423511619326], [0.008648530928807727, -0.006592295648869286, 0.20489740851384317, -0.1483749930222297, 0.05628763631049155, -0.10966294111577116, 0.08087096469425528, 0.19124430646640012, 0.21098903384322196, -0.23599705516009045, 0.012046073543895301, 0.11815796399584938, -0.1463765407239883, -0.27497272234157943, -0.07011706957260538, -0.171873958187641, -0.13408435330317556, -0.0031533116012222237, -0.08546829717731819, -0.21360512469042645, -0.1889037796826971, 0.08933278512618129, 0.062474426472638185, -0.05779732574003672, -0.22655723912712436, -0.20383559225237763, 0.0009505561786988442, 0.18780521573193493, -0.1114677801201092, -0.15541625830678585, 0.2545110625709814, -0.09531898739963768, -0.2987753130630572, -0.18031352994417035, -0.2714522473638386, -0.1393829981381124, 0.09262861085157442, 0.24525959226260197, 0.08073731020681367, -0.21541437464005056, 0.09130707846607143, 0.21885335683998242, -0.07910639462707467, -0.28910654398449626, 0.07131580129706759, 0.008918813617114892, -0.004229690801591591, 0.10218803670148294, -0.19180424112666758, -0.1429572344216488, -0.10308765288731445, -0.1230088436337846, -0.06406972787643717, -0.2465640073801006, -0.1326282612906591, -0.17223860685211875, 0.24338776758076705, 0.13853744011217156, 0.056521745617161244, -0.01038207276437775, -0.03681713852938998, -0.04828990778804589, -0.043892524129854546, -0.20197314565217844], [-0.10586697828085442, 0.1334329760294688, 0.05940186164094406, 0.054928242889579405, 0.01692468453466505, 0.03204997663655347, -0.03470399847037345, 0.19918349195847124, 0.17827924282881272, -0.09335896432666434, -0.03220369331370712, 0.02837394426096247, -0.13442843331891338, -0.14271557751931466, -0.06484379253129031, -0.2118584060359765, -0.1521054620302017, -0.0910870011567639, -0.0948199914575331, -0.18302523776749954, -0.06797252238880029, -0.1397110588666357, 0.07276317355504516, -0.15122866679918445, -0.15700984118518482, -0.07860028943156831, -0.021569900170155865, 0.07474790140759413, -0.10752212188608065, -0.01505890245606097, 0.21273445426215223, -0.15662451160592022, -0.1592044538964776, -0.09182443778403275, -0.1927596521840537, -0.0899897261203566, -0.16085257847936305, 0.0644916642533047, -0.0067510218318889035, -0.09642125725368829, 0.099117802663414, 0.21585984574202538, -0.07197538397029034, -0.1839662235009042, 0.2182002111963384, 0.09384775504735048, 0.059105641375601654, 0.12126521695799401, -0.15586088041822616, 0.011829477561005962, 0.002650005803098453, -0.1373450919412072, -0.06311812488970374, 0.015223093969492712, -0.044988874486521065, 0.007031428907350438, 0.0919674150578309, 0.019453638788787673, 0.2007710248419379, -0.12712935483211146, 0.05235794215614143, -0.011597019942026467, -0.036809546148949414, -0.09809346938538951], [-0.06572934975736762, -0.12406410170155757, -0.06820941319476145, 0.03215515127119049, 0.06555535396443671, 0.025371278962427402, -0.11298780918953548, -0.11069830728047268, 0.10306458183629495, -0.11936135185586522, 0.05745581331479495, -0.0796137080074659, -0.12986915343837183, 0.06798600117402681, -0.09449846396099522, 0.07896164397084732, -0.05966604905829509, -0.202964568419151, 0.1632265326180191, -0.02411328418750034, -0.04799613523468763, -0.031980486321287256, 0.04177144188541201, -0.03506017742490092, 0.07395164110207691, -0.09345613468122516, 0.1977529345586016, 0.1462609794715903, -0.013974384906190337, -0.013717507789184798, 0.07414068243349954, -0.22328410503615334, 0.011792789357782127, -0.04738410876533342, -0.05092239760571525, 0.11525651075106089, -0.015768137008947573, 0.13403083633703075, 0.10115118947988634, -0.14477368050332018, 0.031811990875553045, 0.07360535183135972, -0.017095788322559542, -0.09647926025715496, 0.01691302633007918, -0.06474974823750887, -0.03987273495189271, 0.09475546735614505, 0.001654744447801519, -0.08469184533389794, -0.02821837675172307, -0.006340934652114902, -0.2526963896713672, -0.10208425936765758, 0.0060278313827019266, 0.16089989463178694, 0.05019006941489507, -0.08110690497240226, 0.08915810955872346, -0.18864482960516715, 0.04872698800399585, 0.019913715460734414, -0.18199874793369367, -0.01501644661843643], [-0.06727785621588307, -0.04711922822319293, 0.04162540315215368, -0.10434906601340786, -0.011065839854282375, 0.05940120674566661, 0.14677323030272404, -0.0594822788596859, 0.09291400507123979, -0.11280700984563391, 0.2317319842084945, 0.14836286803456397, -0.11091373615609816, -0.061848714412185056, 0.041253405569749, -0.14234859931198193, -0.0538764277754796, -0.11349471917230167, 0.22698015024951654, -0.030224405133318623, 0.0524092282365518, -0.19053116020133495, 0.07274503286257807, -0.17426684757841457, -0.00894666954254205, -0.07346144016384355, -0.007117344698855327, 0.018180022049644876, 0.03768147462180959, -0.15502817523808668, 0.12292197797957315, 0.14852214372042988, -0.1701211460171146, 0.014004023109264732, -0.13994585374271873, -0.0389853601629327, -0.0307084500001102, 0.1581564641541696, 0.003101665653773203, -0.05621789209417056, -0.0771093039699752, 0.08685501601331584, -0.010545992824429092, -0.12464235352533935, 0.08526616877258937, 0.15918487223649636, 0.0367773264963999, 0.32002424290902454, -0.02576425345571709, -0.1090928257491481, -0.057902394659348294, 0.05339418885493294, 0.05660667738992458, -0.1012996125951967, -0.03877868402797356, 0.10025156278293554, 0.023901286956408974, -0.030326443110360823, 0.12247407429031167, 0.06873758481585877, 0.035203211429396246, -0.070583878618938, -0.1711649000186134, 0.05828028854715278], [-0.05582290844635073, 0.10454842092246966, -0.07566614434984183, -0.004970508879976392, -0.12051721747031784, -0.14015492962790724, 0.0003303900311552852, -0.07036324477723362, -0.1058591824223471, 0.0896492943491928, -0.24285823745267335, -0.14293603261603924, 0.07026111022281599, -0.021476017527463778, 0.03694958078071824, 0.069816762408423, 0.061028817568386046, 0.14356183547382775, -0.2287657998089018, 0.18251873698755577, 0.08386702273932724, 0.18505292638432866, -0.04904648458435781, 0.1601003948405223, 0.02506165369852876, -0.053959059687470175, -0.09399777180544813, -0.1426771051594756, 0.08851956864221014, -0.005022169657033075, 0.044824146277024295, 0.09896007724192664, -0.0374965788983559, 0.044349295712947386, 0.12124205058260093, -0.04497725971557899, 0.025143297730701796, -0.034960776422192606, -0.03849722756757916, 0.019621145352607738, 0.035378135841178215, -0.03546669483241532, 0.055559441530511317, 0.12143471545827363, -0.09467559285126374, 0.01247759841870813, -0.026431646904287103, -0.23856145062655731, 0.10330638656246385, -0.010682785232613129, 0.12091389731414326, 0.12316200271860185, 0.03285549722725926, 0.01842666316480811, -0.0646242062880053, 0.08579571168223242, -0.12601385088750253, -0.05631972725637879, -0.07633728100473841, 0.01994058644482987, 0.008641469219061206, 0.10596885947345405, 0.1567313159051606, 0.06507798245506313], [-0.07046140140928538, 0.03904115778501472, -0.007616178430978714, 0.07067845484970721, 0.02802615290812431, -0.10319926863260535, 0.07454996006326242, -0.12167373377493669, -0.11357579587839017, 0.051589071886110255, -0.07773180858109498, -0.10798251566365932, 0.16245994015744447, 0.031142124900090277, -0.05003052020462552, 0.13327282139108745, 0.1145522583343754, 0.08065529410877224, -0.044971302599451354, 0.047665688823091155, 0.09034170212248165, -0.03233238903912759, -0.04827413503275473, 0.15987667256543864, -0.08331710578597926, 0.025579905127559317, -0.2172684138561334, -0.05069137721406864, 0.05255102924595503, 0.0789518415105615, 0.06168434715731651, 0.09273478560616986, 0.12775877960952353, 0.04641999331484828, 0.08270976423788788, 0.08771207715505362, 0.1256373113838288, 0.03683738644273808, -0.003246337624661849, 0.11996843098436256, 0.07775206471523285, 0.05544493089580877, -0.014826097132553848, 0.1781632230890364, -0.1623155064293883, 0.0069488910577823635, -0.03562928475798282, -0.13169074182862103, 0.04143883935713348, -0.07526970545909727, 0.04082317767812534, 0.10891109649221255, 0.020949718944809938, -0.01202622531388943, 0.0745200655766024, -0.048697574070946034, -0.0593724272676667, -0.07657286917672246, -0.03725383336773574, 0.11864856598220443, -0.21931686124613944, -0.05035381448920015, -0.011105259046872163, 0.005183960245132331], [0.05663141190324134, -0.11126641166088695, 0.11326591888504911, -0.04519787165115265, 0.12923705712324907, -0.014807948777745867, 0.14397813852515884, 0.034459170079883084, 0.08829937572781432, -0.009255619374396314, 0.16017101214161605, -0.016336095629684726, -0.071764238264315, -0.14498770493374058, -0.15884008863623025, -0.009069591915069087, 0.0994175836282678, -0.0465359287518437, 0.013468653242965912, -0.18134857198899887, -0.08850250599823888, -0.11283419156867071, -0.06362855266258079, 0.004440232512674296, -0.07680624357244521, 0.08569573943304808, 0.09548235586240911, 0.08967713320544539, -0.03266387714691905, -0.1062374363904241, 0.020791174785670195, -0.15532821719347914, -0.05240356160006971, -0.17827259782741922, -0.08527871789176883, -0.06533259610701604, 0.03193388123093787, 0.014026210376117421, 0.1470360052542228, -0.1468059252948524, 0.1466630575504433, 0.08778255437199171, -0.13012925021155625, -0.1240482672380067, 0.017037046677702384, 0.07860290325983105, 0.12542828583374405, 0.05455875414135187, -0.062476437448632294, 0.015749410364610965, -0.06405579968519302, 0.021324677066215766, -0.1162979265121536, 0.012174218974004718, -0.04410991383785472, 0.09505707705657558, 0.10627369350142093, 0.13317650760008556, 0.19072457396789189, -0.010030640042630585, 0.07326720870492148, -0.06694818236108693, -0.19660195741037303, -0.039435790675926376], [-0.025842710214423286, 0.08767563902902079, -0.1515301796764896, 0.09273921697687292, -0.15109352267173579, 0.054409711298727834, 0.000627336642563697, -0.07378035971331375, -0.13985058471938933, -0.015917650857190276, -0.05433010266724163, -0.09305742461637201, 0.14093721711259138, 0.1732370610272274, -0.01016757131206983, 0.10358833221029388, -0.004215792207364952, -0.005793444727594229, 0.003340682944694693, 0.0011107816809254822, -0.1100871334022139, 0.027590423874458817, -0.21937984023440305, 0.12525984891153621, 0.04832659312092731, 0.0246631832270133, 0.026759522721561752, 0.021753316152479416, 0.11314361445041066, 0.08688320737285601, -0.13329225049172866, -0.0011698483232174934, -0.024442997088640315, 0.026468568056214836, -0.010880312958144815, 0.04197464153363166, 0.0799808961324632, -0.09247855738675083, 0.02116561619723008, 0.13052240346953373, 0.0037225347708887365, -0.06405357468986288, -0.10859439125384583, 0.06150937199605487, -0.07297280713906988, -0.027268721307068675, -0.16532934914290393, -0.01414673211897486, -0.008261181425610909, -0.07036988596709184, 0.05268718158123226, 0.14726231208195095, -0.02698494773782918, -0.06917467128309363, 0.08316991834719736, 0.027120521160818596, -0.17146544991463106, -0.139608248426221, 0.046706696957526384, 0.1129521897459914, -0.2070123542268137, -0.044662577584032775, 0.0997999337925128, -0.007157109460129856]], "h_bias": [[-0.022684316223695277, 0.34199682467929016, 0.3627689986169261, -0.4108469751310617, -0.21693131341640434, -0.33391262741197364, 0.5656843752990051, 0.32638526233892223, 0.4076098206295027, -0.4477490361248447, -0.292914283574566, 0.45191863978930064, -0.5270576718008138, -0.42991033481070856, -0.44055135304442566, -0.3731035901937161, -0.4986621989133085, 0.28907871029479165, -0.19120812683887856, -0.376787367486065, -0.35031151122138915, 0.24700640812184185, -0.28131216322788255, 0.2676547814665168, -0.34228677471415225, -0.3928087215898337, -0.25576060174712434, 0.494006251714654, -0.39054022193471505, -0.4577667219668014, 0.43020043706567374, 0.3653843931171884, -0.42519436646403586, -0.4293897022683433, -0.33769204862872, -0.5145272631598773, 0.11003079720461474, 0.3596595004954217, 0.5007597297495731, -0.36500540038164564, 0.48049601022216304, 0.550489188628669, 0.3374380584995855, -0.6136124736155529, 0.44033543295633887, -0.28654711158280355, 0.013057763599754548, -0.19836262140870908, -0.4029739696262128, -0.3609532432849124, -0.2998660017832652, -0.4012582579985036, 0.2089899830004081, -0.43189413339904054, -0.330238235017552, -0.42218667701960266, 0.630630346487525, 0.5240270449385181, 0.43193505368740154, 0.36603688418222863, -0.2920504710857414, -0.35701366811368535, 0.25349135138890166, -0.36380110754628786]], "o_weight": [[2.662444496579292], [7.724173437715925], [6.534877861485546], [-7.716978618971693], [-6.20499837466843], [-8.368683314246345], [9.080950882978849], [6.3586220925593135], [7.053837053667268], [-7.2428246631336775], [-7.608379539533848], [7.201405116102911], [-8.294654304210766], [-7.500353110550216], [-7.144009948806323], [-6.4586667602109324], [-8.860301635253363], [7.812380674030173], [-6.713858564120531], [-6.64018554460523], [-6.279974481397039], [7.648293070305026], [-7.631027951586755], [8.188700797549368], [-6.454970844974159], [-7.412732177644141], [-7.605218679339059], [8.065715270895343], [-7.065176296011669], [-7.675554025400046], [7.245209291637081], [8.585620345398418], [-7.348720293503034], [-7.159593456287423], [-6.202069620487655], [-8.894839822572175], [4.662376960039607], [6.8703696110181305], [8.18371812370616], [-6.529871201843032], [8.27825599318204], [8.76972431043491], [8.177532906032068], [-9.395793532939578], [7.3071072409805415], [-6.943470535877554], [-3.0165486197143485], [-6.420968955352677], [-7.120136139170529], [-6.4014270001296305], [-5.858295149054917], [-7.689079706295486], [6.2287107969368725], [-7.4703733519690925], [-6.296278656035208], [-8.60810232602049], [9.623594169821915], [8.243664034178519], [7.27284657968138], [8.751995421955524], [-7.560402115147703], [-6.969932959496156], [7.383522210095523], [-7.512155539381139]], "o_bias": [[16.245087032230323]]}]